{"meta": {"vocab_size": 160, "n_embd": 18, "n_head": 3, "n_layer": 2, "block_size": 32, "token_set": ["\u2328\ufe0f", "\u2600\ufe0f", "\u2602\ufe0f", "\u2615", "\u2694\ufe0f", "\u26bd", "\u26c4", "\u26c8\ufe0f", "\u26f0\ufe0f", "\u2705", "\u2708\ufe0f", "\u270d\ufe0f", "\u2744\ufe0f", "\u2b50", "\ud83c\udf04", "\ud83c\udf05", "\ud83c\udf08", "\ud83c\udf0a", "\ud83c\udf0b", "\ud83c\udf19", "\ud83c\udf27\ufe0f", "\ud83c\udf28\ufe0f", "\ud83c\udf2a\ufe0f", "\ud83c\udf33", "\ud83c\udf38", "\ud83c\udf39", "\ud83c\udf3b", "\ud83c\udf45", "\ud83c\udf4b", "\ud83c\udf4c", "\ud83c\udf4e", "\ud83c\udf55", "\ud83c\udf57", "\ud83c\udf5d", "\ud83c\udf5e", "\ud83c\udf63", "\ud83c\udf66", "\ud83c\udf6c", "\ud83c\udf70", "\ud83c\udf72", "\ud83c\udf73", "\ud83c\udf75", "\ud83c\udf77", "\ud83c\udf7a", "\ud83c\udf7c", "\ud83c\udf7d\ufe0f", "\ud83c\udf81", "\ud83c\udf82", "\ud83c\udf83", "\ud83c\udf84", "\ud83c\udf88", "\ud83c\udf89", "\ud83c\udf93", "\ud83c\udfa3", "\ud83c\udfb5", "\ud83c\udfb8", "\ud83c\udfbe", "\ud83c\udfc3", "\ud83c\udfc4", "\ud83c\udfc6", "\ud83c\udfca", "\ud83c\udfcb\ufe0f", "\ud83c\udfd5\ufe0f", "\ud83c\udfd6\ufe0f", "\ud83c\udfdb\ufe0f", "\ud83c\udfe0", "\ud83c\udfe2", "\ud83c\udfe5", "\ud83c\udfeb", "\ud83c\udfef", "\ud83d\udc09", "\ud83d\udc0d", "\ud83d\udc13", "\ud83d\udc15", "\ud83d\udc1a", "\ud83d\udc1b", "\ud83d\udc1d", "\ud83d\udc1f", "\ud83d\udc31", "\ud83d\udc3a", "\ud83d\udc3b", "\ud83d\udc3f\ufe0f", "\ud83d\udc4f", "\ud83d\udc68\u200d\ud83c\udf73", "\ud83d\udc68\u200d\ud83d\udc69\u200d\ud83d\udc67\u200d\ud83d\udc66", "\ud83d\udc69\u200d\u2695\ufe0f", "\ud83d\udc74", "\ud83d\udc76", "\ud83d\udc7b", "\ud83d\udc80", "\ud83d\udc83", "\ud83d\udc89", "\ud83d\udc8a", "\ud83d\udc8d", "\ud83d\udc94", "\ud83d\udc95", "\ud83d\udca1", "\ud83d\udca4", "\ud83d\udca5", "\ud83d\udca6", "\ud83d\udcaa", "\ud83d\udcbb", "\ud83d\udcd6", "\ud83d\udcf0", "\ud83d\udcf8", "\ud83d\udcfb", "\ud83d\udd25", "\ud83d\udd2a", "\ud83d\udd4a\ufe0f", "\ud83d\udd6f\ufe0f", "\ud83d\uddfb", "\ud83d\ude02", "\ud83d\ude0a", "\ud83d\ude0b", "\ud83d\ude0c", "\ud83d\ude22", "\ud83d\ude23", "\ud83d\ude24", "\ud83d\ude2d", "\ud83d\ude2e", "\ud83d\ude31", "\ud83d\ude34", "\ud83d\ude35", "\ud83d\ude37", "\ud83d\ude38", "\ud83d\ude4f", "\ud83d\ude80", "\ud83d\ude91", "\ud83d\ude92", "\ud83d\ude97", "\ud83d\udeb6", "\ud83d\udebf", "\ud83d\udecb\ufe0f", "\ud83d\udecf\ufe0f", "\ud83d\uded2", "\ud83d\udee1\ufe0f", "\ud83e\udd12", "\ud83e\udd15", "\ud83e\udd22", "\ud83e\udd27", "\ud83e\udd30", "\ud83e\udd50", "\ud83e\udd55", "\ud83e\udd69", "\ud83e\udd7e", "\ud83e\udd85", "\ud83e\udd8b", "\ud83e\uddb4", "\ud83e\uddc0", "\ud83e\uddc2", "\ud83e\uddc4", "\ud83e\uddd8", "\ud83e\uddf3", "\ud83e\uddf6", "\ud83e\uddfa", "\ud83e\ude71", "\ud83e\ude78", "\ud83e\ude79", "\ud83e\ude7a"], "dataset_mode": "emoji", "tokenizer_mode": "space", "num_steps": 500, "final_loss": 3.2176355317970415}, "weights": {"wte": [[-0.06417225235455976, 0.14548671928978604, -0.0052487005417427655, 0.09590548162039804, -0.00396518646598912, -0.09723381462334355, -0.038672465010629035, -0.10169971362998649, -0.025196459987557374, 0.10214314334043958, 0.14095758378507103, 0.051303427820697724, 0.16871841367076823, -0.023837589054312124, -0.1920054188674874, 0.12967175554734997, 0.09926256741310019, -0.1583739023706819], [0.12638502436036908, 0.06237883795698265, -0.08210730083897146, -0.2447076249927799, 0.06033687725881944, 0.21597409075232427, -0.004300427170959964, 0.07135857405161758, -0.04035921297435523, 0.19171190895977988, 0.21722121061012853, 0.09247212964756597, -0.053272732236433716, -0.1837621754068511, -0.07979444405633006, -0.25405716572878045, 0.06248958678322265, 0.21224946934058989], [-0.06001349534524236, -0.00035780761467256895, -0.08019823234771956, 0.07857587960730439, -0.0985655279089387, 0.06444694016824941, -0.05957652396220625, -0.19968413077850197, -0.1794373028369834, 0.03384036679901603, -0.12264066726220209, 0.10757806281199166, 0.08931832504515333, -0.18082745220158575, -0.07290532013942004, -0.17996451854119935, 0.058189946338840504, -0.10238705158593675], [-0.11680065761741677, 0.20924497724173868, -0.055111674707105394, 0.23761403232653966, -0.2741925293216994, -0.1076503333242862, 0.12650833758697813, -0.019056077782006672, 0.20113604583706035, -0.16123732544445404, -0.14476151625359743, 0.16171642242017056, 0.21060576949243445, -0.07873188201696084, 0.1666809657277479, 0.219265634327094, -0.10187605170056957, -0.04122943172928489], [-0.2407844911167244, -0.1618953079451176, 0.0482220347971189, -0.15180068574462485, -0.048980253812738274, -0.20533039263000133, -0.07746328563711506, 0.14490533061437502, 0.3002589822339657, 0.16170231095239282, 0.1682061312360166, -0.005913640775466497, 0.17708169250409955, 0.10317155941420603, 0.020973155733359047, -0.020527195238305814, 0.03201333450369914, 0.1981393449521566], [-0.06321960573069561, 0.04008950635698662, 0.1306932056057429, -0.019380237286889396, -0.07939895104122724, 0.04472903001709811, 0.1454300059863513, 0.11183522844762181, 0.15731259889651705, -0.30353317406203434, 0.1537222138790476, -0.08264310168404349, 0.05455911567814117, -0.036820308156458516, -0.06472302450624308, -0.09624806529507898, 0.16748875700604118, 0.18666457421167312], [0.09860389349170302, -0.06614294304999226, 0.06391934584979524, 0.23195826335457065, 0.16430799228311607, 0.18497475566178753, -0.06658956450503763, -0.07421715188541181, -0.01719099623622154, 0.11667871692737497, -0.13467247063824983, -0.047252218530046616, 0.06808765418944172, 0.04175083322345859, -0.11072059212505742, 0.02628123352156977, -0.1292363331163696, -0.022725021017483134], [-0.19508073193999131, -0.2897461716648822, -0.09549272671018784, -0.1062039722689641, -0.057880942685235755, 0.03764875479627255, -0.11494760210910272, -0.08577119829890086, 0.08120289048134102, 0.15911745329748236, 0.07453863997127788, -0.01767361058927829, -0.1138947704841898, 0.04432270809790771, 0.05781503837118633, -0.003713523365041509, -0.030044309579285958, 0.19281583908914954], [0.0035945505849382213, -0.12697349783751977, 0.12035991740258851, 0.10390782740812175, -0.17801942887260025, -0.1957571447410099, -0.13488296620247897, 0.016365333660698877, -0.2046167453434624, -0.09562213639896476, 0.09604132282102316, 0.03751038964352269, 0.17070101301934518, 0.16496169984003717, -0.17473589404649725, 0.04356666646762995, 0.25765506547624695, -0.02221377786785122], [0.0008810587233975807, -0.015170935314652358, -0.17242593977369672, -0.0849028339153762, -0.09804272681351094, -0.050410622809180114, -0.14537390127446742, 0.002180361857352281, -0.05734020979971712, -0.1262813165957674, 0.17839014004134396, 0.00598437217684211, -0.05671463568851772, 0.0595841174146215, -0.0640183001145478, 0.2115880436138248, 0.13092244625566332, -0.1620753128875631], [0.044660815902708, 0.08547665988234714, -0.09654880170438694, 0.022613861935378343, 0.13462740945962, 0.00908644039122871, -0.005893074779601055, -0.14740614008331207, 0.07232217134864558, 0.22150909963000542, 0.1893682544577316, 0.26620595028181426, -0.18593985572752533, 0.048163895152441676, 0.01707360193298139, -0.018688149977082666, 0.004726386494385634, 0.04603008763397684], [-0.05308305382767362, 0.16777925727710755, 0.049213834547468215, 0.12254772413250216, -0.12161273652906528, -0.1019589905534096, 0.1541056009660965, -0.07500161398013633, -0.17788145600254357, -0.24220007724790488, -0.045066313464181246, -0.18873085054009897, -0.11425501266014061, -0.04175115209898615, -0.03301163830282715, -0.16563090031004044, -0.08420751227325361, -0.03918218412125527], [-0.1278032764823521, -0.11430341323791283, 0.004029342821011608, 0.04261270768517391, -0.03323214755978264, 0.02073116910779123, -0.1431765866026397, -0.012710457629980493, 0.05558325275144202, 0.20265334644130634, -0.04682227611606076, -0.03903675595915811, 0.18453685592832508, 0.005805825775827336, -0.049542200833106294, 0.17225935379826138, 0.0693477271932032, -0.2700991283619772], [-0.13990351030509837, 0.00308480376270383, 0.12224504470202482, 0.11047933418981028, -0.045321111921902565, -0.10704530050998483, 0.19539965414498284, -0.03747952262076365, -0.06912918335563438, -0.15923057871547655, -0.17063216746373389, -0.027905176358349947, -0.02902371413012726, -0.09404142410694546, 0.0345041673214512, 0.06892459592540763, -0.15278954436150255, -0.09270226551660846], [-0.0573114800817482, -0.027786836791716233, 0.08718690941758558, 0.07059845295161209, 0.12881620648767983, -0.033361588480141285, 0.011404856587058474, 0.02880672655629423, -0.08238733144971626, 0.2445733490485747, -0.07338740970254937, 0.06782471857682568, -0.10489838987277463, -0.0671780027661554, 0.02078119013216863, 0.1585012268742459, -0.07708457721201024, 0.01579719794614178], [-0.10235316757741907, -0.12432938460431377, 0.08036939238133083, -0.21433625754681263, -0.008894555996959541, 0.15455161458666689, 0.35036635228873747, -0.15081791981953407, -0.14750833140538316, 0.11192700963748732, 0.1760451243888008, 0.04902287627818256, -0.33244192315447224, -0.10235784852018956, 0.017687946063962737, 0.20741545015562296, -0.17689237871498673, 0.0859128556611297], [0.06485279787513853, 0.20704342838940057, -0.11611285923051395, 0.13596509664373346, 0.12961288920284125, 0.019011223903537863, 0.04881037933540681, -0.13177440503244867, -0.011669367228879155, 0.026326072001342703, -0.03718451185191375, -0.016267334479518763, 0.07029939921939056, 0.056487687850657366, -0.25507628465104293, 0.015652220849611407, -0.1655629518915149, -0.015758721474280212], [0.09910559429249816, -0.23769654176183544, -0.2353655433573785, 0.12807391294990622, -0.032671216935157, 0.002347733887910713, -0.0587690941990812, 0.03794502829433263, -0.031230534115986388, 0.26088581597409544, 0.09546641266923345, 0.24117247456752486, 0.08519058675264224, 0.06557894551746697, 0.13135056395710984, 0.0723377292125522, 0.0332511463360335, 0.014714837819502115], [0.08614901630049841, -0.12513580426837245, 0.1013970034786261, -0.1774737281438207, -0.09231825740280099, -0.055666699135479385, -0.1720055539057738, -0.13848163592281162, 0.14920080112550016, 0.026114354495719666, 0.012769273846996006, -0.09534631268706056, -0.15139344654797945, 0.16742350667194558, -0.10787164560417094, 0.21526583895470974, -0.02944675058089894, 0.22483745819204742], [-0.03441031221475749, -0.412800246227874, 0.16782140868067927, 0.04201658830419825, -0.06288076386773978, 0.004431985806141953, -0.1317874114783944, -0.33512696438760065, -0.10329616111908536, 0.12510160778274518, 0.20105494681845879, -0.050374882884596295, -0.1916521006574787, -0.015415153180824339, 0.2286917598114649, 0.0779948519289321, -0.24909799689992956, -0.2881010711332287], [0.10192193341089383, -0.04847410526557439, -0.02177108594013627, 0.27680285401397353, 0.21290721763295123, -0.08121257009281548, -0.17710378256441783, -0.07374293936455556, 0.0691723967277987, 0.1932260452142929, -0.2720332059764989, 0.14032725127919957, 0.11983361545500092, 0.09982425110901726, 0.249013360965399, 0.056643590597634706, 0.012257603578535939, 0.07146042587561648], [-0.07542104684745263, -0.08668808169682472, 0.04643715469382963, 0.10823111514664399, 0.015993254857571363, -0.06337463491402977, -0.12544477816211347, -0.04290807701111972, 0.09979330893473622, 0.04992796220424374, -0.07838730062725865, -0.1542115595873607, 0.0231351032697449, 0.08866894116101769, 0.19014602180859755, 0.04637364040118533, -0.22159215367481394, 0.05264278850499185], [0.008295503856160931, -0.1399292228211025, -0.08970202828442896, -0.02915074161102253, -0.04484990252851853, 0.09972243774440807, -0.2288700927757586, -0.16304836406883197, 0.18020326716482263, 0.02692148009440347, -0.07924640598597521, 0.08534143826559884, -0.11700902660978237, 0.17724795943482105, 0.07697596319613878, -0.014850237748071489, -0.06904248216449989, 0.13881285982647754], [0.0836931526302361, -0.10367627341848903, -0.09494575927436781, 0.1368499085331282, 0.09990410007668532, -0.06641765461057954, 0.008891944325675126, 0.048355981526520986, -0.16665928915067782, 0.053983318515785, 0.04490480049695414, 0.26519351866526625, 0.18046316725942488, -0.26763266635260646, -0.1460234042401345, 0.3705490475240363, -0.10442013137563115, 0.14028766533032896], [0.008548977983024538, 0.14571088720291653, 0.12996126594271812, 0.01894992173831792, 0.10260172013419827, -0.013308356096878544, 0.05554073424341351, 0.12253091288526743, -0.23774004308542226, -0.01859956755020254, 0.07615821512936133, 0.11391125669241155, -0.17168095972685193, 0.18634194387952527, -0.29944082223630697, 0.049208894115390735, 0.18698325442630923, -0.006175635435899591], [0.07529780665372744, -0.3796977651525876, 0.047029347652427105, 0.21782883323853466, 0.14949770321073433, -0.014987550953886595, 0.026617267083567528, 0.19973273187553522, -0.0387387218101463, -0.021290264720240558, -0.09919488128105407, -0.10792909003192439, 0.08879159746130992, 0.050732036405982936, -0.041183300173379955, 0.13339680304683177, -0.28752156603549345, -0.12535652503331024], [0.06880751544427319, -0.17856144058231227, 0.0999575392722995, 0.09303318173852694, 0.1301845524265581, 0.028950802713305843, -0.09283027999072407, 0.024770439793554994, 0.0927431108421541, 0.1010893823797519, -0.06972234482236554, -0.07085801594050091, 0.005946295101855887, -0.050963434538714866, -0.043389571734370094, 0.09045886751313008, 0.04250511868993172, -0.012378661914990315], [-0.11410537910721331, 0.1324912261113924, 0.06200641236841602, -0.17266439907179482, -0.2310587511575841, -0.030949514904542327, -0.17747656966100595, -0.00037608485057320415, 0.00543085514943841, 0.17583818880052327, 0.24507537290209505, -0.07853523200557376, 0.05108617841650511, 0.21061833522612725, 0.22866204593040168, 0.10351817587610102, 0.2148595297986951, 0.0932143117387938], [-0.043484557228914346, 0.20993423011532225, 0.14176809949597594, 0.15914822200660567, -0.17982148322477678, -0.06028253333055423, -0.26224489442449095, -0.02703154617333947, -0.026339165762831816, 0.051243926855427946, 0.0407534333410641, 0.04448761536474874, 0.014736553239685384, -0.016824334731941164, -0.00016390174933322756, 0.1803054925560573, 0.08471143668570094, 0.07211269799970751], [-0.11852826917747293, 0.3196790867663764, -0.06956404719913517, -0.21468508680408682, -0.14454756769996838, -0.1430709498580147, -0.26305122565211014, 0.08259734272531172, -0.053401120163913504, -0.25046331785084613, 0.23364996303752092, -0.05859362505096487, 0.11318288823327412, -0.27776222095183684, -0.04589577537028172, 0.005804132145219506, 0.013296691723357075, 0.13126088409468967], [-0.04805003562552295, 0.008703076184938, -0.05624946698930449, -0.10149634950334024, -0.06130781798497204, -0.051056627852907877, 0.037447645888057116, -0.015624938685802801, 0.09727412417515187, 0.09375029335433348, -0.11053497894882948, 0.2808941194714008, 0.10464889971157579, -0.07806475589485613, 0.07348889794001255, -0.03935238936865941, 0.1694919817727236, 0.06722609860088535], [-0.17025064223207423, 0.03709795789841976, -0.007093947351467812, 0.08878795672879235, -0.08192557374402837, -0.007638497482291291, 0.050316000109224976, 0.22711729239233092, -0.13729779079265075, 0.07594255872294897, -0.139920740364321, 0.05480837799350206, 0.10122693714520642, -0.20025087461516491, 0.04239237425633409, -0.19153126142063515, 0.04026576317885487, 0.06407798964496277], [-0.01130449110394864, 0.09095710760647423, 0.10554766814492296, 0.05731804511331397, -0.04799420022900511, 0.0196881575708407, 0.07921425183264114, 0.05147012566460248, -0.11957492177247646, -0.06384412387130882, 0.08785511605369534, 0.10389410711058286, 0.16814097628244318, -0.12406800881882551, 0.2203462105724562, -0.11300369246267897, 0.09582553911832163, 0.03159614584221724], [-0.11783254479234952, 0.1646496918371603, 0.0353276570136321, -0.010496361799651485, -0.010840610534697943, -0.11773797884605647, 0.02935465102075451, -0.18554035766238824, -0.1345569209095756, 0.015841489561284203, -0.014342374467532944, -0.05942201357452137, 0.000566241422460032, -0.08060564799752581, 0.19849844531724528, -0.13736794296379368, -0.005698478071073635, -0.03847284596342213], [-0.14533892910256385, 0.04897520339319575, -0.04552718865416716, 0.11461945602523164, -0.048128258386048894, 0.04798454723259962, -0.0032964037735451856, -0.30376683055606263, 0.04463555429207819, 0.057774154809819525, -0.13985312628982002, 0.16479524799474582, -0.014475600965540755, -0.08074634116384517, 0.24183299967684357, -0.0752879361836384, 0.2153098810615155, 0.05570120890783524], [0.10501510164538809, 0.0902019312895839, -0.12403968893628359, 0.02912667608528788, 0.11358650198970582, 0.035243481405344786, -0.2767883135655333, -0.1562688598577042, -0.11185340764180764, 0.09113405936529938, 0.08821021646291279, -0.17178017069318927, 0.0006474858423013853, -0.01376034893006813, -0.043365088769056453, 0.11202416948366002, 0.0791423871311782, -0.07553220944779362], [0.06332614239871552, -0.008911225432093427, -0.05825160003158122, -0.09549508678560294, 0.08872568599444271, 0.12738901643384992, 0.16281315364698865, 0.003275112782268237, 0.009266265512357564, -0.05030262489135959, -0.13464046138637456, 0.20190181377573072, -0.12509930419282997, -0.14647747619308343, -0.036796292958080935, 0.06832689258174683, 0.0375657442668605, 0.05058072924636777], [0.26461515915643175, -0.002796696545116269, -0.01406443084276346, -0.03753821952560734, 0.08639719031972547, -0.00631568230189793, 0.132991308135324, -0.026622941772823906, -0.005605955035201334, 0.15720864727882583, -0.2221193738207843, 0.19803440943811043, -0.0699877022723243, -0.053192848768862704, -0.1102536861550145, 0.13606813007583074, -0.09611330288522277, -0.1409165956634791], [-0.041982344043690514, 0.044356077267685076, 0.05086682605644833, 0.011536386661465522, 0.05742777169702531, 0.27336789650897836, 0.19599966188999088, -0.06678587155126374, 0.033800716688245185, 0.17819634146297217, -0.157071325257728, 0.1363413232736679, -0.009285199383564964, -0.015808371552597525, -0.12341244765800344, 0.24824377664887862, -0.04420741285203447, 0.014955727913197674], [0.053140160172453564, 0.2074548815497455, 0.17856158815838, 0.08490266533922984, -0.18375180041122313, -0.018349034920440217, 0.011709121854180512, -0.11450026728079303, 0.24325462932663847, -0.2034209589643885, 0.09004256346972954, 0.11790975756770432, -0.17513529539424644, 0.074000998453065, 0.2651203059775293, 0.15085660032476955, -0.12192845022044463, 0.0858244317292724], [0.18091076573806264, 0.2118646382667387, 0.1875807323919284, -0.14165428256080254, -0.1730369461615136, -0.2930514479970933, -0.24749947976492434, -0.10931706955317255, 0.23120110928384993, -0.05778210778505109, 0.31966365654985823, -0.01813731067974165, -0.15946456194363662, -0.29210519218987296, 0.19047104037418602, 0.20682545796177587, -0.01719723151404985, 0.2789278493384897], [0.10842213920819886, 3.069873169792773e-05, 0.1379134468454735, 0.20986871915043062, 0.22414797132153225, -0.05401795986937907, 0.10734360137236477, 0.005943315362877461, 0.02739348429681273, 0.2135074821964113, -0.038317694814186044, -0.007691234187927208, 0.05186275832745291, -0.21245634455712642, -0.26591467021404247, 0.015174963953134203, -0.28856700728463053, -0.0067763717036444125], [-0.050301135241891615, 0.08996546993154104, 0.22189918727789404, 0.11151210753946149, 0.02438169557737929, 0.07983839067663658, 0.11950864286979385, -0.08460831811203817, -0.06448086295333358, 0.17109044325435732, -0.008250397969189928, 0.12339110291057932, 0.05217844352259682, -0.11771162327327567, -0.054731689193375496, 0.1481349191192348, 0.023347149858975395, -0.008751891072753348], [-0.10794517242848282, 0.19413784112625113, 0.10729332198873924, 0.12080209226956189, 0.010779508122103147, -0.20495270700660392, -0.053672055609197834, -0.024838700687932265, -0.13048048208496887, -0.3592512403188266, -0.0346307430733156, 0.19001880768892665, 0.15432674470351196, -0.1600532378541681, -0.12416452374273514, -0.042409354185983704, 0.1330299850352473, -0.22204771473171434], [0.2213039217681625, -0.06242535676564392, 0.13588722946117293, 0.28300159974034644, 0.2809382485921238, -0.025295855621089942, -0.006077834712815495, 0.00717007630271327, 0.029769704601500014, 0.022815045587873145, -0.12880220542462475, 0.052776523438580865, -0.279640358050892, -0.09673145144206398, 0.08098749352995117, 0.053207141740857715, -0.10923354216871245, -0.15369126466153923], [0.24034191191667895, 0.15674868439425668, 0.26834631933126185, 0.05441385442141662, -0.12112615097140782, -0.15194874020741408, -0.3192998152555002, -0.038842687986845696, 0.08320469446140798, -0.07488073088397093, 0.03804083072324748, 0.19534575564109635, -0.24030021422670353, -0.23854053295460304, 0.16828465775549192, 0.2567359699322944, -0.0620025377386565, 0.060664242333694614], [-0.06616172067499027, -0.13451491699008966, -0.018447519862062084, 0.2695051062466108, -0.053650223142838134, 0.08837516981178334, -0.14875244175896646, 0.006071515030638508, -0.03336765609820347, -0.0007021504505551801, -0.05504847537133524, 0.050633704930729016, -0.14824738530995532, 0.16059435925266796, -0.015567022476474963, -0.1843189939479975, 0.008869068021825974, -0.18675812658938154], [-0.17158016848548083, 0.16686223697584618, -0.04992855507122967, 0.1586413329665948, 0.12712451393984187, -0.0835735998255825, 0.13731625645712212, 0.08762576131594504, -0.010357745134633207, 0.028311575813472593, -0.17767949656104773, 0.08382609888008032, -0.06923611099547251, 0.02601281069542794, -0.12800866071562966, -0.12675626199882523, -0.20848550332867383, 0.05341497923496162], [-0.015123660265050853, -0.11720140281712127, 0.027822789640851484, -0.02085912346460326, -0.0642102294023998, -0.00407399934015171, -0.1147440694402163, 0.18255587730639886, 0.005636226585849807, 0.14915817700600448, 0.194092152875446, 0.269998774879974, 0.05505192789484096, -0.08645227651038587, -0.1118941463942285, -0.13500525244235384, -0.04332466260604656, -0.15822370765567334], [-0.18633694999133044, 0.21159426451044883, 0.05040813110885355, 0.15086197572812848, -0.16253282706117514, -0.03778850496806044, 0.17030505350022537, -0.015258383367308443, -0.2474430428773058, -0.07254634902199457, 0.12962687251709504, -0.04919266768714463, -0.04093737791599353, -0.13933861189382837, -0.011705871415101226, -0.12311611052050503, -0.2040326520499863, 0.18192571097670518], [0.1375492431086432, 0.11719503069877414, 0.1590795029327262, 0.23618925539700905, -0.15742809573299427, 0.06954958552572144, 0.052768754091389924, 0.06957234596554354, 0.12397029287380296, -0.17010177635884877, 0.09394462227438938, 0.13453886957839142, -0.4157991494089206, 0.15275644214341533, -0.1320131142275696, 0.06071276024504607, 0.07648043933252177, -0.1824381374073712], [-0.15241937969957858, -0.02707613181243617, 0.2859670312492154, 0.16629884165401523, 0.19462912809044608, 0.18011132529798554, 0.03183188639785815, -0.06745009358559845, -0.22170696292442582, 0.06295558350086486, 0.04744127208036831, -0.09361127782552082, -0.16935262646336555, 0.05205445205761473, -0.043434761821989444, 0.09580053233117491, -0.0861581733942046, 0.010813399739646255], [-0.1381259239201975, 0.0543281138881595, 0.05955084629871836, 0.23183411558771805, -0.035609863569206805, -0.06643609068417557, 0.12423193855123278, 0.12609734914341814, 0.1361955209255118, -0.1277381052520255, -0.16965819912623842, 0.09755756098843094, 0.06437272650827822, 0.003996890257877458, -0.14993508088477356, -0.24691835659783948, 0.21324622208296673, -0.08793509342090285], [-0.0879788083588777, -0.09695347937171966, 0.0055969688063028855, -0.006047371858571532, -0.13540759334443328, 0.29091819096846844, 0.002950625287763176, 0.02683117925303735, -0.02989267723786496, -0.012181216654282167, -0.2442107161508359, -0.04228824923203872, 0.11703646642902708, -0.15051403693011237, 0.019458065532350702, 0.1602258796469177, 0.003269680898404044, -0.038888553171030425], [0.026599446160917903, 0.06429969466789681, 0.07020091340772668, 0.20282951494958276, 0.10088687749605459, -0.0417362286995133, 0.013281494601102522, 0.09554471908252057, -0.1191916498800788, -0.2290737132938977, -0.18687195669793033, 0.00880441581274135, 0.2819382051526708, 0.16048445658297217, -0.019985484858731754, -0.05625030676991244, 0.03967572954883127, -0.10982113256480695], [0.032663224038527235, 0.019812925742235234, 0.2396576344632521, 0.2916094896267933, 0.01816320162100539, 0.0002060789650503127, 0.0014593710665443606, -0.11768374423845891, -0.1775399060799234, -0.010493817417103722, -0.2254153097541624, 0.15799970220487172, 0.13491601501916753, 0.005566643866590494, -0.14788707317352673, -0.061186665535789074, -0.23856668621121643, -0.1759620381186513], [-0.2019392499032964, 0.16523899058408179, 0.0635042119755048, 0.04144159883641439, -0.19782933357712232, 0.04909861979388091, 0.1528451910400936, 0.05327662944523807, 0.10527867920634451, -0.1380753539498081, 0.059941458645786434, -0.10214219647008768, 0.027286159121328157, 0.015185512787014618, 0.07729090606957117, -0.15987693968340153, 0.10889405458793935, 0.08511618874377477], [-0.18801494784914344, 0.006001885753198951, 0.06984814025533867, -0.046835856464152656, -0.19897521559955758, 0.02129199830553709, -0.13755564798763942, -0.20479768514601557, 0.18957216186761908, -0.15037901976969226, -0.197954404503655, 0.08128846971292746, -0.12338971006425224, 0.019706598027199564, 0.03513730836889989, -0.3043205680511546, -0.11083495874305503, 0.17340346476674534], [0.07207405810987313, -0.057539248372695376, -0.2027711300091765, -0.06488968350125209, -0.08200586957426624, 0.19913228539965455, 0.1929037852024756, 0.022684579061121316, -0.0773869526639421, 0.016253959538785036, 0.10917965936282187, 0.09403968313133275, -0.12487666887659644, -0.2058982612933548, -0.18189133615052422, 0.17482191257588153, 0.11022897950358881, -0.09007723903943286], [0.015305745782706215, 0.09655144384671514, 0.1642488006959635, -0.0822861397875125, -0.10151156584041628, -0.0389089404230296, 0.16550688301356237, 0.08282403929837988, 0.09527998307677316, -0.17142412623693495, -0.21008267639534875, 0.045333023324336044, -0.009342740437493354, 0.02455840940278819, 0.03871541609197159, -0.07829271157157415, 0.10481532229461496, 0.13757336447046523], [0.053441998892996126, 0.16740984405042175, 0.0052859689209446585, -0.15955303487341574, -0.11116277886529169, 0.11418284920398894, -0.10415049156366205, -0.2548699406645419, -0.11415796724874568, 0.23649598491776594, 0.12224801464927519, -0.07181275524278628, 0.12400877413150356, -0.019090063523620387, -0.030039858075526792, -0.17543025411697613, 0.08843309095806486, -0.1607928094793675], [-0.23909217029354782, -0.08699276450168182, 0.10936989486519819, 0.023464307173272247, 0.02742295567450566, -0.02353575405881549, -0.14515783807386182, 0.017212570457657644, 0.14172782061748185, -0.06573803256544947, 0.018971514348320107, 0.06507196449268055, -0.06464826843345339, -0.1184883178374902, 0.1010116901637345, -0.00767078764162357, 0.0843878607081618, -0.033442380343483465], [-0.1402553916579727, -0.02799691292023158, 0.044742344696822825, -0.048093033559940435, -0.18771751764557632, 0.06772999105217402, -0.020897555281508995, -0.04431912679702297, 0.09938292497682666, 0.03357905849160565, 0.026600042271295983, -0.08428846150342004, -0.08667021312389371, 0.25233906462521843, 0.06621058310397401, 0.26455673225799853, 0.008544256278837693, 0.1689464233629504], [-0.10901564693102668, -0.04703936675433365, 0.019649990583625224, -0.2083130697829404, -0.035540330515620756, -0.09751211710659853, 0.23284694312383825, -0.11604335704972013, -0.0033151446772965642, 0.20923953376021548, 0.12151399449498479, -0.017027512943758025, -0.002485816680939917, -0.012088390556637404, -0.016261196779244994, 0.07944151957773082, -0.07298811236131258, 0.00742225836075331], [-0.018483850963701483, -0.019268543785442394, -0.1306785913709878, 0.06736183389494906, -0.0342544856632127, 0.09630401374655237, 0.08655074503020205, 0.1895537159751038, 0.09538988523323454, -0.038140157399650244, -0.17386573991609144, 0.1670056287361404, -0.2056164339319893, 0.07834622218573825, 0.012070837561837322, -0.040328951386813625, 0.2710652870855973, -0.14401155724584355], [0.14094246286794876, -0.3055140363579178, 0.006253175584722806, -0.0876489100917378, 0.00449389469277576, 0.19547653671700382, -0.1766694213590437, 0.002991406978335909, 0.09085235012292749, 0.03572370334329693, 0.24462146621387873, -0.2471497706382309, -0.04463778926114829, 0.20522210454447734, 0.07858701085177107, 0.14176053344925235, -0.10775211614994222, -0.014570789183959409], [-0.07750645475215788, 0.09479392966853688, -0.09471575944623727, 0.04682219053729353, 0.007475403841401662, 0.03612316808967414, -0.07337999410371127, 0.21032212539096495, -0.21308644435735866, -0.13749150216058664, 0.2035476153949853, 0.013239557875567382, 0.30712996211247606, 0.10002934035058793, 0.12310151151058443, 0.12287759110493192, 0.21488649492041392, 0.2402562352631962], [-0.07543002490342658, 0.013881971171248108, -0.24114839800835192, -0.047374659005486486, 0.2720616582677606, -0.21750530026518655, 0.14444722646966207, 0.12599879058125818, 0.28570269624731076, 0.03973760871627845, 0.018597417366672635, -0.3388908448856049, 0.02385115177391096, -0.10710961467789577, 0.055041212251604424, -0.12472865438920899, 0.21307657039395592, -0.024778521705513017], [-0.007312195344598824, -0.06054369449151035, 0.046292603548533984, -0.0650619716239625, -0.18484187530654533, -0.04010875351910825, -0.04137860935431488, -0.09947349109842983, -0.1674926107684409, 0.04440032614652682, 0.09864459682051009, 0.014084077097673176, -0.005122814125688471, -0.157710613425442, 0.02894032230491422, 0.09396327592140971, 0.011848978580518395, -0.013859834961699088], [0.16733981482933485, -0.12192904192942237, -0.30178280754959075, -0.24858680367428185, -0.010675295085624948, 0.2168342728619658, 0.19108661747542666, -0.02786084046412354, -0.04820505841465284, 0.08939378590491492, 0.20523112177904734, 0.19900507641266835, 0.03723347541201505, -0.02009989834883611, -0.04093065261018952, -0.06375959398156461, -0.05747651064913926, 0.020307730008322505], [-0.03607499189112531, -0.11161808297141455, -0.1524761060071788, 0.01921645822850118, -0.1162306251363518, 0.02738004651023276, -0.06789560408759597, -0.1862013341834933, 0.028763986539359132, 0.05136841868356752, 0.021737438617139768, 0.306048990712046, -0.16630245169930583, 0.1569826017687341, 0.11279497018272532, -0.05353576393885809, -0.040108282298433724, 0.12987574936084378], [-0.0725294083779895, -0.08620124285042313, -0.15750343579886608, -0.10391011735852707, 0.03300269604885349, 0.05829232302864781, -0.048448179585621816, -0.05182208507873173, -0.04180795500218306, 0.09493104580910618, 0.02824113675995751, 0.15789094944070411, -0.05620110739857348, 0.13076797857196265, -0.07972312992848966, 0.0072420924778527915, 0.09126339483282271, 0.005485755497828013], [-0.29149892770253155, 0.004548592886076998, 0.08142299865583416, 0.0800061660168832, 0.01958475401085052, 0.17352884550670827, 0.16421185782584238, 0.008160583277553752, -0.07579953204381319, -0.14531435305728257, -0.1732381451101031, -0.0021365966215409335, -0.053797413125070526, 0.0789410189372644, 0.043120020887381816, 0.12882770941191002, -0.10264540576092857, -0.35351341759955984], [-0.24418328234211287, 0.20758959847572134, -0.1397620766298423, -0.19178961660628494, -0.35856443226692364, 0.04849993335270921, 0.16126087507659215, -0.06365755757720885, 0.015003132234267856, 0.08484967385122227, 0.24837701978094548, 0.19874308745860875, -0.06654905043307502, -0.03971815941117821, 0.1471774938463096, -0.07649039471403804, 0.23088522877760903, 0.04741726432517399], [0.0964408744870641, -0.2622346349780962, -0.13018087883570384, 0.058041743035854715, -0.08150162226642392, 0.012598904710461266, 0.14897644810035288, 0.1487557963276157, 0.1539036608055223, -0.12549191762463294, -0.10490732040124982, 0.1224289958352664, 0.11300436699337427, 0.10343398895205048, 0.09442414597901616, -0.062950515044667, -0.050237355228766066, -0.004980575845078136], [0.013590667588202694, 0.1570475271512165, 0.09818417658215324, 0.05872812570767728, -0.05092970836865378, -0.2038275869615212, 0.0018494616368354376, -0.17416135384311382, -0.19097088907829943, -0.22547174192441186, 0.2244619829282265, 0.021167242514902963, -0.13319766392923044, -0.20034945642289445, 0.18274040191964971, -0.30117354969801063, -0.19131633494616987, -0.12139116678494062], [0.15252351996097777, 0.16376184923883375, -0.14049329661875185, -0.07549965522931096, -0.13034224074211345, -0.06478420169456005, -0.06238068670705058, -0.09125828088364452, 0.15589631087567374, -0.015489299033024767, -0.026021185532968394, 0.1852440086022778, -0.12057557995019143, -0.0036829833985861644, -0.19234416947685334, -0.31026177263204846, 0.11936883194524464, 0.04934225137996239], [0.05906560693217693, 0.18902567801646591, 0.13738564549813284, 0.0005106456799479891, -0.0188595557011708, 0.11023697501619062, -0.11059804103510999, -0.2346106914514164, 0.14949609102612543, -0.060379265800382345, 0.12178773528585489, 0.05098812054653484, -0.08216309337239067, 0.04407050007546009, 0.08008834757709468, 0.055611909964547936, 0.05566748272863866, 0.15839246112621425], [-0.04607729785426334, 0.11667075486702393, 0.025703873963280742, 0.050600534373027035, 0.2131054939073201, -0.05247559569254654, -0.08913126265861361, -0.09706793143867874, 0.06161411476262867, 0.20652102420603977, 0.06157815057866464, 0.01637535494298255, 0.15449718319428707, 0.15985493995053715, -0.05261012775087606, 0.1209373462840138, -0.1207787258580764, 0.04544492240894893], [-0.03444166156819175, -0.2113139265512173, -0.1048685499759053, -0.005077296771294103, -0.04407595581567128, 0.055523999338777705, -0.06620349794179253, -0.003595456750649749, 0.12777034408714275, 0.21442331579043772, 0.015886426728704946, 0.1140911385820005, 0.02167049052626146, 0.24149667920169815, 0.045753001550039064, -0.050593878729621976, -0.057973343414037336, 0.15381827931366834], [-0.13192740182733304, -0.038738322472960586, 0.05331768913125469, -0.11375669384991499, 0.19114937385036027, 0.04908770666067869, -0.16503539377227153, -0.10071265398363931, 0.06626940827800011, 0.11150083368816185, -0.06842789630861343, 0.09584761649878484, -0.09191175177096718, 0.02306883721334408, -0.0351014370476741, 0.11644033228584416, 0.026982364637464878, 0.21856829612611467], [0.13820262776289588, 0.11234436567051513, -0.20555868957945428, -0.14380053752073438, -0.13855112322224283, 0.021414673893364017, 0.02267508459699207, -0.001758464703711471, 0.07507124672170472, 0.16006974650805705, -0.06162379659154898, 0.12544351147401223, -0.08415019403082927, -0.16696670669178687, -0.13329406603290478, -0.11472651037586905, 0.013117789066458978, 0.08418862348028032], [0.07622745516767447, 0.2664218241807968, 0.1223247313655832, -0.03579077059980737, 0.11149201282409961, -0.12519101285376236, -0.09167997573848134, 0.21041345903375605, 0.12056972589753061, -0.1365423526878813, -0.03772653801651408, 0.3770239987528022, -0.2507622259537134, -0.10497034298306392, -0.22773564227278653, 0.02282837449862613, 0.028722328403371387, -0.14619365676680837], [0.1362880920788606, 0.016518030461592073, -0.1971023835130826, -0.13494167958519476, 0.2617680005903874, -0.17322924479280224, -0.10413713942257723, -0.024718258989006685, -0.1760940396863414, 0.08514370153730086, 0.14990611283203148, -0.10164910812564373, 0.11378186208344328, -0.029283208313248408, 0.24749204663386085, -0.11434479390411703, 0.11228190509355193, 0.0860103262789456], [-0.08352747877658599, -0.28028191052741097, 0.15571705691621332, 0.012005503051330569, 0.014730181138214081, 0.0913766014449882, -0.16731197538608544, -0.039034674989467014, -0.06830542604757726, -0.1565855565293619, 0.09388375363509513, 0.054089811795472405, 0.01965636446976817, 0.020449407802749456, -0.025785970173970756, 0.021823744060860618, -0.045105846573508364, -0.22173958685413012], [0.08483017739351148, 0.22953560951453256, -0.3138797583007104, -0.16274393270917276, 0.11814012298487145, -0.13475130620083217, 0.0927410624020995, -0.0893529706607522, 0.280676124257636, 0.05159678209943454, -0.1752917177562383, -0.258891406660094, 0.19939122242097979, -0.25447359381386275, -0.015504115330646754, -0.125460295551684, 0.12694454392874102, -0.11086946960215724], [-0.1269314331014104, -0.21733276628584053, -0.02738575375436701, -0.13592096999811443, 0.10564103499738504, 0.09843687892704746, 0.04194836131897725, 0.1395720952741987, -0.052220281902661106, -0.15842811967689613, -0.0854749702089969, -0.11547037847164225, 0.06763046742919851, -0.08309861085247706, -0.07959025319094482, 0.05245439648877574, -0.1157002971349429, 0.07263037339696925], [-0.12350850692335075, 0.09308824910781882, -0.00504231696268915, 0.22409170517218754, -0.08932940606062081, -0.0878617689409305, 0.30830279964031865, -0.3044592238411136, -0.1818009032456387, 0.23387840905736873, 0.004969595202804712, -0.15491736138527581, 0.09357482314249684, -0.09073395023571071, 0.143010391599612, -0.2044027380078019, -0.13388243514540002, -0.062328720076527164], [-0.0745238310509074, -0.08452804495876168, 0.03865178127411398, 0.021555784798212112, -0.06666790870773419, 0.20306840815795565, -0.09616614597265802, 0.011113883735850079, 0.012631876643028214, 0.030736566094018897, -0.039561093249716926, 0.11102673772777681, -0.20077521953620386, 0.21279896204201584, -0.10241192360025897, 0.036205840908179625, -0.0952859107665466, -0.01822271919701293], [0.21589876808350858, -0.24290323620493195, 0.1918311463201698, 0.24826341277950945, -0.02976819464217365, -0.12650635852963119, -0.22642471170441525, -0.047889749729809784, 0.0895844039746954, -0.11556035086228669, -0.019033607663633028, -0.2464129170495945, -0.2850383266388558, 0.18655421320540883, 0.0008904729259781972, 0.06523645513307619, -0.17556191068025506, 0.2414137178225578], [-0.16218557499694153, -0.011667057203102123, 0.24928233508445308, 0.1334583141787539, -0.003991511323630564, 0.16200288991482106, 0.34776366274417153, -0.029840992353192337, -0.061002034254438495, -0.07235750476781459, -0.10231424413797634, 0.2840791509507649, -0.12176604446187415, -0.02393528832629161, 0.0914641166492289, -0.05384427775865738, -0.0811037688739526, -0.26055275169185954], [0.2311602044173794, 0.21832138294556358, 0.0926370151066503, -0.10607720266819048, -0.012134183089262573, -0.20684703297918275, 0.1169427369559698, 0.15870206671705478, -0.09860548082911871, 0.27690361955269127, -0.03468902750450734, -0.5192208422822653, -0.02581533265895802, -0.08711065114156252, 0.02747725501365892, 0.058048542407990164, -0.004494562800085404, -0.07044871741541452], [0.30952842372146866, -0.19219279139055362, -0.06829654169527768, 0.06343905051966925, -0.004009627733645733, -0.03974148139395074, -0.05122228129297101, -0.08602334300232974, -0.28893471743979854, 0.29947499984258286, 0.010017795878662287, -0.14826714803792543, 0.03305040150217829, 0.00857091753855287, -0.01281070072661891, 0.1341440133150627, -0.24546666277714432, 0.037374556652144154], [0.012679383771100984, 0.08257647866609845, 0.1088929937465986, 0.018414197091070752, 0.1532810101696182, 0.17220920454654493, -0.06673895117429943, 0.14796791293364694, -0.0009801916496078216, -0.12851684528349974, 0.019539434829176885, 0.027083855488495477, 0.2528222534535662, -0.10230854244034022, -0.035434348940049536, 0.11315269082733825, -0.09723867510135553, -0.21216995542445446], [0.2829210814534333, -0.10342879745442, 0.1488215336227062, 0.1741209394488737, -0.07335121179610438, -0.20751519458768727, -0.33697457787269625, 0.13215156801301167, 0.09944916540879238, -0.010321504543818576, -0.1718780658277676, -0.14082351833366255, -0.16145602844961343, 0.19334061080036571, 0.01573958543567791, 0.0685582330352688, -0.13886780167255877, 0.03831644430177799], [-0.01267303448896525, 0.036452466897259596, 0.183674345691678, 0.13391101261353147, -0.06497534541444289, 0.16008626506016835, 0.3824598930584305, 0.09917614505152245, -0.10782526630444074, -0.0952159298318302, -0.07222619730270996, 0.016044356746172432, 0.051169961145468776, -0.046943204195088524, -0.0290343282588798, -0.030742472518642112, -0.01246251946343202, -0.1908321714772274], [0.014285027719376613, -0.016260659497725902, -0.3151168367333091, 0.009328148196225308, -0.15362938001878274, -0.001976698976609148, -0.14337445500133028, -0.11825264014056339, -0.309588388091289, 0.050678157579749014, -0.0029709207076610094, 0.04765940912297819, 0.15847033416887432, -0.33116346462158236, -0.06075040199733999, -0.048003071651757635, -0.19423968452131085, 0.20645063218388146], [-0.07692401207767546, -0.051778544433512506, 0.03608903311460577, -0.14671485930408754, -0.02223287604588756, 0.06967413324899993, 0.026427120653405432, 0.3257694687056164, 0.12416413035989833, 0.048544339268485476, -0.12207197963462824, 0.02284231918057998, 0.21531812349533044, -0.2869433783346181, -0.24196385504030293, -0.2126264610212011, 0.22510240056363637, -0.1793585970710419], [-0.11629298405923973, -0.05031844854219147, -0.11168947654952495, -0.22619465074435866, -0.253747388836219, 0.05716745173440905, -0.16110453010852663, -0.10242784199280022, 0.3622195789258816, -0.009232454320639396, -0.13167988889203439, 0.10238684758278128, -0.19750423562181282, 0.19012921529758361, 0.04487593085232573, -0.10943700561272458, -0.034602921148903135, 0.3307880074561102], [-0.2770726534022891, -0.07186449117691221, 0.024325432440029004, 0.2715055868692307, -0.15839029440365662, 0.04365568191462472, 0.06805234627878883, 0.11198009982189897, 0.11749937394380736, -0.17593752789105674, 0.09338820382043028, -0.014306423917782042, -0.07811115180257128, 0.06469044411212654, 0.23158377480062017, -0.007937169361102291, 0.22957061104317983, -0.004109382222376635], [-0.2268792223473594, 0.2255111457854445, -0.07293814026550993, -0.12187933035059705, -0.2511460296156184, 0.05237406661264952, 0.07551389012730592, 0.13931222314239125, 0.07307274147618417, 0.0076616674997322075, 0.2037540621484288, 0.11223454375515932, 0.042438549928843716, 0.04205077844106117, 0.01610938043824575, -0.14839989724859898, 0.08290929717275926, 0.12606833600373527], [-0.017652438717883873, 0.26430039823404294, 0.053796428391130996, 0.0037554808797635995, 0.2710215256092253, 0.005897052024194753, 0.1515955307748753, -0.013707928994807654, -0.12036366792482964, -0.16210799456714342, -0.04532390424540572, -0.0021038636585705875, 0.008714797288874728, -0.12956742234650076, -0.2242903474982668, -0.02021054156888821, 0.04134133463854734, -0.2817633642139213], [0.23496003725268383, 0.04226287051981999, -0.15261789324268016, 0.043996241933734526, 0.09070094165965464, 0.16891954527867492, -0.04717432774843969, -0.14312349862039347, -0.008942729722075349, 0.04520634332429279, 0.053361802474626616, 0.08956563649928988, -0.0013522193736218364, 0.06378565772520121, -0.1960486844225129, 0.12247522367536676, 0.108735336110812, -0.34202678402029996], [-0.1444175661747226, -0.004892297837900357, -0.09853494438472543, -0.20126584161406916, -0.00834202564898014, 0.14149781613771503, 0.20861456488213567, -0.14827068581478384, 0.06585871916851192, -0.05521861176278988, -0.19018836745605527, 0.008519333226506857, 0.014575904592657209, 0.02643468217410977, -0.21956708089213978, -0.08020183365769898, -0.08329395064861554, -0.20126644904060093], [-0.02162792679150419, 0.021279307421474533, 0.0978013689690585, -0.15814350000672764, 0.03679193460545155, 0.26240890746810813, 0.04291644403082742, -0.14882722144940924, -0.2407071090727257, 0.09637195361304882, -0.00292142219991503, 0.08002153866662509, 0.1388368233927977, 0.025665442247113285, -0.03631737134827165, 0.03116777531896371, 0.17231825109155688, -0.13334968811483613], [0.3394498013868878, -0.16784179891647302, 0.005022379470388454, 0.20915556290566267, 0.14401298592714606, 0.11783484694322029, -0.11262558766338913, 0.13567701115653036, -0.09418974928170641, -0.11995101374479111, 0.01843493796985556, -0.18675888982701103, -0.1518888585182907, -0.01608155378756295, 0.12325997919317948, 0.004983855447481303, -0.13226371996213815, -0.05808568726698977], [-0.13877307444788992, -0.09109772716340807, 0.19146665810763955, 0.026354878740567744, -0.25448381533518644, -0.022138264542454454, -0.29161052240242574, -0.3374382898721387, -0.03765610253256325, 0.16101614832340067, 0.06991314912436551, 0.07431786112281878, -0.002905892521881271, 0.1382177325680228, 0.27850817098806613, 0.013463749601597524, -0.05635986760672221, 0.06201641368217198], [-0.16054126911704508, 0.017326248002749206, 0.21787567028760518, -0.3015584773038693, 0.14126268006473153, 0.060229541638510645, -0.14923514706198476, -0.03667541788661986, 0.1780770582085958, 0.05985867960268277, 0.23021998285590517, 0.1288891457971507, 0.1744351979375144, -0.04817712670288019, 0.11583135683315544, 0.2242572049098036, 0.07535770288222118, 0.09346631171956174], [0.061111660562114055, -0.15072256785364163, 0.1793111784842504, 0.08130971570059974, 0.15499553775578592, 0.029480448770177352, -0.019287585888900484, 0.21360697275812862, -0.18310057343200362, 0.06718982378528474, -0.08154154228630528, -0.15742485852281854, -0.13005540518284608, -0.05105998824271415, 7.9015482930817e-05, 0.053616417905673196, -0.03606503484054051, -0.24088201172031545], [0.01317222190084606, -0.2983199640477836, 0.1509209248984539, 0.10294384296074305, -0.07323339485565092, 0.024339385903103767, 0.32040673721836793, 0.27334779300510215, -0.22997762638703947, -0.1216278242489443, -0.09190349716976957, -0.38378152244627534, 0.06317264576528113, 0.23888364744949678, -0.0011069415841526039, 0.11602628414716043, -0.016387365112331208, -0.08312248279033545], [0.05701897032486617, -0.07133897930368209, 0.016999679427998605, 0.14195913661440682, 0.017513135102206284, -0.28221063023690346, -0.19358087710895946, -0.08772814183218654, -0.08722459302343137, -0.11134525331394782, 0.11203851721913949, -0.006465288983671871, 0.21995757396304597, 0.01915921527521544, 0.05964974647192279, 0.16936563866143817, 0.18426656888834964, 0.04895598728489752], [-0.1245602382173612, 0.013717423891665002, 0.04624147680080253, 0.11112874297412573, 0.07620921627554106, 0.19797759163474626, -0.1713216855037427, 0.09150818793118054, -0.1627786431957861, -0.082412555865251, 0.014703567996617688, 0.07725126054597481, -0.0037162121876354436, 0.005462710831791391, 0.024166502254688055, 0.0492243257330614, 0.02021129699638889, -0.013585886228976725], [-0.15284435297756802, -0.20716789125575708, 0.041297098085100015, -0.1005374501882998, 0.11629891190041693, 0.21117830191646525, -0.2717795118778111, 0.2820693968897494, 0.2812969915993411, -0.20461893052127134, 0.06356599234669118, 0.19707123002937793, -0.05231260938593964, 0.0940204832310513, -0.07683591163532252, -0.060649126063788195, 0.18912757784816567, -0.08054707121381921], [-0.3280353302141924, -0.026880222087294587, 0.16517400003505622, 0.056924892260502395, -0.0837228713917987, 0.16114407409163392, 0.0650299911719159, 0.16366042081611135, 0.1160694762820086, -0.10281193419877568, -0.17353685714375147, 0.061043142548944516, 0.06277991087139434, -0.014537001557199818, 0.11065985302438662, -0.40643625635379255, 0.04380512890313138, -0.2141588285938117], [-0.19059218378011947, -0.008106441473740653, -0.06694307162789834, -0.09392906755206468, 0.12637105395436343, 0.06641383188703484, 0.04194224376208752, 0.15627582154505804, -0.10525173316693102, -0.0760090881034577, -0.18055656737038442, -0.04432791303087828, -0.07675462994969072, -0.13362908741510968, 0.12008855536454081, 0.10157878013676211, 0.07175968581439145, -0.10179788701081074], [0.04317536859153739, -0.07416609008593426, 0.11005156536933426, -0.03687801415650818, 0.2450851371358128, 0.20305239209237708, 0.08608963019551838, 0.16708147877226442, -0.07433410647645004, 0.00793969838063265, 0.0757973470402763, -0.4779391080601464, 0.013458208964720917, -0.04315650120520854, -0.09136753765220389, 0.10895704827016105, -0.18396545219758548, 0.042619895269330424], [-0.006477196454251341, 0.03832657792214713, -0.04894622348856569, -0.04358013531466817, 0.06508942901527903, 0.06951677055892837, 0.12510151119974755, -0.23849968322732298, 0.08182032797426228, -0.02641580767876928, 0.0032794734901369503, -0.008976914081037051, -0.05097633081182155, 0.028357616627405, -0.014480703401778747, 0.03378125379165468, 0.020204685990504404, 0.10130457048031045], [-0.011081259774335868, 0.20343311112888401, -0.06420183927539659, -0.15682836159588606, 0.09313365107160435, 0.05366868200948812, 0.08741543755495874, -0.10995642275160407, 0.15747745983948327, -0.06344831316319109, 0.05930715515720663, -0.05046263012840771, -0.2836642930454838, -0.07773614048374762, -0.32127790822381863, 0.23352857719973175, 0.2965843052471104, -0.19842884283900503], [0.09679369005744984, 0.07046574478138573, 0.07264754749258595, 0.0597367280012549, 0.13225314889059606, -0.11473641112129157, 0.0604970254110273, 0.03367801695043, -0.1784662876864695, 0.2930987490084977, -0.023724956657012613, 0.0667851047484415, 0.09413644582026928, -0.19807349176875735, 0.13887104927080526, -0.23694584344714162, -0.26188429835030075, -0.2006585802664758], [0.19470331497260962, 0.03963809948751029, -0.24742089808914444, -0.03043938115461729, -0.032831437984658624, 0.1877998316882702, -0.09055604778249546, -0.04952314036666584, -0.18936982619953133, 0.01574271762136265, -0.0025621546022305017, 0.13342560014133562, 0.20346875985749888, -0.15408670482180273, 0.15243841265097616, 0.04955513241971073, 0.1689437327503596, 0.1951016695955435], [-0.07624259321444234, 0.014779617297139811, 0.03280011780742674, 0.01695059301634719, -0.17278196806387153, 0.024733893663244907, 0.0157297430184614, 0.12569574130941624, 0.0845493250237727, -0.18968002014490265, 0.11186973652176853, -0.39458052797798393, -0.06336440394682576, -0.013830276058240526, 0.17591102654355364, -0.17171684040268764, 0.16568406178137005, 0.3192431238702929], [-0.16422258721080468, 0.1916491235834748, -0.2499407978302784, -0.12543827161882698, 0.19725932978276609, -0.007025913441019179, -0.1165340547265314, 0.2576126051922394, -0.036238273605186715, 0.10883304830761892, -0.19459331353278042, -0.17322477520946158, 0.12824346420824118, -0.33480578473034833, -0.2206831303219793, -0.08203916397025264, 0.008525362995558994, 0.022638769444010873], [0.05092465781879414, 0.051448398982290054, -0.15920348217175706, 0.04652758006433719, 0.0063664458445186305, -0.04048187045940174, 0.24840104082112918, 0.1409071705480404, -0.09249332457949241, 0.05537076134075944, -0.11889823926507634, -0.07184001677226673, 0.05499786394665651, 0.03512695872268038, 0.06285206509615616, 0.07597744998857178, -0.08477083819707311, 0.028979175179684583], [0.13787438877975344, 0.06034171979198766, 0.17320613158297576, 0.20842974653743643, 0.05564158959054046, -0.07440317548583346, -0.029089650757840254, -0.021180399492598145, 0.11411054557994706, -0.07722169705085709, 0.1419352791786369, -0.07114199038098701, 0.09611370579831496, -0.0014718737621528127, 0.11774955984679934, -0.043021321853192275, 0.05991653744024034, 0.22749129531032086], [-0.08103177536707047, 0.0959502227326363, 0.07894438841370804, 0.1257368764316074, 0.13601173359480132, 0.0327074330588165, -0.0077307422446991235, 0.14266432853371444, 0.02859370056493035, 0.09201299264501922, 0.00410588944060927, -0.03447905298551002, 0.06423603310523054, -0.037584202691621375, -0.0594175053517244, 0.08317488092851126, -0.038510042948857674, -0.0842871626959711], [0.14247939807273283, -0.35908290823175687, 0.04984284664060156, -0.012133767723898441, 0.01639234607901469, 0.2331757570148296, -0.14068475348095735, -0.015799983292421677, -0.16014278695342837, -0.10741276786926243, 0.03658134958030364, 0.061993473617776455, 0.023365091751748685, 0.03450151890713489, -0.09316224936320527, 0.06284289693140298, -0.14092902844487487, 0.14814826502804251], [-0.166221638012277, -0.024311705179194947, 0.2626103362522332, 0.07829046910057205, 0.10501019145056328, 0.12910593038094906, -0.1297841094953722, -0.008577552480443654, 0.07068509505061252, -0.056983217793291165, 0.15524850384195207, 0.16753936091289917, 0.2762972809872352, 0.06916772612692927, -0.23359372353366903, -0.03855032487877851, 0.08633408366478135, 0.02234330746524371], [0.16832239346940817, 0.24977925173095833, 0.096208353722381, -0.1543480661501516, 0.009816998951502804, -0.07236978649186193, -0.09784323886610355, -0.18461689070539822, 0.3689999331923052, -0.19842641120130655, 0.009128573377510813, -0.09315459971172906, -0.0845327703250416, -0.13491527889408492, -0.07921930887200902, -0.2626260727546419, -0.14231137343205658, 0.23559883062697512], [-0.012624160112852823, -0.030262718594113506, 0.12057490550299463, 0.11610116534392806, -0.12772494554204628, -0.00760289495121271, -0.11206720088901563, -0.08362591912567256, 0.21522886143140071, -0.07678290415257787, -0.04491832037585663, -0.15183245576994545, -0.16198193446084133, 0.19513322768510888, 0.08064863567453445, 0.07421406111964586, -0.09967046836000329, 0.11282937558604718], [-0.1912154109967142, -0.17361699423425273, 0.05586923348098955, -0.061549303841392414, -0.2317096693122598, -0.45312306539590536, -0.10718327971525295, 0.1563916780264111, 0.0824641488865053, -0.11649899019298032, -0.03798409710154564, -0.0035312682342916236, -0.14056386826920772, 0.10803027248927653, 0.04110525154326624, 0.010537993165294187, 0.015151359133823874, 0.10344003595507022], [-0.1533682812334116, -0.10952690566042154, -0.08159364282614515, -0.11554360823492564, -0.19013292563741968, -0.13791402461426758, -0.20163094467435974, 0.07587410273844765, 0.12635521468870017, -0.1309243310342504, -0.18040370505003453, -0.2031273361270373, -0.11574705048905545, 0.12620539462301322, 0.08206084820307895, 0.022317802300639587, -0.07464354891717916, 0.09485332721309932], [-0.1216711511048681, 0.1617013090704769, 0.12120599590343087, 0.06746949923148005, 0.12620856712726913, 0.17467922625643206, 0.12159283420073712, -0.09257527079609353, 0.02852631354363005, 0.14698807022330782, -0.16206480265793483, -0.034281247131837334, 0.012131288265160968, -0.008476658785835756, -0.18513394766233388, 0.17029816761768693, 0.02668883394692033, -0.11770887494923171], [0.19378323958375887, -0.045253304396375614, 0.1949177155304289, 0.19604899282212682, 0.10186867920528354, -0.19918199243194618, -0.0007687747962479472, 0.03465803212613552, -0.016300950957792004, 0.16842918530413856, 0.018608510614050788, 0.11754073975742757, -0.17100270407440488, 0.03578005443057876, -0.005954206506795515, 0.03471133542059568, -0.09978323056273739, -0.07763158623673062], [0.18605686533775329, 0.0909542016247222, 0.021310870060722308, 0.2909268092130701, 0.23806807868352203, -0.25616878465296256, -0.02056149248869539, 0.004212878675142483, -0.003657339744489254, 0.09289553170258523, -0.07233952567000489, -0.062138757907119105, -0.2499174239916387, -0.003815529486416178, 0.05563534481900277, 0.07808452287576702, -0.16597798507115072, -0.25004377829854957], [-0.03921805486896049, -0.08402305713519259, 0.040209952433841636, -0.04475890504372789, -0.06387094141403618, 0.03429736191430471, -0.23219584072471994, -0.10540058794909239, -0.11606600080897064, 0.21537407249607946, 0.012070968070166995, -0.0493306819735246, -0.0038373237252744704, 0.07561739906051908, 0.17716286601734477, -0.008127123717702137, 0.03432082764236603, -0.041358910698208386], [-0.3940542678340661, -0.08519168095525058, 0.09290692742662754, 0.03174331376039968, 0.009214907899267747, -0.18318213764441313, -0.0504654897822537, 0.11141406067826394, 0.2627492667846179, -0.06923115434541109, 0.20541877953910373, -0.059157833313334046, 0.2763469961744073, 0.009557354068685681, -0.0049830041813102985, -0.10834998789524178, 0.2124057699690285, 0.1516438812350543], [0.3589153217748685, 0.06796930632036387, 0.22304501871756552, -0.03452217368787877, 0.09370832411299912, -0.20349168108838245, -0.03682925756677262, -0.21036601902282012, 0.3867533839252932, -0.0649729981473805, -0.10792992755147658, -0.19769181062867022, 0.0473090082801628, -0.12523396660694738, -0.024694044792986605, -0.2378447649370867, -0.16295087278572865, 0.06971885054933435], [0.1607614825504762, 0.2453064816317014, -0.19921287244264332, -0.3390444399542405, -0.18464202196852877, 0.1413276331768288, -0.03603764330026997, 0.24586407735582885, 0.25793093917440674, 0.06473843870425039, -0.09453042424304885, -0.4028853723602454, -0.23447822467753682, -0.07343578665762523, -0.10161440620928616, 0.03453330528299817, -0.19247304138675275, -0.005122859703129433], [0.17679842376761984, -0.0027523656194615624, 0.16626363854552142, 0.027132819186319292, 0.010092970851565746, -0.2411170128987184, 0.047529132844618245, -0.25363001084280434, -0.06989182719012116, 0.19352252398747916, -0.12209133088172729, -0.1651461404480067, 0.02604772865046762, -0.04530227266810024, 0.19315347896868143, 0.0233498436338368, -0.13768617391018648, 0.4120653174484916], [0.14608710909185407, 0.042458182762774514, 0.21824643345991826, 0.16340969773636657, 0.024803216744127783, -0.27985883818215385, -0.06898371583370036, 0.002731745279564335, -0.03639724533205137, 0.34615398340674736, -0.18339269496982813, -0.13015438947147712, 0.022159160868914753, -0.17564088863220256, -0.06456512873067187, 0.026200806214262306, -0.1434663998795275, 0.2642778635894161], [0.19917314295530966, 0.33112336046216617, 0.049489087048663345, 0.16445046697657265, 0.03429090313368396, 0.17513238841695658, 0.1992596214286948, -0.22440856499437278, 0.15967425927783352, -0.049758025033861064, -0.04328583722851346, -0.04639527016698736, 0.04715569900061692, -0.24644722683257217, -0.14186929786408192, 0.006511906204711139, -0.10709547911397173, -0.044471925424268526], [0.1269378396728371, -0.01171719983014538, -0.014413504816687362, 0.04793152502940694, -0.06554258756564646, 0.27111871462615456, 0.061838733569532865, -0.10304881797320144, 0.07592740176132276, -0.1941258529242899, -0.08756813452519066, -0.0726548266316802, 0.1429065034510577, 0.25369774574639725, 0.0018933139631846366, 0.0873527770257695, -0.0032489016907786957, -0.06329174087853463], [0.028069694354055253, 0.17185174775735418, -0.01806044145440836, -0.047267607077288075, 0.04699421887801173, -0.044252838712906264, -0.061820668104083557, -0.27074955344404095, -0.26638729210341155, -0.07162479938331168, 0.21424071002934275, -0.04883120839961832, 0.09883532480478716, -0.04952683762755542, -0.2766557128809525, -0.10897395320308242, 0.18296498335904599, -0.09542197163460467], [0.04932365284140727, 0.09586853290727121, 0.06765284128788777, 0.022711750956187438, -0.06026075366211823, 0.016415375222183212, -0.12178351227084412, -0.1221621658128204, 0.060944806122756, 0.002251573953897925, 0.07862587267176847, -0.012398358844390776, 0.03106350531302739, 0.06064796815652669, 0.0479864802199114, 0.08633388193619082, 0.1241697702269641, 0.185085334913398], [0.0704481339199958, -0.17789783823125566, -0.293038497955679, -0.004261981590117918, 0.009414792832131274, 0.13469569038604132, 0.08449526794036538, 0.05831074422620318, 0.1959906559703716, -0.03777696423138088, -0.1268362648391121, 0.11114010468828982, -0.04985121753990157, 0.15068059990167237, 0.0806421342859144, -0.060424888788397677, 0.12615536729576013, 0.0887193092871025], [0.025172514312916484, -0.141376624574921, -0.10319905548490874, -0.030885705472224453, -0.007509126363765165, 0.12524982088893588, -0.061541009290451636, -0.21530512055343995, 0.0058279999449179515, 0.2638788967092271, 0.017392196263450226, 0.1535642671402721, -0.16294268031981882, -0.07511523130231648, 0.026155782471294606, 0.07217615535679228, -0.04029586828273341, -0.15079836690829393], [0.08739664021846921, 0.11263665654380887, -0.03558847025072506, -0.08025198189484699, -0.09448273989232835, 0.14180396999553488, 0.21069559756862177, -0.20967044300637738, 0.012937751455154254, 0.12072548763296544, -0.0065178709358694725, 0.09511827820996638, -0.0010712032134929214, -0.1112725138066796, -0.16142915682423475, 0.009957197905572892, -0.07664128361017011, -0.05940792659071834], [-0.08899801715147665, 0.08750181936825853, 0.05287242453729472, 0.04348893640415042, 0.004740436663990986, -0.10342126181686945, -0.03213957174550291, 0.004826575159734845, 0.031037936544074943, 0.06576674241826362, -0.11683040516545046, -0.10932631894146537, -0.04416412343649683, 0.22236288613374325, -0.0072707213758602725, 0.1323985606327004, -0.007806386835517474, 0.11054259087447833], [-0.04837492124821683, 0.07679837870451117, 0.20072282204056419, -0.016827941897424228, -0.16352946275041574, 0.20582128188362392, -0.07374847804344271, -0.1148493650626368, 0.12515838936101673, -0.03024449952244496, -0.009889516487545205, 0.01544494666410172, 0.1828640094606738, 0.02052589921276388, 0.1040037649128114, 0.09062483741392799, 0.0103783170816093, 0.04436286397514243], [-0.02647831317717433, 0.0360379645894721, 0.02452999648504693, 0.0387300514951685, -0.1458312232426194, -0.056663052136254645, -0.24149460588292487, -0.19907015285050003, -0.07513957393108954, 0.10750396898277906, 0.0031437075897792948, 0.08915013064962402, 0.215875346751573, -0.012000746969981975, 0.1992045116771545, 0.22199755689588294, 0.07003896617266862, 0.12363521520141751], [-0.044592285790271094, 0.04617918405969387, 0.10989063064900305, -0.13284782116511765, -0.13447811804039111, 0.03077115093608242, -0.11628567364543657, -0.0865074919352556, 0.003001376525256777, -0.08172742366251781, 0.04465767247105152, -0.10122449650929563, 0.07909580168074672, 0.06356963880881297, 0.13125553829523984, -0.010661922153075779, 0.16133628938637415, 0.20047534950573917], [0.24238512577061982, 0.0363962924949712, -0.08961016340560032, 0.23003015851844677, 0.02409991353083514, 0.18926924543284984, -0.15774146358542795, 0.017500087493247565, -0.09097366261409684, -0.1523647349806453, -0.0628329026794365, 0.07271882148009788, 0.12279583902685626, -0.13078830494323818, -0.22696015220009855, 0.06319143066948794, -0.07672387169821535, -0.041121881447682085], [-0.1372988904372875, -0.087898190341777, -0.08595483299549272, -0.1537328843358039, 0.013506364581560383, -0.14726377059947096, -0.02217825200446592, -0.11321666167315628, -0.11727405168120393, 0.19536200497483422, 0.17306453678960823, 0.11315464466913035, -0.15895356430189217, -0.007336248454559688, 0.2989104611479724, -0.09363585473061037, -0.006554957323351833, -0.06658626343135765], [-0.22968185442812963, 0.16597923642787288, 0.08557501782515532, -0.06190124059518414, -0.14794053653776545, 0.03497006477991375, -0.11349002383350942, 0.11017749806451355, -0.021513059860961137, -0.19743368418962806, -0.13408526333225948, 0.026843903570241284, -0.06714291539869349, 0.05104205752873817, 0.1570041458098076, -0.07346383578413193, 0.11764758176311273, -0.05963607044552422], [0.08668971838229826, -0.06044958551133558, -0.04948603651805296, -0.10692066601282678, -0.08681194592027153, 0.06149751135092513, -0.152473578506711, 0.05723326076335487, -0.058697837361735644, 0.02049975888097935, 0.10165868511842711, -0.003491604021068388, -0.08811590687016459, 0.05412973634684657, 0.13501455948645133, 0.0013791721529325068, 0.12855005801259028, -0.0266895217081142], [0.08482052388967204, -0.015567524277906416, -0.08127966597997259, 0.14284088280775653, -0.021588034394432444, -0.08109811907545839, -0.06037500983607477, 0.16565972863034129, -0.14568397944445932, -0.11852193553938302, 0.028229888012995894, 0.027624184150860747, 0.0651450230489656, 0.0028567966483599425, -0.04345470892111024, 0.05249437041123142, 0.03692013824690349, -0.03148637334721815], [0.2792561171872738, 0.042487982254166674, 0.01277608250207249, -0.11613501863207501, -0.029996099131815956, 0.06792617975101754, -0.005397806091347465, 0.06550445639753649, 0.38662431519834034, -0.015165368703297719, -0.23989442200404879, -0.18330241550158546, -0.19691133903182922, 0.11362766816788059, 0.030672986403815123, -0.1677071176342926, -0.08736781754407626, 0.17706401255639012], [0.43230255351719055, -0.09709751825087269, 0.16814649864889794, 0.030564167275219642, -0.0985845232008962, -0.24333145151554245, 0.040283195822102345, -0.025145796719690784, 0.04821227690925596, 0.09511655511795204, -0.24552819306576626, -0.32184007088440214, -0.095566154643988, 0.07083210900975737, 0.13424602921346085, -0.05034474848578189, -0.08287047655553559, 0.25742071569474323], [0.23621198167579868, 0.11110504896145297, -0.11566606951181856, 0.08218705686795019, 0.2843276385043689, -0.30898886398174297, 0.16406972208690832, -0.0942344021949375, 0.2032074455876538, -0.023660643452997558, -0.12700627134136663, -0.28228463105692797, 0.1693132470390897, -0.253469734702807, -0.1334918948569506, 0.024642833701230743, -0.17367253929674187, -0.19805085293090344], [-0.14004787875512234, -0.15216615993362057, -0.09579455577516434, -0.1591313079906259, 0.10645802687634981, 0.23863286245793386, 0.09168805881784138, 0.16049960889356188, -0.17772781480325367, -0.3167477148747806, 0.10684195151106747, 0.012501122833639673, 0.06678030157558414, -0.17734944689822899, -0.12155926297339388, -0.16952055038795863, -0.18491641917519816, 0.22964360481251828]], "wpe": [[0.01142924871353234, -0.12916604385341682, -0.09794916877553984, -0.1487242630404816, 0.055873659985381886, 0.33737895859770606, -0.040528483675936096, 0.32050244262779554, -0.14736439830783424, -0.08184732773279431, 0.2166051619604166, 0.08246018840245876, 0.22073598443458461, 0.005588431345628005, -0.08071824878311976, -0.18277422622295839, -0.1802809947361483, 0.04042820117485322], [-0.0005927025139271096, -0.043927364472001934, 0.014528750259401502, -0.13106358306644406, 0.02109398755735049, 0.0023530877797731885, 0.11726787939933901, 0.04099174447362691, -0.004925788134094586, 0.036564344598843126, -0.07658213634109076, -0.011767943153215651, 0.17695884869271813, 0.14610694444101996, 0.022728437215876945, 0.05697864555630777, 0.06840259014192274, 0.095875633202644], [-0.005431332242908758, -0.036237208581497295, -0.12451714242840065, -0.04729121178911533, -0.07685888813843315, 0.06538728675326305, 0.11479147913452703, -0.08983048377063241, 0.041666318904771474, -0.13180543517954194, -0.04623471150400542, 0.016916761474813597, -0.08129763967617423, 0.1411572498722027, 0.0024101962569447574, 0.05032272888817944, 0.021082308586624934, 0.01656484290166211], [-0.00374846815887725, 0.04530180527184528, -0.08599535601620409, 0.06333787062832094, 0.05126750153612547, 0.14390363977965176, 0.002166692796329862, -0.0771531786426776, 0.0009125465316663011, -0.01986821694551324, 0.017419527596695725, -0.08600316178284187, -0.09794167004256164, 0.16105555447479852, 0.008677512512549888, 0.04648376789974212, 0.09614734830172249, -0.1504630521061417], [-0.11302599050740073, 0.10452072626374387, -0.07107281339606845, 0.1207875998800686, 0.0427890954950237, -0.07838375389478554, -0.04575250462085276, -0.0353616201546495, 0.003040800198071302, 0.03621998532295423, -0.039061920030502156, 0.046679072686143463, -0.0010600697810201226, 0.26720364272082775, 0.0036422514688626098, 0.04878668169821637, -0.014291235661961076, -0.08394578338298893], [0.046040238160220584, -0.0005310338415462952, -0.022630231865971594, 0.0749871055429154, 0.07906339432495416, 0.0945333582848964, 0.027737699852490562, -0.028281268712428972, 0.016349370718781047, 0.00905968586639, -0.19222071363800972, 0.04060504301647042, 0.08656675873971902, 0.12849849033208263, 0.03508667059456156, -0.0008929820890050817, 0.0006395649243882824, -0.007965687295381644], [0.13168142719299208, -0.029962268912800773, -0.04050011869833173, 0.21086021811666253, -0.014281858300020298, 0.08853456934054402, 0.031172005883828287, 0.11864102573709728, -0.012984471509948954, 0.0076134722351495696, -0.11825604953026823, 0.13299575339008457, 0.10412898938098027, -0.007943017063357209, -0.058213604980582125, 0.078878511705976, -0.14894283626835325, 0.09990654175296941], [-0.07754651409144092, -0.18496246618402834, 0.14516370597782824, 0.28983370458713203, 0.032814657560415385, 0.31764381068581526, -0.15305159561607415, 0.07513457602282801, 0.029858492687519805, 0.10166678036324836, -0.21698006920056656, 0.1726933178952628, 0.10021671512441799, -0.07214029771992767, -0.21439629925538758, 0.14707064342606882, -0.11097848283156397, -0.025337944547608106], [-0.01312299331830274, 0.08337452547819957, 0.5237817884861391, -0.2612678967531033, -0.1817739710682307, -0.2569495774518547, 0.07426242915444377, 0.13161258063650508, -0.1728771621201556, -0.1698365525335908, 0.14698849936244968, 0.13028077992466924, -0.03724261775852662, -0.5843070665869529, 0.3535927895934727, 0.0054697292892823485, 0.37128140339602544, -0.3472903002464776], [0.019815487126774615, -0.08076602043783321, -0.01750073445654236, -0.03931723769824019, 0.07818771058417315, -0.03986006335323888, 0.04084335062866325, 0.008146211964976032, 0.009178509707045717, -0.089242614105656, 0.02506956682428458, 0.07518025830132731, -0.06605993484224637, 0.09827034327962432, 0.05474068902148078, -0.008997401733075217, 0.027332276715720295, -0.004018598700161961], [0.08844330528418293, 0.036390061923003716, 0.023216372123448462, -0.08875487382600925, -0.10900942422810175, -0.07570496668636628, 0.008056890602023125, 0.1188161448578731, 0.047769367513440124, -0.03320886898534605, 0.007170745268124316, 0.04277390890574742, 0.14603672711113025, -0.05952091097736647, -0.1369655992111443, -0.0401290714684914, -0.07733984983144368, 0.030317943504855817], [0.11469918241660756, 0.0018917511024065987, 0.03870656132465176, -0.07833321277189835, 0.11271162427414258, -0.014478853181890742, 0.08362273861234007, 0.0652032092340376, -0.04091040272359711, 0.16443154817289243, -0.12723183145740866, 0.1715880323170695, -0.06108398985462041, -0.10432936678384067, -0.09690842689006536, 0.04816350603796545, -0.0012245034973905992, -0.020216609610014816], [-0.004519638430044522, -0.012260867272555457, 0.03837872091762519, 0.061632041482023045, -0.014788161259269603, 0.0666428616360534, 0.01307838023004321, 0.11222632074254604, -0.04924882393490261, 0.2046668421268766, -0.03154847923073849, 0.11019470791321916, 0.002098564673323664, 0.026565649424048245, -0.09772842849862488, 0.04701981686840667, -0.11586102280530662, 0.013477326400853688], [-0.1072572564209345, 0.0071957534776487765, -0.08495631269066901, -0.014030677416479705, -0.009634858849036863, 0.00855852119936895, -0.05431239300124982, 0.10004831937707821, -0.007390436482076577, -0.00023398704006249578, -0.09272008296455177, 0.10570519005677473, -0.05853460540319585, 0.08575904152925523, -0.006687125012886014, -0.07795555936450337, -0.007437800934352509, 0.0812575112646744], [0.034169600563012104, 0.008623986998845519, 0.07127281504893263, -0.13309587565375183, -0.007357806474566522, 0.06289921589850776, 0.00437574208314232, 0.05560724283557743, -0.058628359432880875, -0.0305144992234801, -0.020180266255093757, 0.04685360070107573, 0.029197439082216753, -0.08686773325451963, -0.09088116589857287, -0.043516293586348474, -0.026129151885380994, 0.027461049590547883], [0.01361789536186762, -0.0681523494973331, -0.011964780844440023, -0.015169268528873705, 0.0003723278627345869, -0.05954251852102064, 0.10960437483513819, -0.05044850385000582, -0.04198907680371363, -0.022504029121641064, 0.1324345943590009, 0.06612164486006031, 0.0249740245020875, -0.004727499348983074, 0.03868131197898298, -0.01146251997649635, -0.08241117204800796, -0.05801940492148809], [0.04564808244228841, 0.07860314866401402, 0.014606334063189815, -0.1359268052663301, 0.0016594885358700772, -0.1820675205251021, -0.05281037307500788, -0.053246063899747495, 0.05782951640619108, 0.03229278551542674, -0.0223583266918771, -0.07900968055596652, 0.03417397780923598, -0.053263540514463144, 0.012722723694891571, 0.009824967854122004, -0.06220980748797466, 0.05831009269362171], [0.13807697121323798, 0.051879220080985264, -0.09152828140211265, -0.02613648300265881, -0.010452553903755367, 0.07979042114217519, -0.05896382965862281, 0.006915668415139925, 0.1066720795688096, -0.02341219915158409, 0.044049405039930184, 0.03420814545592221, 0.017536090091575127, -0.16041101970434815, -0.03899406989148333, -0.021845366398392296, -0.035635381249633294, 0.01160989714846916], [-0.07735473777844529, 0.012936671544412682, 0.028525879098547573, 0.04758273043856067, -0.01235300766096091, -0.006950637341145015, -0.15887909084149265, 0.11656429848943363, 0.1130828392255272, -0.04395027345179998, 0.10992182196544044, -0.11164133300174867, 0.005844040316740794, 0.072286998023608, 0.021232958709944138, 0.07972810144034556, -0.0752176487217933, 0.027648775258301877], [0.06420497157263037, 0.09482706416500865, 0.04122771298506185, -0.06023150294450097, 0.11465099776969578, 0.07882045507167532, -0.004437284008040221, 0.08140774145464799, 0.005737502370789484, 0.13269874745047316, -0.01602774677697315, -0.10390943636124965, 0.015582107149539707, -0.045488743873348794, 0.03681954699842338, 0.1318104901392277, -0.014424554804199121, 0.09531399140682802], [0.017838569834114016, -0.05716473129710655, -0.012504729405571426, -0.01197108260673132, 0.09449162904464947, -0.011527628092072065, 0.03650317689487381, -0.03452474243092124, 0.04631051193716456, 0.07407321028155334, 0.006485514229131623, -0.06667406655993875, -0.0597478912369439, 0.16545084026096282, -0.059940109985610085, -0.05273334007179549, 0.05367120215085533, -0.0008125995162280903], [0.05909719779135029, -0.06027787808748314, 0.012569207175961165, -0.015474667403662512, 0.11593368178454894, 0.04904655143768723, 0.092182106118245, 0.1038992924557204, 0.10499267728089555, 0.0353222469673016, -0.026826142988062657, 0.18368609706726474, -0.0906736066706691, -0.05943367022118269, -0.012861212818103105, -0.01240518060949231, -0.15435871453216823, -0.06733892635166303], [-0.15936237117766056, 0.05759832956946789, 0.06474912521893117, -0.0357182877927899, 0.051828944178086984, -0.0900925585389416, 0.02949558511068604, 0.002920791178383377, 0.10964020079665042, 0.056803590946935045, 0.03520536349581481, -0.03975209236796177, 0.042229881747680525, 0.017490120622355745, 0.014883897017337559, 0.03797849380461037, -0.027196550976363806, 0.0505547087913825], [0.1417135711898787, 0.07206097693843158, 0.0891258916610247, -0.06795986442777127, -0.024814919407978624, -0.02457722752781232, 0.043294956173213425, 0.14429316759255975, 0.0011796452471266776, 0.09770044814485465, 0.13929706379330323, 0.11144052049146883, 0.0770627290562299, -0.015576073798237354, 0.05444322435189968, 0.020150867384271236, -0.03263663652851537, -0.08225225380840288], [0.10154341576674418, -0.02441629357570949, 0.0053525824769719765, 0.07462386791646922, -0.1491517197445106, -0.027119494106524228, 0.018539086138146647, -0.05832087448671664, 0.11320361631658378, -0.012336296598004812, 0.040921277983771945, 0.05542094469516921, 0.08088134835322197, -0.03927714837669195, 0.027882628066906653, -0.17091598208678324, -0.17960454638040713, -0.0453009003400565], [0.003882868762626253, 0.07398679086672645, 0.03234724592737464, 0.038988164903039385, -0.1279322740629885, -0.015675161849395804, -0.039482631782829736, -0.07462808912131975, 0.03736975978158458, -5.762080292599772e-06, 0.13642954710892638, 0.035262321183126964, 0.11060676950227842, 0.06151231503061628, 0.14079510850214474, -0.007242252161134147, 0.05804625301584924, 0.24066720816367967], [-0.09032382979986392, 0.05148265001834576, 0.08604731890190183, 0.17157027581420786, -0.03393375747860725, 0.09217333724633048, 0.02277242610707111, 0.024915452836947495, -0.019363832830845567, 0.09553644525734746, -0.038911752066666375, -0.05709253429275141, -0.011387722062840628, -0.12969659888742857, 0.019699741668396564, 0.06394022164022475, -0.024530666513722627, 0.02566794941270525], [0.07359655888581566, -0.009040064538804151, 0.022381535990220327, 0.07759466581322363, 0.0770068034468955, 0.08950640439753636, 0.0044908070041948245, 0.005844149273069409, 0.04792383731085176, -0.21527834034307441, -0.11312235845092115, 0.06570993240121194, -0.012119113775703074, -0.06310179723506651, 0.09879517318634791, -0.09885314307282383, 0.048569312797149065, 0.09046790467348909], [-0.054383152582685786, 0.015887096092465403, -0.058176154814466384, 0.039128824069040544, -0.07155434052364903, -0.03550962035359855, 0.004373857722324116, -0.1599291622318075, -0.0031512328586778353, 0.03604234750485427, 0.03582219148366329, 0.07993510451310272, -0.2310458294372159, -0.11302986806754864, 0.006699486394659623, 0.11841842132308604, -0.09425031559794862, 0.11133820909105217], [-0.044839782691631525, -0.030894611812481997, 0.016196939599182638, 0.06500371478539775, 0.15970562566733565, 0.0660784759055926, 0.07949870185407072, -0.07813679002029313, 0.09860910573484014, 0.011386405197882336, -0.032362583478370135, 0.08520118180096196, 0.04269262815256862, 0.011998738233305056, -0.056962198562625486, -0.07247314371135315, 0.10028267306318743, -0.06512646133285088], [-0.0036283220443173226, -0.06291968177231766, -0.023751971530346534, 0.1971585782783169, -0.14022714105277578, -0.09226392740156256, -0.06959564562614425, -0.13007739200494012, -0.0233693477094575, -0.0504848291890032, 0.0832079253601999, -0.05448018758431354, 0.0497903488170461, -0.09806376913173355, 0.0189846328484844, -0.11066190455832652, 0.006871693188064732, -0.020966666766107808], [0.14584655010753209, -0.011315885062784628, 0.09469178607739552, -0.049147476717596526, 0.15752009003754702, -0.059565619189551826, 0.10145750095761469, 0.04536660864910369, 0.050642587194130805, -0.0721603939545787, -0.04309828658801638, -0.02575055120759427, -0.01554627141464423, -0.00542631280864596, -0.010290555522716906, 0.0160859336616813, 0.03090326096922334, 0.1485447481248723]], "lm_head": [[0.28950050849132425, 0.3245346305683762, -0.5553269167196959, 0.1645059595137966, -0.17261933270561286, -0.46440019889254963, -0.40023670206413264, -0.1802674218700566, -0.39852700594999435, 0.1692552565841944, 0.3007299977379276, 0.058859096487805296, -0.1589565746317365, -0.35507074436621994, -0.0745459261490065, -0.1347549403232652, 0.03942113849438589, -0.24793517333603268], [0.2862564243390381, -0.019980260406589012, -0.15517368526569864, -0.2526995302035564, -0.23156914139124476, -0.33175028077623514, -0.5629907622480049, 0.12885391824593398, -0.4704543526996701, 0.23501096038558997, 0.5066164757068702, -0.0328716002785986, 0.01609681962580396, -0.4124201588408817, -0.1892887541924444, -0.36462700971122836, 0.1051261803574624, -0.25465608138595885], [0.39672512937320287, 0.11575946787825223, -0.0742578117392732, -0.34977361288132036, -0.059647872215137177, -0.3694015468674507, -0.5412706168444947, -0.04445895906985792, 0.0051727235159487765, 0.8088210925995433, 0.2393376582437701, 0.33248866642878366, 0.026015196003285973, -0.12604285575299776, 0.18910891937514257, -0.23208280731013559, -0.06526534916355724, 0.04863632068505736], [-0.13957963368006052, 0.07583660786510177, -0.073848532531975, -0.12884925615461987, 0.13047883875473396, 0.15630390752410836, 0.11727729569271066, -0.16453412803459908, -0.013461033709114499, -0.092146563201659, -0.09217825895651542, -0.07549619698760783, -0.12104167599660606, 0.18732233349165597, -0.1828130178986689, 0.0832264266832321, 0.08423530372994407, -0.19075391199514038], [0.0718808492684827, 0.1420274532353023, -0.17491989416567677, -0.38008625290540177, -0.3704831673793692, -0.09567752481281362, -0.34030548398178945, 0.10479978230203157, -0.18762645902191102, -0.048671095334040536, 0.48596094497883124, -0.040720247912560265, -0.2655209067066063, -0.19255061096833956, -0.25189372838262136, -0.47152194942622416, 0.13352058311043594, -0.07345305594313993], [0.1901960075338075, 0.2602098669242374, -0.3945424721583569, -0.10302488665757388, -0.30264105645920686, -0.5651114436581292, -0.44262760510994303, 0.19405695860217934, -0.42531114784277485, 0.41044642307097, 0.6014287611461155, 0.05937284484866004, -0.2831168806715799, -0.32127917112462584, 0.3517593797694316, -0.33446194689598213, 0.14467459416237774, -0.3817009619943178], [0.20420655117863162, 0.15751645673839387, -0.10774280004359837, -0.2968589233474372, -0.431677840159625, -0.5919771979697955, -0.47850237339367085, 0.23557697786050175, -0.235840451495577, 0.7583507429146805, 0.2828845166293447, 0.06111512157975632, 0.03948314869580772, -0.2441699161931022, -0.00978149863119923, -0.12282295393819989, 0.21463961317724364, -0.3436698694906183], [0.14552221473308413, 0.05941967188506962, -0.2930922603384235, -0.18758651389516398, -0.3270685150056213, -0.2955600342567023, -0.3446414439228015, 0.01018381459347449, -0.13530847429655987, 0.38505374019237154, 0.34405603376574195, 0.16784235621066126, 0.051031776806082806, -0.263847058055513, 0.03631346174062543, -0.293295031244031, 0.24919253260848637, 0.01591866438096939], [0.32262911293294666, 0.19019346144429394, -0.17754887919304116, -0.32169625447516814, -0.3437869409100176, -0.3327349076908124, -0.2987221905192086, -0.02802727121331047, -0.44179179838296206, 0.31735439063203763, 0.30091931056003507, 0.05778923548602168, 0.04745689075794003, -0.42073071470613316, -0.05280913059168472, -0.2468872702086502, 0.34511868171449006, -0.16792665996499284], [0.3300262587291953, 0.1938525742515128, -0.1588747213875179, 0.06057518479389969, -0.2084283802888072, -0.5603667319520546, -0.5771484114813596, 0.027530399358420422, -0.4268757471252562, 0.45195525651647733, 0.39314266403525133, 0.1886133561225195, 0.05476217710031359, -0.4126634851911451, -0.08381857151732945, -0.0668193925192205, 0.032967873658559535, -0.26694221675565766], [-0.01861453585748921, -0.09213511599412814, -0.07597517289966722, 0.06680880213544474, -0.12757939947308325, -0.07415267015907843, -0.38135395187100024, 0.16496508458267453, -0.10232088525852814, 0.0713224028604773, 0.26939282049345553, 0.22195871328408853, 0.027645589155304975, -0.4196493358610543, -0.2116046468969211, -0.1284965324422927, -0.009430729125338372, -0.2249578130601606], [0.1289948463001752, 0.12791746251673775, -0.4515261510097808, 0.1161448831523589, -0.17062006476080563, -0.07495892039557987, -0.37271661093527747, -0.16706252584551468, -0.34328028375288616, 0.09949425535484663, 0.09243876500053454, -0.03562286274426121, -0.029158783283249855, -0.3327088568500986, -0.0962367028165692, -0.1773265271234604, -0.08472698348595017, -0.020394342382953585], [0.1791142608393042, 0.14011731338238387, -0.33196882666716454, -0.12764152733292194, -0.3132335708385701, -0.7000459043506632, -0.47782786010959594, 0.05831916196076392, -0.38657111446413067, 0.25268808054375685, 0.49057504109352623, 0.08530149812586882, -0.04291376694721362, -0.5206299706499693, 0.19244363400796619, -0.3998720923196027, 0.10215948769326612, -0.2514473541907241], [-0.09493419685920211, -0.24222535834288492, 0.051804917034449297, 0.003123289208232776, -0.32192296328513903, -0.08004400618709678, -0.18560497015236724, -0.28226649899665485, -0.2293680263138341, 0.2640256413776537, 0.14420326390691363, 0.10027552298726883, -0.04843613290088883, -0.26425417799387163, 0.14823477463589319, -0.09907219785547479, -0.19582953060455355, -0.185145308145851], [0.38482371638601587, 0.22558287319573514, -0.3011162383426797, -0.05304322315985163, -0.3665250541272448, -0.6818446264416049, -0.6471712375701613, 0.04267502951809593, -0.29521337591359237, 0.6316238503729765, 0.42020194193798605, 0.2878871868340657, 0.07158201203940773, -0.4168078714979595, 0.17630162299957314, -0.1846330446346286, -0.045901713280386856, -0.2949387623677199], [-0.17926946301472121, -0.17596593115557016, 0.02847556939471855, -0.145447692438149, 0.06427696400868897, 0.24018442586597463, -0.05647111691835318, 0.21014617278854353, -0.18369259418003378, -0.08147805607784471, -0.21353158267055258, 0.06013527453246746, 0.22604911492458893, -0.17731548377443757, -0.12736295154837513, -0.046953786513457385, 0.0853220867632596, -0.010410278860601717], [0.17231839549069902, 0.09120777515515523, -0.23297126194651843, -0.38356692352594046, -0.24319532921910117, -0.4461182136763578, -0.222553078071444, 0.21284506463509884, -0.25057787921457086, 0.5853101597691052, 0.0845849477169324, 0.3328177810230506, -0.055856642443171386, -0.2213405513936915, 0.3027745326167151, -0.12695729348925097, -0.00958081296578008, -0.29300726140558764], [0.030988767981446688, 0.1118724505896889, -0.2865062200745698, -0.3485958374239705, -0.3450222968113503, -0.014808528659168103, 0.11373245632956608, -0.1396970586802934, -0.13808703293854466, 0.23293107283634523, 0.3144299460534936, -0.12683415958253513, -0.30996516811171365, -0.30361714189848255, -0.11671597669796198, -0.15942466191013205, 0.24415403568397345, 0.11534378517502401], [0.061802249107317825, 0.16713391763450328, -0.30101711919891905, -0.21955262802756545, -0.20207282156433676, -0.37746483770456796, -0.23074808264522315, 0.1588356731819279, -0.15674196945427382, 0.6085879992533275, 0.4042926749989245, 0.120581607297504, -0.13807945010365538, -0.3543314268458147, -0.0992875290125308, -0.2654273544402956, -0.1636907022441093, 0.0013476692531866968], [-0.10118048958846934, -0.02526340082119242, 0.05416201323879541, 0.06352051980737139, -0.04445416748411272, 0.006712080212570701, 0.11561394124658293, 0.24969075048454795, -0.16915651470880994, 0.03902890219472373, 0.014188390127301864, 0.27614280627548243, 0.1661725630425777, -0.2723523229391995, -0.08530316059784579, -0.1431092380913368, -0.11715467590774331, -0.10854344064634051], [0.07994828168397208, -0.1922787519961991, -0.1611857808856523, -0.34418023146171206, -0.0307997818284366, -0.03995267524895623, 0.06791519250836797, 0.03039960369239267, -0.1088203187642387, 0.12608718178819092, 0.22078371566939275, -0.08239365399819636, -0.16309933429937823, -0.018558708057490957, -0.07863717628392546, -0.10927577363409573, -0.06478000222125606, 0.07791083993018906], [0.4810603026224709, 0.10221662496193917, -0.15229646960600837, -0.33061796425709267, -0.46289596065995886, -0.9119675223887409, -0.6370198948771928, 0.027537171034570554, -0.24165779070081458, 0.5407050156717118, 0.4156212073935105, 0.22429241969153912, 0.038474253130865825, -0.397947081555301, 0.15829045899725513, -0.11037196341563645, 0.12905431573216172, -0.5094486652995968], [0.5570326307318706, -0.01333891585324164, -0.22338965424031096, -0.20737235298298962, -0.26949880584642566, -0.522021204462716, -0.5977759846473547, 0.04944066986640787, -0.22101617950091215, 0.28339663036447227, 0.4900180052434254, 0.17699854656634623, 0.08032619177873451, -0.22320178326277254, 0.00988257852267169, -0.3019861124747142, 0.14099417141816353, -0.14663980201724966], [0.38958097821109583, 0.30098134911666447, -0.16206233156930153, -0.08547749955469769, -0.0954902174205248, -0.07505506569854223, -0.2523949809555897, -0.09005840989003266, 0.04095407087451181, 0.16312700446459028, 0.11368601367497913, 0.24138633321922512, -0.1098906829979079, -0.13233641821565634, -0.36446058882875126, -0.498871997211694, 0.34353139313096354, 0.1405651468437062], [0.140261343576384, -0.0003167759482485225, -0.08972046512454732, -0.36195046504916684, -0.17878434016477412, 0.046791281425974815, 0.18141426140507574, -0.2828130299223728, -0.2886582059531189, 0.350969849157467, 0.18203150380895974, 0.14939670046461317, -0.240947989878306, -0.2851816265744605, -0.1597480569890934, -0.14343963382679525, 0.04492694409428529, 0.046575636127428335], [0.25572916179816574, -0.06513758601365109, 0.05995917867118625, -0.13172558257906417, -0.17146756755564038, -0.2048031167160245, 0.12889367295951168, 0.2971413351618849, -0.4345766358043215, 0.08501947110614191, 0.08622229740416829, -0.19390878615085252, 0.04283281132299371, 0.13855483274825092, 0.08906147533830076, -0.006929980818377159, 0.1659882208050161, -0.018702696145881593], [0.6364388718787293, 0.15129193383693249, -0.07374672487828814, -0.46096616879573865, -0.38663886802202685, -0.9936763406586007, -0.6127632241172734, 0.049675016952008544, -0.15226246272656804, 0.7711369057801549, 0.5568724319091608, 0.2250748230717543, -0.120205447902187, -0.4448915611070343, 0.00925401155814722, -0.15307001199759238, 0.09937016732149954, -0.3890121420937294], [0.18980181422992104, 0.36556591167547603, -0.12960776302370766, -0.21672553195407573, -0.19817632876503163, -0.5381276197569994, -0.24685668534497954, -0.30419422979147737, -0.44462201771210635, 0.15012396741077874, 0.45281706924941967, -0.12008291902593166, -0.1075968169178377, -0.22201004240970154, -0.2431787816607873, -0.2775737150700149, 0.3963776485509746, -0.22945882810453594], [0.21954599537778305, 0.19293072516828838, -0.01873527519300951, -0.22988688134123036, -0.36647885188751966, -0.3545750406820468, -0.4657560859644859, -0.11466796919745093, -0.1581336499350517, 0.27309392181751185, 0.42124843728206746, 0.12063659316900349, -0.3349107753487622, -0.26485967133651644, 0.0272332012410709, -0.28936655187865523, 0.10752262854310708, -0.04487111027258428], [0.07752924214882236, 0.2877419043658861, -0.15051613121434687, -0.0883107864531224, -0.44826998843741384, -0.3765002172954619, -0.34342990836126946, 0.022519790100506514, -0.09564619236904892, 0.6055136814969967, 0.08539163544678867, 0.07846024430838343, -0.2495430184388042, -0.2077304318764665, -0.046934658601596395, -0.4607461687411789, 0.1038704264435669, -0.08253433684463148], [0.6075310244619729, 0.1852008180212995, -0.12138222344780343, -0.22489313735973307, -0.3941441123237021, -0.6998007097008524, -0.6816377122007997, 0.0008258391039786914, -0.1631668575650326, 0.5964706443072653, 0.4444316552755887, 0.1894358129155938, -0.23739633243053845, -0.18418762145247092, 0.17239916984960516, -0.1946950375750139, 0.21850432843433404, -0.4550366788705733], [0.3151919452115899, 0.1295891522224188, -0.3842111440371873, -0.0926655606907639, -0.11155256860798689, -0.43212170544041056, -0.5520702538764246, 0.05479362585923775, -0.5293647385428554, 0.3040711369751382, 0.39053135301926434, 0.23321133479037295, 0.0334653622345437, -0.1748989489097453, 0.006830820291472685, -0.33532656753829637, 0.17723205636240277, -0.42101195758413584], [0.4567594409568791, 0.18661733325874946, -0.027205662501461107, 0.0843718595343313, -0.2835444993992005, -1.1687007897214094, -0.6593092382759281, 0.21679932649793937, -0.3984122931848503, 0.5946021092205349, 0.45871023742775263, 0.2719765015701386, 0.1343445646344801, -0.24304627081314, -0.005594234523379491, -0.22832433752819367, 0.08583404792484678, -0.48061314257618704], [0.6902157693339837, 0.10561489374048838, -0.1344337501175385, -0.417704487248242, -0.3113625132981335, -1.1993774603787155, -0.503639361773456, -0.01700638803530867, -0.15352824903110238, 0.7071181187238447, 0.5795791056978352, 0.23786543788163195, -0.05235677676235186, -0.3200993776202227, 0.19734622018229486, -0.17024628075052192, 0.17273940191276171, -0.3395685716027635], [0.1787483736318967, 0.14085065625913232, -0.3230611274774675, -0.22635683586172578, -0.4013656117859713, -0.22701810258749291, -0.29180959234139553, -0.0314499482420006, -0.19517252333718027, 0.39348001996723125, 0.32507900857549177, 0.045293598362162804, 0.250480964390037, -0.25761153235989037, 0.005641182026588575, -0.26283349021963204, -0.2066892265000561, -0.07131641681050561], [0.47494458138246304, 0.16409256306691006, -0.24141420927577464, -0.18636692645241115, -0.2773729252048838, -0.7974531902123914, -0.5757437311394242, -0.1380059129606384, -0.42660054856904955, 0.6663494051888808, 0.6055996033079175, 0.2513342865672549, -0.2195108348864433, -0.5543027604702494, -0.025865764020942685, -0.15866143413112047, 0.26896479153360886, -0.4149350118793608], [0.30927057174672845, -0.008731746261714754, -0.2358463859717794, 0.03558146222963183, -0.22705787170310532, -0.22983182632720228, -0.22725877986215107, -0.023998967854602184, -0.14785250944634645, 0.43910196223122266, 0.21979369717495337, 0.2762052375974105, 0.1270272178063317, -0.0837171717577057, 0.05272560500098028, -0.10055242904335203, 0.06171318624431423, -0.07434159171918572], [0.658845480124132, 0.14047365939503545, -0.136676066989436, -0.20655310940626392, -0.4662658811372441, -0.8366357673090296, -0.4901009809096769, 0.15005594426055835, -0.23434947822574445, 0.527314571699596, 0.41689275241957086, 0.19121981093544918, -0.009269113924022184, -0.2264312494317533, 0.007999764669717252, -0.16446836361591158, 0.11009306797327764, -0.5285722650255513], [0.08600507738942588, 0.15755531159898206, 0.07807583282146786, 0.08732232389958433, -0.004839034396344285, -0.28866103260514286, -0.1262110400834362, 0.08374375298987732, -0.39569079998674106, 0.285720782219882, 0.12586768811382412, 0.21120644890375007, -0.01709214055494458, 0.013519811860551774, 0.14909247617559646, -0.30077236619696973, -0.0008395336986524783, -0.240893401529682], [0.34122417275314887, 0.10463742441393455, -0.026297042631522577, -0.07602596195390608, -0.37287600304150004, -0.1925771723917641, -0.36795129208001665, -0.12655389830971728, -0.0986903251402465, 0.4486440419100201, 0.38738980150225977, 0.07344323953601972, -0.16829840895629952, -0.18705232888865098, 0.1698568346954647, -0.1883415809817988, -0.0915461983094418, -0.16841122211628998], [0.00359709638058003, 0.22000017779606346, -0.13697550894578966, 0.16750799195743057, -0.27211744174085595, -0.6373649744127975, -0.18903964186414013, 0.17652504569283534, -0.015047796352708986, 0.33368741432090704, -0.012449601402095566, 0.08715709363078465, 0.06977638465326476, -0.24543007951954876, 0.05664255105571392, 0.032508951612557464, -0.12385019096551426, -0.10284778597062537], [0.3726171678273116, 0.17163469921185937, -0.2703632322225641, 0.14766707111457297, -0.0365935248004765, -0.1768178142778581, -0.3720269149626612, -0.16100198985272055, -0.3175754849987328, 0.08657166007320959, 0.1758501094694566, -0.19602481630790164, -0.1571856674066584, -0.057750653885246764, 0.022151868460627142, 0.01924644438389751, 0.3791952929255822, -0.20476326515184573], [-0.03417125222212156, 0.14078229419373395, -0.13460900695798855, 0.03656723813220551, -0.1167535452181969, -0.03953775248823063, -0.20174199392054815, 0.12356247770439549, -0.14727097449508095, 0.03477035610915347, -0.07647167942001688, 0.06484423685574581, 0.21572159288453574, -0.21904879370063365, 0.07664456203722886, -0.4547948418395453, 0.007479118180468998, -0.17502488584573564], [-0.1228682704054397, 0.10729244011323644, 0.05278663864733557, 0.042316772283207536, 0.00807726789771808, -0.15217140357301134, -0.24462916660492537, 0.33765645899635305, 0.13426511480962594, -0.1426200395958954, 0.14377233532346878, 0.37528957818742054, -0.12191870120976617, -0.12584428059330785, -0.023480416530360745, -0.17551792953182946, 0.09024367465819005, -0.1876510257548186], [0.3182465048608329, 0.23574624635440397, 0.025076212417783628, 0.09115123992474132, -0.11931681882712258, -0.4749097825345244, -0.17389062639593078, -0.12189352163419678, -0.40751834460536474, 0.7416224766458557, 0.13440033565399565, -0.1361709804289593, -0.0820112740704855, -0.4045295320911508, 0.12251142132395747, -0.33041867977658135, -0.11164816674270757, -0.4116222610442428], [-0.03895156146380674, 0.24644260765999287, -0.10594109007734857, -0.14129190487384993, -0.3490296927704042, -0.20474807085379165, -0.4005943615729562, -0.2427539834226428, -0.195965198571099, 0.31567461362994587, 0.1070912583723324, 0.06663490502063989, 0.07047214082802648, -0.058128808269111314, 0.09461515208793624, -0.06984766778710456, 0.2281342880968951, 0.12235788574725426], [0.039560215451145936, 0.15949712834369398, -0.25666554299612826, -0.14162015467514202, -0.24116546839371875, -0.7859053332774288, 0.06929100502170307, 0.06929163107886407, -0.1662525574786612, 0.12245165387830236, 0.05644022348730016, 0.12596184710613897, -0.046446847913158625, -0.14668079318086566, -0.024111320748601648, -0.18156422257834007, -0.17052943133746276, -0.07129287760461113], [0.08580570320527257, 0.12385884345909821, -0.10094123177373167, -0.20686058272201321, -0.1687541099100525, -0.22280899708857407, -0.09568205899508454, 0.036896251446821474, -0.30472626090045896, 0.16954370500073948, 0.14910570014771712, 0.25168606907527463, 0.12459395822101879, -0.2054991320240085, 0.183457799148542, -0.3247140788766877, -0.08990952268557852, -0.15829704332750913], [0.604512647283571, 0.061471603937219975, -0.16621397358954457, -0.313048862525761, -0.3256607153411009, -0.824819813704039, -0.6029679593544623, 0.024028499061228614, -0.27516490492245005, 0.47853203374052156, 0.5675325883234943, 0.24297875801415011, 0.006486809901075542, -0.36624703062203484, 0.05742406095312864, -0.188555302564244, -0.08973800092472804, -0.4245373700532099], [0.3237967428193809, 0.010351218642233215, -0.24415023016681064, -0.15837597232916684, -0.29297000437377646, -0.6510495031799821, -0.5988960885939795, 0.033958526364582194, -0.42877992110809715, 0.2956236681128673, 0.5237377839140815, 0.23335257930481904, 0.15581484242534163, -0.29036268468289606, 0.12852843086672264, -0.26604002058472886, 0.07841339071511248, -0.34488957521918995], [0.20401080747196274, -0.06637428757797166, -0.38428038562100286, -0.061501828880786126, -0.28134695810139754, -0.28205907311606265, -0.2418734620208637, 0.09433489606219143, -0.16575022295241434, 0.12591923169100974, 0.1822032167044372, 0.18813953565506064, -0.06266736784266398, -0.06112380143381629, 0.12356707995692644, -0.4664775056621036, 0.12946649676185654, -0.33372287982174415], [0.23161753009687613, 0.3059734231445595, 0.147223252518018, -0.1513940741594519, -0.11801084502471287, -0.26521294505624127, -0.04363598526388392, 0.1250368128436725, 0.09049348330851335, 0.023936865872178668, 0.0764278411539782, 0.3889691996852535, -0.29565263932794655, -0.06892852980804628, -0.2029159713640708, -0.07954534922617158, 0.0518298118985176, -0.20935233666492445], [0.10462427865774815, 0.09003512702531184, -0.2119162727580974, -0.16807504437988596, -0.15655810744591903, -0.23899601383360922, -0.14955277983802587, -0.018087750431827705, -0.3999541108432046, 0.118539111587484, 0.10183855905419212, -0.03181618791207927, 0.008681569863747192, -0.3082625469143077, -0.27301955485970475, -0.22440929251606437, 0.006060674111174422, 0.11497264991558404], [0.06478723787359152, 0.15651218304175543, -0.23718448613263862, -0.22083137705888045, -0.06718107605753841, -0.253854836463849, -0.12531094305649484, 0.014546029300410955, -0.14861295696965, 0.13704262753533697, 0.23143890227896624, 0.1818127347592192, -0.10343378842344678, -0.23380698584844925, 0.17824591322459912, -0.33719429045241545, -0.05797624918250042, 0.11576491934363534], [-0.2748582988469938, 0.02231155379450926, -0.017423579882202007, -0.0018232312155453464, -0.15945804852530587, 0.082827766595808, 0.2713862338320633, -0.15416406897927534, -0.09953834922811944, -0.12417034999865452, -0.056348151148703736, 0.03427669480910952, -0.27771098752871526, 0.24716443810551558, 0.07269320938043397, 0.06739157473257908, -0.0062771054982850545, -0.26255323978945894], [0.21350877754882255, 0.2414060551977047, -0.188836999772194, -0.13864532380063288, -0.2356769995455601, -0.5064268620931682, -0.4594228621517819, 0.16480778589258546, -0.4608996453151521, 0.1874077196980341, 0.28723474625202544, 0.005493865033986903, 0.13823843091132457, -0.2150288331371071, -0.12408575630591748, -0.18977093103002876, 0.30156265721316095, -0.22238169878741293], [0.07537058743446301, 0.30575687400079077, -0.3184685746499853, -0.17869858144172246, -0.49805567100914866, -0.12577669772157182, -0.11971627830856847, 0.04377144302447617, -0.21055185291212739, 0.37750920846380975, 0.3042011742425634, 0.36209714911366114, -0.18398078704867935, -0.5545455816287759, -0.11124863944711896, -0.2074221107894698, 0.21946126225894808, 0.03173555239702389], [-0.1614515107870158, 0.32031857941872793, -0.19212138435228135, -0.06776441627035283, -0.3992055284997472, 0.08398982002178312, 0.2795271695954864, 0.09786420998933734, -0.040180026778417116, -0.1875426435092324, 0.05587313331575461, -0.30249420948416594, -0.0917810564419778,