{"meta": {"vocab_size": 184, "n_embd": 18, "n_head": 3, "n_layer": 2, "block_size": 32, "token_set": ["\u2328\ufe0f", "\u2600\ufe0f", "\u2602\ufe0f", "\u2615", "\u2694\ufe0f", "\u26bd", "\u26c4", "\u26c8\ufe0f", "\u26f0\ufe0f", "\u2705", "\u2708\ufe0f", "\u270d\ufe0f", "\u270f\ufe0f", "\u2744\ufe0f", "\u2b50", "\ufffd\ufffd", "\ud83c\uddee\ud83c\uddf1", "\ud83c\udf05", "\ud83c\udf0a", "\ud83c\udf0b", "\ud83c\udf19", "\ud83c\udf1c", "\ud83c\udf27\ufe0f", "\ud83c\udf33", "\ud83c\udf34", "\ud83c\udf36\ufe0f", "\ud83c\udf38", "\ud83c\udf39", "\ud83c\udf3a", "\ud83c\udf3b", "\ud83c\udf3e", "\ud83c\udf45", "\ud83c\udf49", "\ud83c\udf4a", "\ud83c\udf4b", "\ud83c\udf4c", "\ud83c\udf4e", "\ud83c\udf55", "\ud83c\udf57", "\ud83c\udf5e", "\ud83c\udf66", "\ud83c\udf6a", "\ud83c\udf6c", "\ud83c\udf6f", "\ud83c\udf70", "\ud83c\udf72", "\ud83c\udf73", "\ud83c\udf75", "\ud83c\udf77", "\ud83c\udf7a", "\ud83c\udf7c", "\ud83c\udf7d\ufe0f", "\ud83c\udf7f", "\ud83c\udf81", "\ud83c\udf82", "\ud83c\udf83", "\ud83c\udf84", "\ud83c\udf88", "\ud83c\udf89", "\ud83c\udf93", "\ud83c\udfa3", "\ud83c\udfa8", "\ud83c\udfaa", "\ud83c\udfad", "\ud83c\udfaf", "\ud83c\udfb5", "\ud83c\udfb6", "\ud83c\udfb8", "\ud83c\udfb9", "\ud83c\udfbe", "\ud83c\udfc3", "\ud83c\udfc4", "\ud83c\udfc7", "\ud83c\udfca", "\ud83c\udfcb\ufe0f", "\ud83c\udfd5\ufe0f", "\ud83c\udfd6\ufe0f", "\ud83c\udfd7\ufe0f", "\ud83c\udfdb\ufe0f", "\ud83c\udfdc\ufe0f", "\ud83c\udfe0", "\ud83c\udfe2", "\ud83c\udfe5", "\ud83c\udff0", "\ud83d\udc0e", "\ud83d\udc13", "\ud83d\udc15", "\ud83d\udc1a", "\ud83d\udc1b", "\ud83d\udc1d", "\ud83d\udc1f", "\ud83d\udc20", "\ud83d\udc2a", "\ud83d\udc31", "\ud83d\udc3b", "\ud83d\udc3f\ufe0f", "\ud83d\udc4f", "\ud83d\udc68\u200d\ud83c\udf73", "\ud83d\udc68\u200d\ud83d\udc69\u200d\ud83d\udc67\u200d\ufffd\ufffd", "\ud83d\udc68\u200d\ud83d\udc69\u200d\ud83d\udc67\u200d\ud83d\udc66", "\ud83d\udc69\u200d\u2695\ufe0f", "\ud83d\udc74", "\ud83d\udc76", "\ud83d\udc77", "\ud83d\udc7b", "\ud83d\udc80", "\ud83d\udc83", "\ud83d\udc89", "\ud83d\udc8a", "\ud83d\udc8d", "\ud83d\udc90", "\ud83d\udc94", "\ud83d\udc95", "\ud83d\udca1", "\ud83d\udca4", "\ud83d\udca5", "\ud83d\udca6", "\ud83d\udcaa", "\ud83d\udcb0", "\ud83d\udcbb", "\ud83d\udcbc", "\ud83d\udcd6", "\ud83d\udcde", "\ud83d\udcf0", "\ud83d\udcf1", "\ud83d\udcf8", "\ud83d\udcfa", "\ud83d\udcfb", "\ud83d\udd25", "\ud83d\udd4a\ufe0f", "\ud83d\udd4d", "\ud83d\udd6f\ufe0f", "\ud83d\udd8c\ufe0f", "\ud83d\uddfc", "\ud83d\ude02", "\ud83d\ude0a", "\ud83d\ude0b", "\ud83d\ude0c", "\ud83d\ude0e", "\ud83d\ude22", "\ud83d\ude24", "\ud83d\ude2e", "\ud83d\ude31", "\ud83d\ude34", "\ud83d\ude38", "\ud83d\ude4f", "\ud83d\ude80", "\ud83d\ude8c", "\ud83d\ude91", "\ud83d\ude92", "\ud83d\ude97", "\ud83d\ude9c", "\ud83d\udeb2", "\ud83d\udeb6", "\ud83d\udebf", "\ud83d\udecb\ufe0f", "\ud83d\udecf\ufe0f", "\ud83d\uded2", "\ud83d\udee1\ufe0f", "\ud83d\udee5\ufe0f", "\ud83e\udd12", "\ud83e\udd15", "\ud83e\udd3f", "\ud83e\udd41", "\ud83e\udd50", "\ud83e\udd52", "\ud83e\udd55", "\ud83e\udd59", "\ud83e\udd64", "\ud83e\udd69", "\ud83e\udd7e", "\ud83e\udd85", "\ud83e\uddc0", "\ud83e\uddc2", "\ud83e\uddc6", "\ud83e\uddd8", "\ud83e\uddea", "\ud83e\uddf3", "\ud83e\uddf4", "\ud83e\uddf6", "\ud83e\ude79", "\ud83e\ude7a", "\ud83e\uded2"], "dataset_mode": "emoji", "tokenizer_mode": "space", "num_steps": 500, "final_loss": 1.5682053618237097}, "weights": {"wte": [[0.15640427414661998, 0.030232884664536115, 0.12089243132320426, -0.3667027908329115, -0.049952061365644986, 0.15349589529501695, -0.03690064606375803, -0.13971930901335838, 0.11383868581334551, 0.3543760574651301, 0.13114911730958162, 0.24279297295450095, 0.2426986271388244, 0.1279305525243952, -0.13614649347154192, 0.19575197096674457, -0.10254936426595365, 0.05413746989934473], [-0.06448553809220359, -0.3230692635057675, -0.11602229588411422, 0.24389479329526056, 0.13329799325197078, -0.19085742755258903, -0.09841900271938177, -0.08767261810087962, -0.17304417748441422, 0.128135151314281, 0.29875057958612644, -0.13709782479545488, 0.0015475431721822138, 0.024244181660605695, -0.15605481361949533, 0.16591664505919124, -0.08582956393053054, 0.19391131738347323], [0.058799616932617156, 0.24619708610204494, -0.041786262733527875, -0.03938696996991399, -0.100461854832262, -0.029316216338222435, 0.2572570292629366, -0.23830571738616102, -0.0005145668483613941, -0.02779972842152944, -0.20191504336793725, -0.018360158289787116, -0.15099526673171054, 0.17368833714171514, -0.06686659532742001, 0.1693188865187574, 0.01661985689987383, 0.2317431879612417], [0.4464900005893253, 0.04997577858232433, 0.22197853953799607, -0.14795348695896463, -0.21782129104805428, -0.11386073368356121, -0.21531474927040634, 0.0829836928088806, -0.19436267363098972, -0.06411192894037063, 0.04595095853522498, -0.038010766629241806, 0.2691813354571831, 0.11848420006405122, 0.34163685967459617, 0.22763683314324973, 0.14544500447562383, -0.026500212213481193], [-0.1503996178022827, -0.08331656997291961, 0.1445755976644717, -0.10302435387890932, 0.1599981228592429, -0.11527392082300429, -0.08326636103578532, -0.12284451457843706, -0.26953845959737205, 0.09061036048586371, 0.06590128462781195, 0.010174482299534543, -0.10327983092305286, 0.010984209136125059, -0.08893536497961699, -0.051081476958171355, 0.07021527254690876, 0.00851997358935506], [-0.15425847481861962, -0.008923811117875567, 0.06194392952350537, 0.13474431720761396, 0.014832975346632514, 0.17325504737325007, 0.05829033709153349, 0.09752062519238194, -0.15156169213921006, -0.11831111322031956, 0.05868949729577501, 0.10597059186743658, 0.02812150989006024, -0.0149467796544925, -0.05153635115814814, -0.06141333654592015, -0.18129730877548492, 0.09505673219889764], [0.1518034660966394, -0.009929108666491769, 0.09218767144563227, -0.011795667019812295, -0.15056709804316773, 0.16997498152321547, -0.004623029021346569, 0.10638032095508003, 0.15488500164574065, -0.10917817655266025, -0.04936942084127551, 0.20939332221993373, 0.04494598750339725, 0.19947766884064705, 0.10714630528179193, 0.008504994316608288, 0.0427211796601623, -0.048573702687704355], [-0.06933718694632955, -0.0470337206559244, -0.04473077149526752, 0.10301223830495466, -0.0574504430669308, -0.02366255314676837, -0.24559436730988046, -0.04655088589411306, -0.03941305485111255, 0.02649422806981411, 0.012039476266729939, 0.01438158070985888, -0.216119618147786, -0.00670843271772802, 0.1498814472734493, 0.025592118271921652, 0.16670093777683462, -0.23119486564389927], [0.13300413564685798, 0.07708212769173407, 0.11989164874253787, -0.0386890250289205, 0.019986279115865077, -0.10933295329497313, 0.08565226205048812, -0.0158098943684245, -0.17545040642029064, 0.1315922639406803, 0.16906140945579368, -0.20441843587349304, -0.10894744321595143, 0.018336575933106395, 0.27051354620362866, 0.13954928929207147, -0.17335740269527372, -0.11432992845586783], [0.007192219544069617, -0.0038549638914996513, 0.03717929999145374, 0.011100489714030541, -0.011768075492528547, 0.06839246328399988, 0.01657494304714403, 0.09157322037711084, 0.004034940076219756, -0.06317867029513403, -0.018458199080484496, -0.021996071491823328, -0.079533981454624, 0.08395883748749379, 0.028578091646749012, -0.026760487343878158, 0.06883856765718056, 0.020017367917654197], [0.0810283165412283, -0.18060401853092586, -0.26208097529255614, -0.050124718531371945, -0.06960510995584127, 0.05036866221720605, 0.02516702524101794, -0.26586040524100957, 0.02491632055060928, 0.033678036500819845, 0.05996869807539776, -0.04639171856209217, -0.0271608260656056, -0.007887365896491473, -0.23323150971029818, 0.10001321877793845, 0.017905181432095307, 0.15614865728540506], [0.04639601860843729, 0.02008091919957445, 0.010266915653260069, -0.14486531440083494, -0.1684004844096769, -0.06755568216178047, -0.006126284449854967, 0.1516541215916359, 0.2492157155163651, 0.13399073074621215, 0.06315028144308465, 0.16490663973031092, 0.1277031797206294, 0.037546425012339034, 0.2522169268087281, 0.20911135025829497, -0.18560094339026387, 0.013549852231794448], [0.07465632198670517, -0.04212031260804173, 0.14245316757545007, 0.1293937440850933, -0.01718782245463248, -0.09720304428766834, 0.009452941435714233, -0.005143114374952698, 0.09080321505366305, -0.09681344368505858, 0.04876474139780458, 0.19686464055308153, 0.18425035254028385, 0.16423906224421606, 0.09776061666465527, -0.12172420810450232, -0.11686836770462498, -0.07804319713338528], [-0.24851024675695413, -0.11323604671367406, -0.06929785523396961, -0.03244023205828165, -0.03353686488645649, -0.11622435722380607, 0.19479227980259295, -0.008837003076477692, -0.1239557421845514, -0.010757970050872201, 0.07419223180856648, -0.14733807437042526, -0.10745611144629329, -0.031968501375522075, -0.16181718898179925, -0.14236055358540597, 0.0871584462573763, -0.13761012121887561], [0.06711625288147861, 0.27353979395623285, 0.1500485031422409, -0.022032647428385527, -0.06623984570642696, 0.025725021252071954, -0.0802952373695654, 0.06865976186851247, 0.19447272319117073, 0.1383339827088231, -0.2393698932344608, -0.001356904179136255, -0.08690388520646913, -0.07246643785905542, 0.050746193353914726, 0.10659164861309423, -0.1001700133058866, -0.10601527423374574], [0.03462826506970552, 0.0037978302528114296, -0.11372373302988832, 0.018801751240620296, -0.023039040541589405, 0.049102677195775775, -0.12184367329303614, -0.06567432384056192, 0.0448450665591331, -0.1382126493353733, 0.07053672723687072, -0.1421352566846061, -0.042835075191619415, 0.13632110637851785, -0.1403692603620388, 0.12427973133760611, -0.10811995609613727, -0.021735276765408665], [0.14809538155842664, -0.025799099389956687, 0.23563368731646192, 0.043324469130345766, 0.03368062157706602, 0.032627041695462135, -0.009433912480146875, 0.14719011238570923, 0.1681790900033849, 0.1062973304970031, -0.16817311460918133, 0.017222017857044324, -0.09174536212480372, -0.003105446062522417, -0.049070280588435156, -0.10808660503914022, 0.041393799825935426, 0.046192961199995206], [-0.09226282276715858, 0.09545611096438715, -0.03197431338714547, 0.04757993052736315, -0.04441597229700253, -0.112236499442909, -0.17896619746282064, -0.011112103364322496, 0.06488771166413797, -0.0021326400124780155, 0.06317875670979428, 0.06342474848433749, 0.17413067114040268, -0.15091022724389194, 0.31192542225430875, 0.010115179577918897, -0.10519500388796413, 0.09332455168895097], [-0.17697137459996323, 0.02391853781270337, -0.2440441175054807, 0.11093510874439429, -0.21652272099537204, -0.010428700318445004, -0.01911328405411012, -0.3203732554684886, -0.1727109214260635, 0.024624782784814843, 0.14606929101936633, 0.19690424252185332, -0.20348372438579715, -0.23407206700665326, 0.042017529368212916, -0.00832408217987584, 0.04144046205136003, 0.08957122071671544], [0.054149932793767855, -0.024422866852538392, 0.12920235039561911, 0.1804154165382243, 0.09003825519946103, -0.057523949740668476, -0.007065349173580596, 0.12160875324191828, 0.05305906896220124, 0.003825706043994754, 0.06586434222302695, 0.12459011019851929, -0.09446270014540249, -0.11717241736030448, -0.12021319822018335, -0.037924892382255576, -0.028580923145031162, -0.04616918981703516], [-0.23005953830153547, -0.1596581571324667, 0.05966959832998144, -0.028649854188946975, -0.21614931669940363, -0.22222314264440113, 0.27277906139393954, -0.33484711270735334, 0.10917862059516209, -0.10111208890361774, -0.0020745011758526583, 0.24672188894635005, -0.27848052690441855, -0.024302661666128378, -0.09832650855273727, -0.027308731801634144, 0.15289678027083795, -0.03690268902743006], [-0.05905216578837303, 0.025294068406639954, -0.03644247884035238, -0.003169737613519373, -0.15006701980369833, 0.08259197824627458, -0.08841265914650835, 0.1721552075132343, 0.10148562767626688, -0.09480460563906805, -0.041125114544684864, 0.08404877845592013, 0.09055670092089735, 0.08214105038080956, 0.32339917776904215, -0.012916450076780389, -0.04810287361381912, -0.19332097445662447], [0.08928610495158053, -0.19230839216688145, -0.062110317026272746, -0.3391851025043385, -0.054829741919826494, 0.19146223508250887, -0.13567189699369248, 0.15929869874727212, -0.0010987263909764812, -0.16475734213971904, 0.24878372068871002, 0.08806766052992816, 9.211278647215184e-05, -0.05995928340503552, 0.1404973013196583, 0.1554941363953003, -0.04144144542282133, -0.055590420477031464], [-0.14114105506262345, -0.0784278163350721, -0.08141651311272483, 0.142725405346489, -0.08074364443374617, 0.06529702384102268, -0.06958368180787639, 0.1376380467379796, -0.03199316182330219, -0.09201754314175457, 0.05064960519861151, 0.18471857238101475, -0.0007240316027854349, -0.04863148405366895, 0.22396600572607003, 0.03386433421736208, -0.20776435174708108, 0.002029463715326777], [-0.2229362856014079, 0.1214791876979889, 0.0052604553296200385, -0.14823017383735373, 0.0004550464628021872, -0.04572066905054716, 0.18904041157510396, -0.003059232284647271, -0.0904041238144768, -0.14190673910409005, -0.038928258343185786, -0.08831747695485406, 0.13826940101507174, 0.10920719656934835, -0.13790729031488683, 0.03231877356102041, -0.17208562352468254, -0.007533806907276437], [0.037690694730045375, -0.05834790276158776, -0.17908809781540777, -0.02944794028308982, 0.0464651819510189, -0.03143591317201748, 0.14413858015756253, -0.21200856372809992, 0.39488312928471764, -0.010723251770943652, 0.3089084133048526, -0.01925436120425468, 0.2179650500548821, 0.1263126665859621, -0.0014611483504619062, 0.07160386288016597, -0.009696478075694008, 0.04942683534176646], [-0.08541784027230981, 0.11034907371985694, -0.1256645291989009, -0.18379343610438711, 0.02708206866388288, -0.04292540591296714, 0.020145253037643127, -0.013734768134943358, 0.10011175733641421, 0.3382957547663147, -0.10689309899679734, -0.06484521998033785, -0.040893996413815775, -0.00961552642185748, 0.08517927599484633, 0.07800913174332623, 0.0072913888428939935, -0.03774637293633567], [-0.14364355810121557, -0.1124167224887993, 0.011444876076013211, 0.058975469510754566, 0.25227765869643737, -0.03867302645666703, -0.18845353693987013, 0.1296673368634232, 0.026022631824301257, -0.1943764753794859, -0.1568828662570329, 0.22004148364288237, -0.23747107646934426, 0.035681405114812645, 0.027335844769575592, 0.020031537557105773, -0.1534045643479495, -0.01135102633967092], [-0.03315925159575196, 0.1446286583760333, -0.07291590658296679, -0.03492452072253415, -0.18952568685224847, 0.16717427425187836, -0.24252037000108775, -0.10566500625601553, -0.01492858569394028, 0.0080499717821105, -0.08978537089854972, 0.05527559635884949, -0.07913667236286835, 0.07342246573814001, -0.0937566922287196, 0.07995257866979574, 0.07676625144142916, 0.16234509940562614], [0.023982815094031072, -0.18200145904928344, -0.0414871107977828, 0.12789276636346036, 0.05600922341836937, 0.024447339023182902, 0.2700825861313802, 0.14424672431992586, -0.1521090244432442, 0.02108873911392419, 0.042487517134238394, 0.22029693155962662, -0.030175819211918198, -0.11454298659452503, 0.03536547372006522, -0.06252855532257617, -0.18163358447110695, 0.01336635967221133], [-0.20736860390930886, -0.16021439910364701, -0.05863231693716096, 0.1355047163075251, 0.16948756376711357, 0.07823742411638022, 0.10666071432053272, 0.04390595261544522, -0.04771459508744215, 0.057275639193096244, 0.14771629557859536, -0.19033159352659834, -0.0007779810509197964, -0.051628182490026715, -0.1566594753424239, 0.013751161904161518, -0.04606791388394599, 0.044570109689739526], [0.05825609850989191, -0.07940211093549562, -0.36923269707191625, -0.2302516337020455, -0.08150163659405905, 0.2949070513121307, -0.15610884920610457, -0.13596538262620683, 0.16308100862448716, 0.11832269997828476, 0.17688143014493002, 0.04802424482566734, 0.044525244003225314, 0.012565534872282331, -0.1009625093633616, 0.08075898130296968, -0.17906913071268715, -0.038303998059220225], [0.142555837286991, -0.02030252089798599, 0.10011171865976022, -0.1498364985457275, 0.10834891119624787, 0.05665335698222115, -0.19643439238687735, 0.08537215792227111, 0.05025362315022664, -0.07342244569364023, 0.014203674348625944, 0.09256238082042995, 0.1055482204755052, -0.07262047385979996, 0.022131449459532968, -0.1362137070529886, -0.12536610702232448, 0.0352859879110028], [0.09371889702433352, -0.2916229869804103, -0.08895533050017806, -0.018515688537911596, 0.07745687476745888, -0.11676160754414189, -0.19810441634152864, -0.11214782268037753, -0.0061879711486902455, 0.1261940155349849, 0.15312219616811543, 0.10325269407471614, -0.015335854790437652, 0.026192568303225645, 0.14764639922153733, 0.06669661222687963, -0.017806097433388703, 0.05153206439627771], [0.03942735286748757, 0.046618642733533854, -0.2238772443800275, 0.030106937659372956, 0.05356001975672338, 0.12543514320991067, -0.10101761309070004, -0.1557979413476487, 0.1301566651274317, 0.007336610358536546, -0.11506615280990745, -0.255833289721441, -0.1299563205224591, 0.29038650741642447, 0.053616073091542864, -0.10049599115210803, 0.08631141808985437, 0.21374511644357957], [-0.26675359140608124, -0.07405205915210004, 0.07076645482199445, -0.11665741500843638, -0.007563856206361922, -0.18297155814916494, 0.05776278768848489, 0.23827794056050502, -0.3080637392565224, -0.016006415917231044, 0.13612724437260465, -0.09614978860047887, 0.07092035800621858, 0.005454384335134745, -0.09312620584344652, 0.03555893010571502, -0.11920252640523094, 0.17300567094632477], [-0.06449829470963019, 0.09948594697347235, -0.21182911143171246, -0.006471750065470554, -0.06606935965617097, 0.0457995534226427, -0.10176107639460995, -0.005677964363787191, -0.17481327053702125, 0.17770703158485165, 0.06283124127425901, 0.09456619119652011, 0.16387240663522504, -0.13647970390834935, -0.07588535652572043, -0.040768990499039356, -0.09329455071675499, -0.20101148787072023], [-0.031070003024180164, -0.010949670953419649, -0.043187171156465504, -0.15213297984142432, -0.15422172247852325, 0.1067456732266475, -0.00016547717832298892, 0.05250702662338084, 0.12602759246271186, 0.13659066042210105, -0.034822131689611645, 0.09041782354386958, 0.09444687318244831, 0.052576079307122374, -0.16100645808686018, -0.08704255305120417, 0.0012478392994627347, -0.08533311445911604], [0.18784037690024707, 0.0226742103546792, -0.13470617227499918, -0.0941722310338575, 0.12307770177961537, 0.10843154790861044, -0.13372389330413856, -0.17393194101906317, 0.18836187765218673, 0.11354106709019277, 0.0256803065693298, 0.08900136248448903, 0.012237169291570761, 0.200587674442294, -0.06696235109372294, -0.044905789957854735, -0.013164417720417175, 0.13203171960548954], [0.2227296472172311, -0.04233403419556822, -0.18361856190094394, -0.0962715422020837, 0.015354546510430573, 0.06746010437993358, -0.18630776979056976, 0.025084398468555008, 0.15718400697570878, -0.2098922207698577, -0.06683520534912417, 0.09743273175035183, 0.1885039667184382, 0.07925257080804109, 0.003594689638847561, -0.06288329130635431, -0.013660582277782024, 0.05123317753715792], [-0.1662651694120803, -0.1406218756077213, 0.07980686229552802, 0.08003436586137957, -0.04238203282908772, 0.008163101449211086, 0.03585876799324755, 0.18783912469906341, 0.2361049617327225, 0.17712104260912795, 0.0861625035942584, 0.17853923929828985, -0.035107650607034364, 0.16404116027921756, 0.21650753835712194, 0.14246403809325317, -0.1246858496941981, -0.03311476684212237], [0.101116822576028, 0.22161180248460183, -0.16590486350756706, 0.01570892871822194, -0.16866980506498683, -0.1711578651173602, 0.134478442329978, 0.16097674111944668, 0.1013657434791564, 0.015911408136634175, 0.0566738680941507, 0.07265403677580319, 0.3196834378417192, -0.09917293230080475, -0.022530747775199898, 0.11225360708992124, -0.025412933052926603, -0.059383029761216136], [0.0438784128064379, 0.15297355402106716, -0.06389194494492954, 0.08708760455089867, -0.2874353062018072, -0.07711506789736843, -0.0412903617343875, 0.004480096001372266, 0.1643513288401449, 0.05183912545064586, -0.006269276296140773, 0.03721257817601705, 0.20575827635079763, 0.025220189925894067, 0.025561340576422144, -0.007452400208219742, 0.12801594785546372, -0.11564987308101608], [0.17882931725454618, 0.02086454529382448, 0.045519810417688836, 0.12806949824337197, -0.04410954527976772, -0.018306063752679545, -0.19947494740205546, -0.059042656043962784, 0.01379264940306463, -0.1533860100282919, 0.041255789405403885, -0.026904080539939892, -0.04954151458200941, 0.11822528291971725, 0.11618091946759979, -0.0636357631651644, -0.07581775981631224, -0.10346036394815929], [-0.12241972906689327, -0.03552974344018823, 0.10562233459884972, 0.12169485634785536, -0.1697732080886553, 0.06045631846067256, 0.0219624390190432, 0.19466190065142275, 0.15098149515421352, 0.24504724428756308, 0.02117504775029866, 0.20657543508929557, 0.019877928906907448, 0.06600862439129498, 0.28659121605276144, -0.16585034964212586, -0.0971188479240788, -0.08561215755652324], [0.07006184043095079, 0.11579622549142524, -0.07625925960198982, -0.0696489529962372, -0.13463759586800084, 0.2768138190816673, -0.05577137051074669, -0.030559435095276883, 0.038671701259642956, 0.10524211877248639, -0.0244732017788448, 0.009582979101311673, -0.0465664901300151, 0.12617055156844462, 0.07728042611412177, -0.030592991401469306, 0.26406323552101074, -0.016506464050773443], [0.044246875426085325, -0.04271515120111253, -0.03904881818338525, -0.0993870130027458, -0.1483581778484023, 0.042047248111278815, 0.015161148330734826, -0.13221657978819173, 0.03506964286282319, 0.17626610890235045, 0.0339301839925077, 0.06929587402439291, 0.18716364876253658, 0.05769205895090424, -0.04990709964491072, -0.04360865092078291, 0.059621932424591025, -0.16338050485077893], [0.32782660982842354, -0.013258336857688457, 0.16325076924800985, -0.33178391877265534, 0.3248910848731287, -0.13272615561314466, -0.04486576128505948, 0.06325858154863265, 0.021895255582390315, -0.07828919464699485, 0.28937959257146956, -0.050414013015682005, -0.15081587063632543, 0.028556973577384993, -0.04231937678246085, 0.04271019466096754, 0.3403705581437329, 0.07731545759410817], [0.16426169303528404, 0.30827187466599004, -0.1630732735496679, -0.11901173912084186, -0.1402333214851615, 0.13144107940306937, 0.08694639405658824, 0.07809412812234796, 0.01872211309053199, 0.2891938515309121, -0.1350330527073041, 0.06504610022085548, 0.30725347043928175, -0.2644104392014908, 0.14701496809809772, -0.14786822125001364, 0.22677844487406046, 0.047343785288371854], [0.06012745927764495, 0.36596704662286095, 0.07679093439915005, -0.018088112888193973, -0.08696509118043273, -0.044422203422340614, 0.32123787578424895, 0.15596850130558967, 0.11009353238816753, -0.16796072166448484, 0.031130444854275182, -0.029079962806600062, -0.03173788909856767, -0.22470698838781747, 0.2541894098480373, -0.04191155480031537, 0.31703969587534203, -0.12089568619694249], [0.25128002352989554, 0.02352953813017984, -0.014168791432000824, 0.023471773524428155, 0.3590617637509056, -0.03736583448878009, 0.08861022436508927, 0.035261186259294724, -0.07101120336023437, 0.051102542763669254, 0.013335196216492897, -0.18560333138343327, 0.06521209337161216, 0.1310373648167294, 0.03817016603834255, -0.08010009329060412, 0.17825527473495717, 0.0007776699955902679], [0.1016032008395875, -0.23566680768772885, -0.21776672918650725, 0.003762922212700317, 0.036028326104511746, 0.23507233887438925, -0.029056554937418173, -0.06977004257559838, 0.1835258052666473, -0.09937818610608898, 0.08150415211660854, -0.004360783532712944, 0.2844427104252642, 0.04718918440657576, 0.218491012366531, -0.04565384831541092, 0.18702344569812987, -0.02659593847240921], [0.11819646641145741, 0.20987378453976527, 0.049083134646835794, 0.06041569170328843, 0.030291169941093793, -0.19629548478649644, 0.26503223903083584, 0.05152958873760308, -0.09679144262809283, 0.017131891319271866, -0.017931065778899198, 0.05565534811711641, 0.010190259125651973, 0.0525694199636189, -0.18492409811530808, -0.001167511239958937, -0.15089962400698753, 0.06738477346552657], [0.16128023970743596, 0.23273174534339874, 0.28867637020899023, -0.03128239418512179, -0.11566123670407703, -0.24280799529672958, -0.009179894145534379, 0.25529858509659975, 0.2539156980942271, 0.14411954335930383, -0.22066773461783168, 0.07586797464482345, 0.04915144913304578, -0.1337984073379096, -0.009335444260942991, 0.04953555728051197, -0.11187769692752596, -0.14466471539962636], [0.061872779150216925, 0.0820892673210109, 0.21096386710258036, 0.040756780206674365, 0.07230361636469047, -0.04837108156719325, 0.21188927789637135, -0.01647722117641083, -0.10863125126982037, 0.2579254856751812, 0.08120405395532833, -0.35513792535664157, -0.11422132715672138, -0.013566838589348379, -0.16086753822313227, -0.1342631160946921, -0.058011279533767404, -0.1409877771438778], [-0.023795961283822768, -0.05432031204421917, -0.03338172248575488, -0.28697557839140075, 0.11683057112310095, 0.23498358112978704, 0.028085992240036422, -0.13074499327215203, 0.00813281156402033, 0.1386684187735335, 0.09697666100998505, 0.020303169551352297, 0.14185990998130057, -0.015007099304285607, -0.16339672749120668, 0.08511337981110573, -0.1352039646037097, -0.026216984283133078], [0.0505792831108297, 0.030049423831147216, -0.009368393595260632, -0.04430491148636887, 0.11118440543698567, 0.07754934067620103, 0.15100869075832685, -0.03374718818254407, -0.12400421808332449, -0.07999934933313414, 0.019896547230421845, -0.029053741074131792, -0.007076850035999012, -0.0581247796170834, -0.008510433276317488, -0.15197597382920644, -0.17029245479521327, -0.06342515754420566], [0.11589791942375845, 0.20069802548948357, 0.07977213155355307, 0.026572054547942967, -0.06408734927235227, -0.11961262522949662, 0.09610232746239691, 0.1659593620730301, 0.03064995020850733, -0.08682441670381856, -0.05854077371580729, -0.021638711014733837, 0.1550844158474585, -0.1000762873021343, -0.09981773355490821, -0.1993595577888901, -0.06576949661582154, -0.2399006498351204], [-0.05884971153826228, -0.016059289967976884, 0.040893115982080945, -0.023196750568642285, 0.1526671883398895, 0.23186672083008117, 0.23514106135360296, 0.14924059748424456, 0.10850495403548303, -0.20222697655197813, -0.11663704809781303, -0.09077920618207021, 0.08254795740254754, 0.10017872003226, -0.013485097845945317, -0.1537274473433303, -0.013291773138702868, -0.25179861857025737], [-0.06342851285427231, -0.10526225595256491, 0.2519304845430058, 0.07889416348389484, 0.033833802364656385, 0.15581130520943987, 0.1225087477727645, 0.161329184703694, -0.07067569987417874, -0.23045097476743026, 0.08742496652981671, 0.12689689485594563, -0.11439442026568925, 0.060429153737601826, 0.09798984754802978, -0.12438009030022476, -0.13910571991693693, -0.11274101038525668], [0.034952861948759774, 0.14012582550633207, -0.12992906680922756, 0.07103927680497583, 0.010327640394971731, -0.18260715053338947, -0.2082774299451595, -0.0688957034004182, 0.029263973386787864, 0.3374760479893718, -0.24311862113734486, 0.10954877429018561, -0.024188530472954894, 0.10742228063751956, 0.03285238929993455, 0.10651343070650192, 0.06441736345552189, 0.01224864777453976], [-0.07563015182502639, 0.042757417626084246, -0.1373198040429262, -0.21888554803411933, 0.1825863418496065, 0.08346256127135132, 0.030484981283725347, -0.0534246473553009, 0.062016301810145204, -0.15880115313959633, 0.04758538435331709, -0.24091717768869697, 0.13080875242365275, 0.10309571637594783, -0.032069369902606906, 0.22793850173880778, -0.036277037070939454, 0.19698541004048006], [0.05905948358790465, 0.16121553934041427, 0.00928779048441707, -0.1320001481036102, -0.11549898474698825, 0.16199622567946317, -0.02333540321279496, 0.12961771423474328, 0.09364876640355553, 0.12844266493308545, -0.26381166808933115, -0.02109546754610916, -0.07976404153026061, -0.009439982202733763, 0.03964929961883532, 0.0015481177790331456, 0.019949531555400773, -0.17645925906608034], [0.0174867369580384, 0.12649320507651027, 0.20569171182998966, -0.007177800877745742, -0.09092625905759535, 0.2230649064455224, 0.04271155263258849, 0.10805329235433721, 0.16978216875847904, 0.017848582366959367, -0.11968563199698429, 0.049843401391408554, -0.10132380989374544, -0.02559241516898294, 0.0638876782170301, -0.08236964858193044, 0.2038185104349545, -0.18705266154383499], [-0.13367971121540853, -0.015321557830374316, 0.17129103050777666, 0.14440178204301599, 0.19646886485261034, -0.05731017818299741, 0.01584043826614235, 0.15511017621803883, 0.15068680025478742, -0.062762738325988, 0.05986577972334777, -0.21259853468836828, -0.012890806014849283, 0.17608400921900635, -0.13509491679650967, -0.01879464929171128, -0.04724773034420835, 0.05082726647343705], [0.06396090107129018, 0.13250719902055394, 0.10530950294210908, -0.015749122432115056, -0.06304447087425429, -0.07369029612762301, 0.07328239958164616, -0.04197681014119538, 0.2103626835939243, -0.27857540780206136, 0.00656516413741443, 0.06738288189785625, 0.08861510865695206, -0.13994917571328028, 0.11178456208839062, 0.06980721514051748, 0.01805065779038341, -0.018893355179078017], [0.12023375602539364, -0.0018585877255951496, 0.06611459305683608, -0.15947356751699396, 0.03266596574100456, -0.09336248411349994, 0.21013792959319577, -0.19870493626874663, 0.07795171090395697, -0.007835391331434943, 0.039748869419331326, 0.06061539209135669, 0.12272459046629677, -0.10046078317113176, -0.11866288320819376, 0.06435999083548487, 0.07375644995996536, -0.24639281382243522], [-0.08209292817744408, 0.11675330481100299, 0.16373747598935423, 0.14544066340534068, 0.053015228260288094, 0.03578810454093436, 0.16743766699033474, 0.27442014502220785, 0.07261726593559857, -0.09825234558583483, -0.0019857223663280166, 0.0873464263979781, -0.1542119558340807, 0.07540518312432626, 0.1428433545029836, -0.07558508459207092, 0.1877003208093172, -0.07438112662729252], [-0.11276514593655232, 0.1865991207868639, 0.17694993002597875, 0.12116468195520422, 0.043341164294635304, 0.25241369479732323, 0.11948966141510663, 0.2202760768728247, 0.20650031124380222, -0.05384792841356077, -0.053775320112044084, 0.028548506674048735, -0.15561477202446417, 0.026974604101491422, 0.005907891350700829, -0.07618591667467699, 0.004984923218587886, -0.09461495410142182], [-0.004621312542089399, 0.1858188172305668, 0.12735585083540488, -0.09005153753468387, -0.09176467012829712, 0.203440569484097, -0.19850640723860508, 0.11571378615814631, -0.019612327274642172, 0.012335833875737758, 0.12155090279740914, 0.11909575207120857, -0.0661853014519791, -0.08068172090050803, -0.060083283577133446, -0.16172640814152178, -0.1658290458824765, 0.14897210029109698], [-0.08032702599787903, -0.25765754841191263, 0.13968257322666852, 0.005177812792692955, 0.1086276994832896, -0.08252144046126093, -0.2800290370977931, -0.0601912611848949, 0.12818266351427568, 0.20311627029005347, 0.08747138561674676, -0.006443969949910152, 0.026559815540856284, -0.16452528918448667, -0.14311958479653508, 0.2602222569519107, 0.0005718961190591479, 0.14601870854647625], [-0.09173013866738443, -0.05839953823619621, 0.009752059441041452, 0.2948174720833937, 0.09354201781929337, 0.17527798564402297, 0.18059821621137948, 0.012760351198271798, 0.017071512009325076, -0.018478713969206795, -0.1346531478641884, 0.16471454599012864, -0.10992877147030317, -0.20083736624769563, -0.10304370674626437, 0.0025467569794654955, -0.2403438064488074, 0.16447127352374696], [0.07705637466133015, 0.11136792460279374, 0.08279455842213387, 0.050857276013190574, 0.26707467149329556, -0.13864104050600065, 0.0035159163072314265, 0.12737797633766337, 0.1203526979594528, 0.12007750161212309, -0.11176097541569288, 0.05730101535884789, 0.07109651579168261, 0.06718675403626329, 0.12459340648746368, 0.006626693540231114, 0.16986893634292874, -0.07872747431335102], [0.008855937234424358, -0.06728133890376857, 0.06351987145189644, 0.3052573212900581, -0.09256279919298727, -0.13252536212199217, -0.30640103233387933, -0.12737362020685228, -0.025890073650553763, -0.014188220323955088, -0.06982439611067243, -0.07008002756683844, -0.01547165815770542, -0.017610761515053367, -0.09875507501195153, -0.07591109522001405, 0.006105424178167983, -0.13562181433608256], [0.027115333977037265, 0.02710740956378027, -0.14762204882117846, -0.08165117324316408, -0.18506576301412742, -0.08993758591084663, 0.016809017118903345, -0.02346849844114275, -0.04863244161668859, 0.018033405438516982, -0.10382454462629466, 0.11429125569277788, -0.07254525864954699, -0.05729763137894444, -0.16693261190513908, -0.16051832249405568, -0.1993839090368739, -0.19322832891133535], [-0.02433923991378775, -0.16360707767196006, 0.15097930266029444, 0.18436842698434655, 0.2670853041928825, -0.1228760247237196, 0.2493697030659842, -0.04137263699791207, -0.16947743280089306, -0.12998167518126097, 0.11423884391661834, 0.37872601368756487, -0.23041396376513265, -0.045478005530139705, -0.05653834643248085, -0.19291856882672628, -0.07656855885023015, 0.10201791117599379], [-0.05215747889131293, -0.03647686879603381, -0.17176888487169642, -0.13678766421190644, 0.12726093828599686, 0.32921784926339387, -0.09916981180780128, 0.11993660122867957, -0.1580470058139128, -0.10620674638875863, 0.19875591378527718, 0.353384307639185, -0.2583323291397391, -0.31803109642924055, -0.10310014799842036, 0.0057496900365499965, -0.10166916117238188, 0.21245240328582593], [-0.0903996559361654, 0.10148325239110356, -0.23059580403006963, -0.008730646885507665, 0.04705054770519364, -0.08889873956494918, 0.054337164576429044, 0.05506752670599704, -0.17751879127370276, -0.10600420013937094, 0.041406794422358936, 0.002394056267552067, 0.08199077271331501, -0.18436729343974376, -0.11063059547295928, 0.055357022206100545, -0.157281833419109, -0.2099600049724725], [-0.12679537727636978, -0.055627521890378485, -0.14508093877945633, 0.12504835657378668, -0.14056469848517866, -0.004558492463715776, 0.07574032868544055, -0.04039590390780164, -0.18324723298173437, -0.17508478333509242, 0.21570909626744547, 0.16939491788667596, 0.03193199095980494, 0.029126540651592245, 0.06162482285141742, 0.16444357149991848, 0.011236429011560873, -0.2845084482427865], [-0.12350529008187107, 0.0716596458782769, 0.12371550977467632, 0.2176722969635491, 0.31052717257421003, -0.15277859085798248, 0.19200717914098916, -0.047403423812506354, -0.16130576239706904, 0.009549203771665984, -0.07110364830669677, 0.08200491547657655, -0.12837791525015121, -0.008599082497871724, 0.03545821534881164, 0.1822837521767622, -0.0638085186385871, 0.07953377755792321], [-0.05900210244523994, 0.0013776844641947242, 0.09729823740723433, 0.13808558575508595, 0.1786643382176052, -0.16227097141191124, -0.059626257811791414, 0.057356658119794394, 0.003916353036626167, -0.18390912325423087, 0.08227479440304472, 0.20398933555436818, -0.014803975318899742, -0.026628865611753923, -0.10289780555574718, 0.05041642790979865, -0.031724698222236655, -0.021496634788967444], [0.1687921286869515, 0.11685128331263041, 0.2108936073465626, -0.02864582771084323, -0.10531083280576801, 0.015149431315113985, 0.1866109374581532, -0.1342095725836975, -0.07612888982250071, -0.08686214759959193, 0.032842804612927254, -0.1161598903376747, 0.0651099609945539, 0.23994754336347993, -0.08313180743102193, 0.36791999796505315, -0.05430702110338953, -0.01653069801426012], [-0.17981485262073124, -0.18115588642335068, 0.15529690233344617, -0.26837340176347035, -0.11590748312428517, 0.02464797509916428, 0.0925756289452848, -0.26643601995773597, -0.0013469238642380944, 0.07743059231566471, 0.20612112538364621, -0.2210828506764625, 0.16199572217655195, -0.2690347935735145, -0.30263260821994525, -0.13577087986632128, -0.128892796491867, -0.004238672906447942], [0.03085669520604751, -0.2170840881153138, 0.22845025511946263, 0.19973471850027602, -0.10635707383653102, -0.0020181147306551723, -0.17371697197865693, -0.0012208018058410654, 0.039315062067949776, -0.028871112867531065, 0.19818952058714465, 0.23824547023486983, 0.24729694247328224, 0.26800545113709806, 0.12666248190702628, -0.05220937662212411, -0.13010221863697818, 0.009208871861702746], [0.04359722734623297, 0.08225678432389764, -0.2248777662208857, 0.08062050138813592, 0.1060306124150442, -0.3238374536735653, -0.07286505563827374, -0.1604908325361362, -0.07367470660279549, 0.0729354735144768, 0.06090488379913389, -0.030246896444747286, -0.11155401945115875, 0.11923204221715122, -0.07681425381966339, 0.10004530123539618, -0.02099646280329843, -0.04594386327226244], [0.010174387041047351, 0.1146358885098914, 0.1621446977442386, 0.03801668142959191, -0.1656426855718664, 0.16728750906189785, 0.11497763820422471, 0.13976382872178644, 0.267623355090441, 0.019853015852977097, -0.19489095371142506, 0.28722906934264264, 0.058989758907245365, 0.15987070227544806, 0.16331346400650107, -0.033297095262097544, -0.15389167788840813, -0.2114110587110912], [0.04987093312495548, 0.08443942425464375, -0.04588626848927897, -0.023425965472398638, -0.001753101668312465, 0.12184452854761355, -0.14386002411334664, -0.04350697865069975, -0.0035639392208389508, -0.005970484929212401, -0.07406773200900368, 0.020879429117494158, -0.01600381043906092, -0.3216014528562025, -0.12559108426200752, 0.06483174525459158, 0.0327426627022718, 0.03716814890432484], [-0.27416058283093, 0.0007004420346922076, -0.0016148308502336492, 0.03538612408368062, -0.11265409645951643, 0.0756124140923653, -0.22584730248574406, -0.04114153710516255, 0.05321227749406052, 0.12495309253385449, 0.17363072169219718, 0.10108199342177486, -0.3091277451389468, -0.0160996436317605, 0.06079839632934118, -0.13296221800388477, 0.06616241198376975, -0.13938653083860902], [-0.1124603406641115, -0.2798380727092648, -0.29686389747322367, -0.07085439996005169, 0.06676026905863865, 0.1450674296134167, -0.26287318984654284, -0.1902272296723325, 0.03190839498383328, 0.09943148495620378, -0.030575016941051046, -0.22260908916549285, 0.18991547440310902, -0.10522662461847421, 0.055764363596850504, -0.03253623262283046, -0.21745873453698972, -0.05473902836465907], [-0.2596975595372274, -0.26277717375251536, -0.05712642527281019, 0.17652013743287165, -0.15106435657736708, 0.18256123094848997, 0.031414913602367894, 0.05993032281843363, -0.09419531791828235, 0.062014267138063774, 0.14796368366500112, 0.009721115562123288, 0.09297944262393329, 0.1753617134603054, 0.1248830658695607, 0.05613444153105386, -0.1084239667990928, -0.023303846805452697], [0.020531400308192112, -0.175226961518161, 0.16566560395095403, 0.12656793865334046, 0.26851797652772397, -0.17874271268063893, 0.27694956076892285, -0.02862353542909153, -0.05759718770436077, -0.15923092341649397, 0.12589621111702326, 0.33462871067888855, -0.1296048150889491, 0.04732458381345709, -0.0891020537851493, -0.2074404844352989, -0.03547950100533989, 0.019700890157428447], [0.0050167728326506586, -0.11669414003430544, -0.050244315700329924, -0.12736690124370487, -0.05881342733610935, 0.00835792312757284, -0.125558715854475, -0.06203361854358378, -0.06278114096028432, -0.1811632344103156, 0.30064965892475354, 0.1578190772400969, 0.0717275132507211, -0.0412477462677218, -0.010965487310535215, 0.046495522409286096, -0.020368608508489185, 0.1838056043629975], [-0.029293237439270422, -0.20396238518476342, 0.10780731706098252, -0.04369812870134196, 0.16852846214472028, -0.03109653154734093, -0.032758819698700745, -0.012707471959824645, -0.18758580075331294, 0.05003746993048064, 0.1284759669899927, 0.0018932093281210298, 0.1796125828327711, 0.04363888412553712, -0.09777588725999038, 0.16050520577999422, -0.17209077406242174, 0.129084406938705], [-0.02908266737931825, -0.005575543966496373, 0.04310303458794189, -0.04177680329460739, -0.11866063478009718, 0.16497596419486868, -0.22302760471116972, -0.1402234706569362, -0.13100792514494775, 0.1942498332963569, 0.007323837163732353, -0.08492754107074048, -0.1752218921935289, -0.030626608093520396, -0.04672935315959858, 0.1792343916229662, -0.09241833613095533, -0.22422356762703718], [-0.08986700759852985, -0.21331307561281165, 0.14444437423364265, -0.10106910252745532, -0.0390306582172592, 0.18211074899302346, 0.10502490146475896, 0.11091507668819744, -0.08371676849195031, 0.020898703352456107, -0.05769136915844017, -0.06702533735360054, -0.005377629241665028, 0.16886558058009177, -0.21457456344799872, -0.10958646530963317, 0.06526276058949346, -0.010194556498591698], [0.13012008840576006, -0.06964547148567217, -0.19818281916929953, 0.0054951307109983956, -0.10923156560960903, 0.20193694620986374, -0.17345527251745857, 0.013737843888095125, -0.03647135786621438, -0.13331442199232665, 0.04124335504307877, -0.05455966782147248, 0.035213029156049326, 0.02740231172086017, 0.04074949592501267, -0.13742847507023548, 0.05290519051084337, -0.10808012105162572], [0.03215084850539841, -0.060649311282186494, -0.10715221634807745, 0.1485546746884481, 0.38834103575648743, -0.18281679456330924, 0.2459140508130146, 0.0620337115327133, 0.4426518613017224, 0.011892182270356409, -0.1977336391284718, -0.0009137987187992959, 0.06138913209044172, 0.3356446815252374, 0.04377064707049459, -0.07028744670393956, 0.10344862277867588, -0.16523506576993627], [0.21181833552044674, -0.24631550213112352, -0.09552676967380903, 0.08364205071245795, 0.005848954503405341, 0.1965685831770505, -0.058112429483533755, -0.06934647583678195, -0.143720873985675, -0.051718041559471704, -0.07438171912590828, -0.0203453776172585, 0.010519411619608732, -0.16179086222983113, 0.23914117568352047, -0.14430817513652425, 0.0485138609686726, 0.1077114930846643], [-0.12746741405900786, -0.17546729397596497, 0.04323856345930769, 0.07138383451865468, 0.07296723593964084, 0.13782351378107788, -0.23882692699608246, -0.00018541217980566236, 0.06316045031696535, -0.14974140556015972, -0.030914878664690434, 0.046178884357765494, 0.0666498494740744, -0.0017914739426374607, -0.0889558064999616, 0.04334473593659177, -0.23588963701470417, 0.14113724746292622], [0.07935797064762143, 0.1270311020513518, -0.048354185035452614, 0.05155002723809227, -0.025829439197751585, 0.25276900418534887, -0.07587726762896209, 0.025590782595959496, 0.14550742433278221, -0.0935294641512963, -0.1289836034860002, -0.06700906690207625, -0.150065060603315, -0.10853283418168322, -0.15202393723352053, -0.2045080559330453, 0.13344438132330017, -0.15274488599400438], [-0.06352591122248691, 0.021751596737131625, 0.0242402744297507, -0.26740346925939024, 0.11779505286022818, -0.172401004920658, -0.03975064876499712, -0.18484632465011921, -0.17361999250131097, 0.12667827869750042, 0.1140792334137389, -0.08121285865562339, -0.015900106292325033, -0.13215606357021767, -0.07172431826900293, 0.017654902236976567, -0.16902337446080618, 0.027554822291571045], [-0.04111466866618617, -0.02754584272740495, -0.0010195239358517403, -0.12339345139951612, -0.02182905311470666, 0.033631257480231734, 0.2577123218452241, -0.02135100658711441, 0.20403548950740205, -0.0024209852257764206, 0.010761847065949308, -0.23712333696703905, 0.1512908236548879, -0.12565035280631637, 0.009639466288293898, -0.08494703702776511, -0.09568933679447852, 0.14765819126095933], [0.01909011802723473, 0.0734807163996153, -0.009679187114653213, 0.14830075169867357, 0.09670709982404112, 0.13108458990180233, -0.12010477474162397, 0.032621143961657946, -0.1704828454457289, -0.06880718808123151, 0.004369916127898502, -0.09955857753981813, -0.19893424819845346, -0.1884652562602111, -0.12437271408084133, -0.08994455188157532, -0.048499188097350536, -0.08149170403796352], [-0.14051673280177157, -0.11366557208085586, -0.12150747255207671, 0.132911727492413, 0.08815985287848299, 0.08978528740113426, 0.16103231010301428, -0.031629713923483044, -0.06482255454030973, 0.05848909020469443, -0.06835288620402401, 0.16571332789112336, -0.15245367947569824, -0.2059071083572036, -0.08022485064660712, 0.036640927266113, -0.08043086233163779, 0.15904942604753902], [-0.13071437986418868, -0.06932831789207862, -0.08297606366300798, -0.0772535241255383, 0.058332149891952664, 0.15191260351240612, 0.07009982505712577, -0.14343101703788413, 0.1254553436122731, 0.008890610362418035, -0.18567311722004112, -0.11497397057845675, 0.07463583217052254, 0.05216035976680964, -0.170475869182837, -0.19316192328787818, 0.07813667676553054, -0.03756721542970924], [-0.1661853914146841, 0.1435488251464202, -0.015683978241177003, -0.026092078916262425, -0.0980811662815169, 0.00011808009032231203, -0.04459521183815993, 0.060602718301028535, -0.0159108094883814, 0.18179740164123656, -0.20800595721275644, -0.196606870369479, -0.027777048831247517, -0.13597347545889046, 0.12117465990360982, 0.081672130948419, 0.2342372178301247, 0.29392396758728573], [0.010065013058782895, 0.12769515535905226, 0.14295614108196603, 0.0022617558794158395, -0.028193069997846355, 0.04986163242852829, 0.1105524242256191, 0.2910780323572947, 0.057466504093010545, 0.07552046570748039, -0.15211849586653678, 0.043626931769689924, -0.34874632490758906, -0.1593731876755208, 0.054509838630514, 0.20381662367010023, 0.024648829473217504, -0.254739817248911], [-0.006482402465559985, -0.24156291709993657, 0.05213028477149783, -0.01837741542989468, -0.09231222647556528, 0.1891466135012731, 0.17671331277691743, -0.11981395647370086, -0.1542219014177674, 0.25732483802772044, -0.15958642600796563, -0.2535112244695171, -0.0278163011660869, -0.27431042350070706, -0.11655109325554615, 0.02951896824301528, -0.04339641242844111, 0.14311301809573956], [-0.12982417907823493, -0.1201320476473664, 0.29737316911397493, 0.1328222327054533, 0.14677629446070922, 0.019334133168373676, -0.13029761712128926, 0.23331335230829622, 0.048324265689911904, -0.09926977390683188, -0.062093462113153045, -0.050532987713460605, -0.15255278031422062, -0.060415455736661926, -0.16359433479489965, -0.009808725623736995, 0.18672786738878935, 0.25341218007185806], [-0.13611189903891938, 0.16614074610187174, 0.14617701513266432, 0.058468822179419705, 0.18539918054870447, -0.1635861876559341, -0.13605692247744128, 0.07754095309069654, 0.17224479974816279, 0.0701161193201589, -0.11483047677421328, -0.05128445293196711, -0.017198854546501986, 0.07062360163324723, -0.18665689039676744, 0.10710616573664346, -0.17797322426749893, -0.20637094820420984], [0.21091706047044687, 0.17054600526896624, 0.07474273277969683, -0.1135713381826284, -0.08848881191309207, -0.12770544309054863, -0.10253436879271657, 0.132748741256605, 0.0899479323622474, 0.023005798192365316, -0.19549642324739866, 0.043673650348267735, -0.16556576102937262, 0.06868464585414742, 0.11214686051446617, -0.20687635795702072, 0.18028571115229813, 0.09434074496259812], [-0.01997414015368981, -0.12444779251733339, 0.17082030386801386, 0.08912268362472768, -0.0238375847294311, 0.035094864557435185, 0.06706830606157231, -0.02017367255994668, -0.00842739287089261, 0.2234941003199927, -0.09835685227284123, -0.1803262924126805, -0.07202007541183747, -0.14920847991085973, 0.14527006512792326, 0.07763146527896816, 0.16243294340787137, 0.19473091410498705], [-0.06459865226578304, 0.09073166224300118, 0.05548206117248758, 0.03462265008483039, 0.10832804114617729, -0.02716370385069486, 0.015515345104718758, 0.02016843638087227, 0.11072154335728643, 0.0021963112897114725, -0.03209055670008126, 0.03131277785024084, -0.0891696255167443, -0.18164026593214877, -0.014023166251587884, 0.012532793787573738, 0.20987513770212582, -0.23751234525369422], [0.10497489184195363, -0.03834529474629577, -0.02287206621466537, -0.06382114748749984, -0.42526451642152696, -0.057530589323401854, 0.30780299201502265, -0.16228994344132108, 0.18619152425383942, 0.1978632555472952, 0.13352671349268014, 0.17276835271300436, 0.07206460402034048, 0.1356597656713623, 0.06833810040963531, 0.25923149784043753, 0.3305066392567139, -0.3153083104352697], [-0.15640995291761658, 0.24183466867390163, 0.08831236607476908, 0.14749901226978235, -0.2428111616676302, 0.07238590401691226, -0.057074725938465284, -0.3299942235845241, -0.0693894970757654, -0.0025248579165351066, -0.3657251778710846, 0.1475032970332397, -0.021374122238988186, 0.16176893805780593, 0.10774264070569167, 0.2489723666722283, -0.18436292352514616, 0.11237800371224081], [-0.14970593883867347, -0.04017336659028017, 0.019076793283295614, -0.006275558836665777, 0.19381207698881614, -0.20995072657810734, 0.09821180116296921, 0.10528377421394097, -0.10744953550679855, 0.07288492458656246, -0.010852799339823136, -0.21489807709117048, 0.008980125314193534, 0.025635082191268796, -0.06273620911497409, -0.04507378445328137, -0.09268502811574733, 0.3184174034394746], [0.1495217426520494, 0.10484666278658684, 0.16940600352261126, 0.3046148947951084, 0.04127192273333856, -0.07473499070576854, -0.041029901759356745, 0.20914187075878085, 0.17896496585915567, -0.014176703969861806, -0.12260990205193154, -0.31287101497230374, 0.1610935064177189, 0.07164481379747413, 0.26791839889113134, -0.1095057410265877, -0.26821413332338906, 0.03843684985533785], [-0.09808849010787386, 0.0118464127603519, 0.08898211701823014, -0.04573078702121068, -0.26254697315563896, 0.24989498279321007, -0.18934766582849838, 0.13040885345807626, 0.007008722362841281, -0.2582813184146904, -0.05462064952921337, 0.11834521840440512, -0.06803926313927415, -0.03795609998763889, -0.03524289031441948, -0.025903576205086615, -0.14085451342841773, 0.07754243009976589], [-0.004010750480062668, 0.037217419469681386, 0.11625026039840144, 0.2294385587055456, 0.1079733095524471, -0.06555139798334032, 0.2164648316866232, 0.0799847284012821, -0.21230531952049989, -0.05134388739224869, 0.1591664149604746, 0.024797877847732196, -0.09567627381320326, -0.1944602844171774, -0.22859039494531186, -0.1332970256044767, -0.12671279072791525, -0.13627882305223335], [-0.019649032183539278, -0.03885432417849954, -0.2542472471143267, -0.02128194220988062, -0.25030491094075646, -0.17900384155424948, -0.02363173333868502, -0.24996454225932835, 0.03374613381062663, 0.08172598694992876, -0.09013947024498059, 0.08425874545437811, 0.2554598374942786, 0.16203289620337144, 0.1926221809599062, 0.2575080755396528, -0.05328283224429831, -0.07872358208865703], [-2.606790733679505e-05, 0.018515256142109977, 0.021029042581292116, -0.031860578958528646, 0.039130961866907, 0.09395190266442364, -0.032705478294357125, -0.019392867044871424, 0.01644164464171101, -0.07446798488032182, 0.05636365433004062, -0.014926132513867322, -0.02206277880476059, 0.11004897776357105, 0.06113526760660439, 0.09013445212583411, 0.09105145975906938, -0.11498285253719644], [0.12674699308842308, 0.2531586592894569, 0.12034104252344856, -0.1717538187534093, 0.3013345884701695, -0.040586500709631074, -0.2705369586336194, 0.4581730656929975, 0.05263271631296654, -0.023540195707924205, 0.12373324641714376, 0.13506699258803367, 0.008228714013402649, 0.14047875591398915, -0.060468951538955554, 0.00981125171053667, 0.061659242065562496, 0.040310894909698844], [0.11094508289145696, 0.01782482124837766, 0.03803374512138493, -0.010176525683014618, -0.07374714335363866, -0.15073483129876142, 0.06337326005564498, 0.008869972955598307, 0.03760657980680914, 0.18997671998075838, -0.07611886973237385, -0.179559150686628, -0.03704413987341301, -0.22462301953319713, 0.07315214815677003, 0.003380186650236951, 0.29100778169099356, 0.023572343859976433], [0.12298602474408446, 0.288372700582265, 0.20542896600890417, -0.058627998973448864, -0.44549391068733896, -0.25142854554090477, -0.005262373937955457, -0.10730564023293511, 0.00865762657436244, -0.10201937527267345, -0.15182752912058434, -0.01761167796742865, 0.06303904741512495, 0.0725512589161221, 0.18194295375303549, 0.024210660645191447, -0.006626296646970253, 0.1364663869586475], [0.2274757922568361, 0.10759738057895861, 0.15455814423074093, -0.10348117759942295, -0.016710196623652793, 0.05868472880999132, -0.20939356198787784, 0.029816869336817455, 0.04329005134131769, 0.05680343843286783, 0.06994670522503058, -0.07931400842060922, 0.11720670079447758, 0.27652670694422715, 0.31964153371316456, 0.27768582641127465, 0.004965877256471836, -0.15200707447166506], [0.08299319328442925, 0.10463297836279611, -0.0777784669405613, -0.13890154173369695, 0.08355418768052127, -0.2793563603900527, 0.09869088172516666, 0.14923992404715336, 0.3928824118518524, 0.03724217979140825, -0.06927683444842016, 0.11555232231563288, 0.08688791166050824, 0.08217092977795366, 0.012830049197246396, 0.09588936681354054, -0.017213050233509525, -0.3768125497517195], [-0.004853506344373527, 0.11469662396604319, 0.0029324488373114227, -0.051794245407421294, -0.11680376826589857, -0.1004928529727074, 0.00034147205353012624, -0.0853574066232257, 0.07587170322698741, 0.043866568307836355, -0.06334862266410059, 0.2123788668078257, -0.24214920693208636, 0.161149473312563, -0.07077938534994187, 0.07695767788797377, 0.18893471823762856, 0.06021073496585686], [0.10301459951414255, 0.06645484699049344, 0.2118335671378169, 0.06505502044208472, -0.017644980851015502, 0.16471604191156472, 0.1168967683255413, 0.12776592184603, 0.16637270406161037, -0.005961052896098659, 0.04965696336509409, -0.012766465474065363, 0.09524359958956197, 0.16229469868382135, -0.006838703343533269, 0.009409493922613128, 0.19173023794771465, -0.0791683301430705], [-0.2215777070431319, 0.0704450937332467, 0.19464732774039728, 0.02607372933278541, -0.05797368937867714, 0.25593418416594277, 0.18057656419361032, -0.239676820984, -0.09024504147049393, 0.0748135024471607, -0.07443095129610694, 0.0008471547015611952, -0.04816327553016801, 0.17337065200255766, 0.02774982377540569, -0.06112509214925938, 0.2764334248798087, 0.05245767590805085], [-0.20433161347245565, 0.01173841204863966, 0.042710612935692484, -0.04418328604645121, -0.006164573359013484, 0.02406420082037547, -0.2670600651986096, 0.2347555226207741, 0.03663038854179534, -0.059381158361738115, -0.17937067130488474, 0.13656195622351017, -0.03766468602386521, 0.12555714116067287, -0.02036931201644287, 0.09364132411249369, -0.22597187113549722, -0.030770356496066416], [-0.2848294179190274, -0.006377424370588459, -0.06885822694704302, -0.0779178506412781, -0.018955841194394796, -0.1138282051444903, -0.014252712202206653, 0.22935998019876022, 0.26154373565796557, -0.06495077168097324, -0.11357062820096923, 0.1636055024847384, -0.042947242809984514, 0.07936048373186749, -0.08796397991100977, 0.093978802010408, -0.2099001294296894, -0.07795141577208194], [-0.11105100146458971, -0.08839988695062061, -0.12508234049643552, -0.16474628828993226, 0.06348946145284651, -0.048377568698315956, 0.03645550035515629, 0.36197648031061097, 0.22369875617634927, -0.17286084354841075, -0.1521985083024845, 0.19257210983610326, -0.004786635378189273, -0.08657136447434324, -0.15259836329225654, -0.07801494601099056, -0.3014638108469765, -0.26638994800703697], [0.05356924168196389, -0.16612984327097727, -0.013855588461074164, 0.011962561607268917, -0.1552179287426571, 0.06437467427089708, -0.020040120133497867, 0.19685837995591637, 0.13235956407903796, -0.08657886980041775, 0.12251270215076666, 0.10174149160910653, -0.04586014038787586, 0.12351473944612745, 0.2561373667892979, -0.0864691960410199, -0.0677313860120598, -0.1115103952367174], [0.005249654912414403, -0.10173705912456833, 0.1125623804659306, 0.062208718645982125, -0.04026404346491485, -0.04796254650019441, -0.00907482821279564, 0.11807606768378429, -0.005673124607260808, 0.04163291497672231, 0.17106799160602723, 0.14745139785772193, -0.02468956775316499, 0.05552034289633762, 0.1362919044107319, 0.04799757460609266, -0.11015294695749835, -0.033445831443094286], [-0.006787435766362941, 0.15792546099663662, 0.051159658201317515, -0.03123322434470693, 0.1828433583068109, -0.10103628325296203, 0.056185271231232736, -0.08520361424670421, -0.025683279503345067, 0.06808585698719995, 0.15834003032848, 0.061493243477595584, 0.2246166135626596, -0.18739364485284207, -0.05022558309358756, 0.013718644356516577, 0.061812969869910805, -0.16255526489978747], [-0.03779456844612785, 0.06673874541316588, -0.048268701082330605, 0.11672264675222364, -0.018116897232656606, -0.05680226232677919, -0.1775636248441825, 0.11669070446962912, -0.16382302448562944, -0.28798399461126106, 0.04181639683219673, -0.1516618728400442, -0.18303857617110905, 0.05797411817863288, 0.00630558791977157, -0.08207434546868164, -0.0829941732150851, -0.29244799191618204], [-0.030267196538180927, 0.1618546709477988, 0.32640899100532433, 0.1693922849841336, 0.06783207206372632, -0.1459702493299057, 0.3067203122923252, -0.01533754957917231, -0.15708361139363067, -0.12616926875723342, -0.2365176849233419, -0.24890160426530752, 0.1254654957661365, 0.004748690347074543, 0.18649236251489637, -0.05502023015554256, -0.09795459184019185, -0.053668032510021724], [0.1445531039620838, 0.01170701528742642, 0.038657744798709155, 0.10154738565000282, -0.2037550488324043, -0.00514918214534648, -0.1489512138446124, 0.009341507210970743, 0.04713348173548252, -0.047978226974964455, -0.11947932341921423, 0.18513687025180667, -0.005892486221475871, 0.18174581115149796, -0.042399137928000014, 0.12195981858613812, -0.2865962429302372, -0.09463262055237447], [-0.14196077009103153, 0.2864042943232583, 0.030252932656220272, 0.13341838838105888, -0.08713199826895579, 0.005617562399716494, -0.18072374766706292, -0.27082991460727035, -0.08106165549776158, -0.06028220956205726, -0.37663076441545096, 0.12649470287084058, 0.06493204790829236, 0.12794957427257267, -0.002885801401584543, 0.1419201751782428, -0.08967003903304943, 0.1381550345532949], [-0.1296056310177435, -0.306721761886635, 0.016400868284730818, 0.10164022324171701, 0.0490803620602683, -0.07103826274679735, -0.24545330606862845, 0.24461797257308476, 0.15883698628627205, -0.41804553876721917, -0.14685554671186127, 0.20610993444852027, 0.04396687853364397, -0.06777030037051966, -0.12712284656345546, -0.1750862200067991, -0.3737521536988552, 0.17581029099177106], [0.026757702044849754, 0.004170850320287623, 0.1050761841956264, 0.032181375409589826, -0.07118925910542444, 0.27501745139242395, -0.06179019226419476, 0.03704406502830634, 0.10834004748735855, -0.2313576332607647, 0.15337187883666242, 0.13147985235026777, 0.07795481637438344, 0.1638312253062748, 0.19252478824850677, -0.11164419200962591, -0.12962921605884456, -0.06444061264942297], [-0.14176257887315533, 0.1342112258370246, 0.3186257313443642, 0.058816888900264944, -0.25502181942039626, -0.2945224343986681, -0.15020412513822579, -0.2159151091918822, -0.013560423862844673, -0.029569027066362618, 0.1545417513190837, -0.045400730616361996, 0.05237463329054125, 0.1475835842757302, 0.32030166636748325, -0.21134511692708738, -0.08606018439396394, 0.3183412691163263], [-0.006371582728598857, 0.10325731643156216, 0.17474385052228528, 0.2639313415730094, -0.12998903211207635, 0.2191584686213377, -0.15707737457834095, 0.1630292762680701, -0.27857475007622173, 0.0362376246610725, -0.2392085835029612, -0.16517866904024994, -0.09014236557092475, -0.2547120409037092, -0.09444175206586845, -0.01705433425961923, 0.10902080475322669, 0.2023324621783643], [-0.15359387316238865, -0.054942227947870015, -0.14607961320425453, 0.0969196378351901, -0.035032240377741476, 0.05308246776530256, 0.24573696631826, -0.0315191590355587, -0.08094364800879053, -0.011556087429465558, -0.3475550256185298, -0.05748229542255905, 0.1490552838028098, -0.012467963517467087, -0.1583959962689372, 0.1281202952866449, -0.11525280386820962, -0.00662155408556253], [-0.2624527665212122, 0.056144866371288495, -0.015215629113243732, 0.011098899639363679, 0.029127932766579736, -0.2102879516766927, 0.0849670331412502, -0.2372705375763837, -0.16798826317807464, 0.10413423551985651, -0.016086521346827497, 0.12484982485928907, -0.057696609523621635, 0.14380608364335842, -0.06336037989057595, -0.06959627502060022, 0.04301549846902374, -0.0757177909542172], [0.1855395875882495, -0.012438176587838707, 0.07444961068912218, -0.1051746372175318, -0.04850448344833103, -0.15899454668888005, -0.13043448319711365, 0.0976093598782688, 0.06748329484747971, -0.044915360594693476, -0.05535793163040563, 0.03934312457507278, -0.10314138060166612, 0.09404210017042149, 0.12364485182752942, -0.06250109683469879, -0.10853314008917495, -0.17763224376708853], [-0.14939629208511784, 0.055160639493641916, 0.21976365295087585, 0.025002841216175808, 0.1953207179268502, 0.3203043956323491, 0.15305990591885166, 0.1335513014488389, -0.2660665630873781, -0.17168326855764882, 0.09014791127406348, -0.25271789193810035, -0.0858675480978166, -0.13920751428229258, 0.06719425171648677, 0.07413302720106311, -0.1775713892842953, -0.25979587701827905], [-0.2761569980565743, 0.16280460379384817, 0.3268441472324966, -0.02039972698581502, -0.09717924738754706, -0.07192162933889919, 0.07692755809751581, 0.04483040485741322, -0.22078573366737195, 0.006655144809852899, -0.13285826987749627, -0.028794767660998467, 0.07275232138351548, -0.2800851339282769, -0.22764220855469802, -0.21723985642754753, 0.29385953867363335, 0.045396780541126086], [-0.008406536394372263, -0.015617706303570249, -0.0025418599178612406, -0.041731500650640865, 0.08054154378965364, -0.1440260566471732, -0.07823236701606927, 0.14533395617515338, -0.27202396576696175, -0.06014458226447051, 0.034448832395272286, -0.26265113528665085, -0.018455180216885064, 0.1573346899718393, -0.1122022346440704, -0.21277056180844997, 0.06069671221502854, 0.18178640972978952], [-0.3075086245804691, -0.19093933301453492, 0.0638382504674311, -0.06847739279404831, 0.1421857863326007, 0.08694728588606973, -0.010401383106783861, -0.09746166400319017, -0.04057077963669988, -0.02142101482383513, 0.29099780325166524, -0.15503818998007007, -0.04597044038187593, 0.10147332275156123, -0.2527908982767584, -0.20711822641138297, 0.030508991596967096, 0.07842619043053432], [-0.3151008993029675, -0.008801789365928722, 0.2655158677746782, -0.05900498082995228, 0.0021763948234041607, -0.11332498749724247, -0.05243825870506637, 0.051317333304757407, -0.19490181870102238, 0.1861132282178887, -0.11852876274628014, 0.01146696516098829, -0.10262387536588997, -0.1855013011763003, -0.11560210050357642, -0.07202807161419526, 0.1336009870016253, -0.0877118156482916], [-0.1535267209946225, -0.17169346378450506, 0.11337379211784898, -0.0010393138943077939, 0.06820378727862618, 0.004154526376053307, -0.0636514490033886, 0.01888432083144707, -0.027189770202913358, 0.16880877271913933, 0.11162556040241775, 0.0966047558628522, 0.021444570672437487, -0.10716456398223637, -0.18788211741419553, -0.04070156099031436, -0.17247929763413603, 0.11708328661701681], [-0.09443174027642885, 0.1308673959919426, 0.04408372683837273, 0.11776280940010733, -0.15367390716867813, -0.1084933139474422, -0.0013888257939625801, -0.043805800897196254, -0.008942190617203444, 0.18183062554393395, -0.048602775550454946, 0.17590498244280559, -0.027568302910902044, 0.033808523163943456, 0.1940743083691036, -0.1353305671819787, -0.07084563112241679, -0.15344780510501282], [0.005334249993810699, -0.0043209630901905995, -0.15146897365466397, 0.1421471346914925, 0.021868940363652344, 0.09579970003127952, -0.015357345143491354, -0.12006371629190188, -0.19489494477269687, 0.08473550799179527, 0.20049506465729483, -0.13750865768539763, 0.0802900177684204, -0.09320075134623655, -0.06614872605652285, -0.12631530588530634, -0.14490158495318098, -0.12394855405602026], [0.13121386580148392, -0.08325973195282034, 0.06440357121217194, 0.007710768670634422, -0.2061378103306555, 0.17015128281193842, -0.20154228254129194, 0.1024104257748164, 0.04568791141933402, -0.20409044432760606, 0.0507744273994144, 0.0814535060663018, 0.2412506936194908, 0.18740867814709355, 0.08955864784773857, -0.13935552527148068, -0.15654671056965352, -0.20720292806966562], [0.10293330380427197, -0.11484836338012619, -0.18691674376793818, 0.012490998887767507, 0.21587143751339966, 0.08066484013605192, 0.12858956368910152, 0.1441632970507429, -0.09107204306166536, 0.04858568741267784, 0.09932589667100185, -0.11904079838223404, -0.0068857835617457865, 0.10814979065904212, -0.1548263623233094, -0.10062308445989085, 0.09110538993655805, -0.07059582676620962], [0.19403501758826278, -0.20899861331816127, -0.13454572344915114, 0.028212564093217613, -0.05224531320669983, 0.0559820092115003, 0.15866747488800756, 0.016564043348040593, -0.06593524482627862, 0.32013894424430683, 0.06743601660430243, -0.12220161195837892, -0.04299808975855631, 0.18530080310868294, -0.1090639913631814, 0.04520709876353239, 0.10174601992232588, -0.033077778065924476], [0.005148448208072794, -0.08524421246407336, -0.2505169033132728, -0.11588435618919773, -0.06512817975902603, -0.06511169005193018, -0.07386644956074573, -0.23743058081193455, -0.09813791845602701, 0.04096354480754493, 0.00130863959846852, 0.03253893231627098, -0.11067763618409238, -0.055498912999910215, -0.0450631680628702, 0.037318805561883966, 0.08830130593673044, -0.23641732716383498], [0.07685537038552906, -0.05431913085185506, 0.1966717188735263, 0.040473047762947245, 0.013854820952534617, -0.043180638801083956, -0.06795782902400709, 0.1346969260495416, -0.04524168286043387, 0.06745042591678864, -0.2076294922209063, -0.035664116418593884, -0.021493479801928426, 0.09808263719413324, -0.14088907556001454, -0.05533169252626494, -0.11088887386929701, -0.13556981955983752], [-0.017226764122742797, -0.033908171537541505, 0.10803244874768188, -0.14411895811574718, 0.046959571400008185, 0.010469459203323542, -0.04612315012206694, 0.15827767927185446, 0.008954072561259324, -0.028447826943501, 0.18362413112679452, 0.26718591198660574, 0.07291833467156743, -0.1860760569744873, -0.022108991124398236, 0.07097001428417914, -0.11649244238154968, 0.07091606575199083], [-0.003292553372508835, 0.016557146585995372, -0.10513061158231311, -0.027512041612977368, 0.0949395566685204, -0.06286278563745719, -0.04818385737392234, 0.06126188404772384, -0.10814053816817529, -0.1016658701432945, -0.029314937820971203, -0.20933931488705798, -0.23006707026361306, 0.007210711667586783, -0.09764515332689823, -0.02063616495048709, 0.18798615697955592, 0.3839246087707469], [0.03449878653079941, -0.12603235657956333, -0.3160730434241976, -0.09930669130541174, 0.1502836075818321, -0.10665503888405636, 0.004172413789795747, 0.17244034097444025, -0.2775432107958075, -0.08867466494812785, 0.027697711271979314, -0.2598483610260315, -0.3084071276932556, 0.07730316832132854, -0.15217154377860412, -0.1110955532653177, 0.2218949316512884, 0.33889281394991533], [0.14891279272228847, -0.05710021840424331, 0.10037449598661448, 0.0034852104658953313, -0.0016903379047866116, 0.06394780940044203, -0.10581289275843485, 0.09250816146449392, 0.0057012702925888035, -0.02284285831206807, 0.1261663351175199, 0.2371465200862958, -0.0663013240678449, -0.012021639639195057, -0.027372792118350142, 0.11369078530935124, -0.0796449678833248, 0.09303739213780049], [-0.08577602636820734, 0.17158342609221275, -0.08561353336184453, -0.20512855323911083, 0.14468541220985534, 0.28745841648174775, -0.024690805832244138, -0.04842566565415173, -0.1294153933764485, 0.23534743672376449, -0.10057132726317906, 0.11765734056969902, -0.029340409573089726, -0.08547167040069341, -0.1828814983872535, -0.034996892673902436, 0.13889309101274258, 0.06076248214290908], [0.22956731817011333, 0.1453636261284571, -0.2491975016300576, -0.11768757589460754, -0.13651211386855572, 0.1465678667609943, -0.08963496841415597, -0.2558142130012181, -0.006326593985014275, 0.07920602042434066, -0.10633073665414088, -0.2998662060992343, 0.08280302851058197, 0.13199955786878828, 0.1460430563515034, 0.060373446224365246, 0.25454364938358126, 0.18376583994957688], [-0.004847049817781444, -0.12910977110866845, -0.13156024987159717, -0.28970241589572937, -0.07999268042636914, 0.14629245085688003, 0.2314732410403723, 0.003098299251016159, 0.016013276743015982, 0.07312791857164606, -0.04025050792178698, -0.2616315562996169, 0.2321327098597755, 0.03784799538514943, 0.023513314707843763, -0.06805339656672467, 0.007759861424320606, 0.2061680282546031], [0.10993837856700582, 0.11309779925168634, -0.13492588813517684, -0.20538380715468815, -0.062099946090308, 0.09492038054137043, 0.009913797954001885, -0.04017597287166796, -0.05258061483577615, -0.1916452332049792, -0.09140995758409699, 0.010411101996822015, 0.18874859093599844, -0.0730828713867804, 0.07937570597947244, 0.19285397296970727, -0.12405590105583685, 0.06445818610481828], [0.21375949234965141, 0.10820628851357775, -0.05641334143325934, -0.10992662342623169, -0.2383571923812963, 0.20341040921815806, 0.03185946589070057, -0.26710151588012104, -0.21683012928246, 0.05485403204662242, -0.1174076215281891, -0.24682528122739988, 0.25612428800753934, 0.1019877284416642, 0.22435712440735928, -0.1234998200951942, 0.2500597086425885, 0.35512515248194454], [0.12231847641675994, 0.1983652568465724, -0.16824481462851384, 0.037613995086901574, 0.10637344053216795, 0.006985899049032166, -0.12958554135287342, -0.05981236816196009, 0.14415963405050203, -0.01118054940348962, -0.03849261319669512, -0.14662897443354, -0.0619771085613221, 0.08727137316454257, 0.14688621420844566, -0.045767825219559945, 0.1971175422372234, -0.05089096068596729], [0.04750461933656754, -0.12968837402056546, 0.1354881177454817, 0.08169856997244353, 0.18965335400953287, -0.1849956855766183, 0.17102272986799566, -0.05770804831793332, 0.09642884908346099, -0.04245506572803566, 0.16075197904973448, 0.26346172297870085, 0.04210747329057653, 0.11265278040663596, -0.09710205012349754, -0.008771486876919643, -0.003399990029052296, -0.035022559662567634], [-0.0774565473937718, -0.10148563558345688, 0.0221244325675879, 0.042407805223820795, 0.17416841551870618, -0.021377574956747185, -0.20952035563570304, 0.08083917295057264, -0.11953516824049822, 0.1875670204136699, 0.10475307842321899, 0.07260819364619665, -0.01769699068902602, 0.11387828121022034, -0.03824571187711135, 0.08005026025364448, -0.04822552306393665, 0.14996599185547765], [0.15228622597624325, 0.13423247284078596, -0.14035257742007878, -0.0665138018112301, 0.09448329674372, -0.13194988118562273, 0.015927299018931067, -0.028346600467008685, -0.014099725279199766, -0.05361466265859324, 0.009503524289247462, 0.03669573091248154, 0.1839885386024233, 0.08137005628061811, 0.010714850255356446, 0.0104036273938784, -0.06276493524739628, -0.06694953055779733], [0.3110127734276726, 0.17819582638721745, -0.19431375026598732, 0.025539203383741493, -0.03336405249476071, 0.30521747136659283, -0.05161515591065999, -0.08450920994482106, 0.05614036141708863, -0.002677903554352532, 0.12296055168119961, 0.08097646682522014, 0.14665456359934229, 0.06230570632297105, 0.11108710976516341, -0.01784880008260587, 0.18142403825834402, 0.12876975387856998], [0.10289979667515613, -0.15986387446657968, -0.0002218880607427242, -0.34469553409842374, -0.036263294526632614, 0.022135898647033195, 0.12499262129890269, -0.11995938166685219, 0.04930019918389342, 0.11898433412212242, -0.022474936988560453, -0.1517153973417187, 0.10723116480834974, 0.07127697867542405, 0.045421401604363795, 0.09912391291394076, 0.13546414881824786, 0.10459066724010105], [0.23530627699050255, -0.02404407520433901, 0.04868617635274786, -0.16354588587739405, 0.34730755474124686, 0.012073523248318214, 0.18489879643531718, -0.3701234908513012, 0.31502939835428667, -0.09679805235824415, 0.0673070578233014, -0.5157318439078085, 0.015278636219292529, 0.15878987327749758, -0.04541384145377529, -0.08608898995475488, 0.003963638578833382, 0.0016093843952274308], [0.14395189316646545, 0.1462395960865536, 0.1378911396927028, -0.0717804256512965, 0.27398950247642473, -0.07442634198033107, -0.11155745127668146, 0.1521499749105462, 0.09341752625829192, -0.2237472763396401, 0.09345288110586851, 0.034221449041352284, -0.04606848230572067, 0.16883913555687602, 0.09316582080298898, 0.08297794225676623, 0.18050138532136223, 0.1192951653739205], [0.16001294511009853, -0.07986941687226162, 0.07417360809984774, -0.12460325583373914, 0.1501049317187517, 0.1268950880362463, -0.19144391253131765, 0.013459399110869923, 0.06233746959971972, -0.08632471317624422, 0.12697076635282722, -0.08007273344112754, 0.03670959455046052, 0.09399088878670975, 0.09033730251088376, -0.02061296833523055, -0.08875330251573572, 0.13463984664337295], [-0.17230251717128336, -0.13966198842050837, -0.14397664406515345, 0.020273161257785492, 0.07444873746912657, 0.12105334508632289, 0.009343625177847722, -0.08168248460779448, -0.12309684764451094, 0.040392222754190896, -0.09329352908156748, 0.024666385069362112, 0.14517093527678854, -0.08630206752239748, -0.24821242220277717, 0.1244697592953069, -0.08348198111051444, -0.08819506682777534], [0.030801973400195, -0.12580996941198425, -0.040777770030323915, 0.02669003989114196, -0.16904677032285545, 0.04188352983425923, -0.07509475374588365, -0.12570360763295865, -0.038606701947692994, -0.0600781658822378, 0.1579969551504442, 0.314306211780515, -0.09011382128731771, -0.35128925715718123, -0.09965994205783744, 0.03619293626720576, 0.09698045199603812, 0.04230119599361924], [0.11116216400815258, 0.11682168428780217, 0.07098107042494, 0.17356364291174048, -0.09052896055546114, 0.1345844739961229, -0.21892644969603522, -0.15722265680428277, -0.056984635584674315, -0.12376334888451905, -0.018279707246990226, -0.11772566934720034, -0.08798289150514926, -0.10175253804818368, -0.0512663056299308, -0.10262409286465421, -0.13019611669635842, -0.03150230462881884], [0.18219985522783785, -0.08703383417886754, 0.08945932166406677, 0.21222695394436683, -0.1366980627207457, 0.18159993805276461, 0.15870790895830977, 0.00714735558272694, 0.009338839539757952, -0.1446788492368298, 0.15428574173357687, -0.14092552475353032, 0.10196041427889822, -0.05353767851639866, -0.1490669060503373, 0.2868787750315016, 0.19718502376135838, 0.05296739970352376], [0.020079225218447114, -0.09271210591129471, 0.16310273094697714, -0.14941372536850012, -0.23486354072201407, -0.1166874001814595, -0.09697648891657389, -0.09366570767369131, 0.04355294600330123, 0.12055232422275879, 0.19763793278034333, -0.10371784338052596, 0.07684646486231318, -0.14593285974570677, -0.143155352454793, -0.0008722398174300051, -0.006754598411055493, 0.1206672850710802], [0.09371871657481408, 0.09787588197314985, -0.05848918538533478, -0.04397438101900973, -0.05956214793625324, 0.07187933680654278, 0.1144872303525421, -0.17794934784708044, -0.02252661341260704, -0.07682702217415607, 0.045768361632758874, -0.02157830792478793, -0.011719064779406433, 0.06195157579307132, 0.03209313785431769, 0.02843041690941149, 0.09695291934785412, 0.16288491430972224], [0.25346337437181765, 0.005068922884566426, 0.057380214476926, -0.03709426824257894, 0.06721560912282892, -0.253946216890476, -0.02076025823492559, -0.11567386430026552, -0.07401653019920232, -0.46477218767071404, -0.068216693364993, -0.34080654435278707, -0.06310094357164397, -0.021512473312161728, -0.03872701603075747, 0.21429685038094576, -0.3707065909570824, -0.03260545581534485]], "wpe": [[0.1524848730944807, 0.00971644640032129, 0.07886155845655934, 0.024937238241298527, -0.1562225803123974, -0.12104272847212623, 0.05616353260861275, -0.0879287544648248, -0.023632855785099622, -0.33761002411491015, 0.04967694177805249, -0.03973060198524713, -0.04863829620268025, 0.002864293129931858, -0.07096859266573888, 0.13765298679488036, -0.30519125994595336, -0.018806084752817483], [0.09632633610122146, -0.011549642671716116, -0.025197608010349468, 0.03854208776027387, 0.022607534136511065, 0.11759328039334051, 0.008608917530318552, -0.060737905783566144, -0.1251007458149977, -0.0034265035493798953, -0.08026636314433377, 0.05341306749136621, -0.06297495901875058, -0.04589821160192817, 0.0019464051704304413, -0.12328807468965848, -0.10337766614563228, 0.020693415939367084], [-0.006042894265115923, -0.0845675164343698, 0.04021192398398069, -0.043990261066205884, 0.034898142661909624, 0.16738018941604121, 0.043966232842574504, 0.1212368745786362, -0.12164233365356611, -0.1398565353547263, 0.06842136283256312, 0.0221020976779139, -0.0031548331041237844, 0.05993588277786855, 0.023601776860135017, -0.15801832731629084, -0.05508606975715554, -0.03545029215692618], [0.008693240210662942, -0.08836288078120974, -0.03286261962128712, 0.012048489020528562, 0.00886059668990699, 0.1780679051333824, 0.05539639323076087, 0.2014881477679416, 0.012091196147240335, -0.009020754629385572, 0.15209263932687966, 0.02158270375762367, 0.13035433186730444, 0.032369876200798266, 0.11749805207008604, -0.07147730248073143, -0.11479840695559292, -0.004489349397735662], [0.0942483985946514, -0.10107596930349205, 0.06076426622070108, -0.019424970669589977, -0.13343730124803535, 0.012420701084423098, 0.006090062919069342, 0.04566631227620435, 0.07048697135015793, -0.03474690821886886, 0.046973849167212735, -0.01822955892587176, 0.12688607957350803, -0.03233219785925359, -0.007736750808415362, -0.07716647177116434, 0.09087081053350213, -0.09079957108940978], [0.08035402552270195, 0.1517365302532609, -0.03500441115563442, -0.011936854432793844, -0.03480988345984688, -0.05119826682473993, -0.04499930752177413, 0.21304236156809808, -0.003859727272761888, 0.09133593592293042, 0.04801728820531158, -0.02288653859687954, 0.0669450807292428, -0.050697549878127746, 0.04581188959044145, -0.03389857231569847, 0.14837366655777734, -0.06227000920120841], [0.021834030857538624, -0.0047089223489884665, -0.027554197309829012, 0.07859139369084017, 0.11106650995770298, -0.21493872688572885, -0.13954928633068114, 0.16968451983741056, 0.08768173284951802, -0.042989608635543804, 0.031051675213784383, -0.037641456548909685, -0.16736667269505073, 0.04294081056553287, 0.10784544609220006, -0.03372615076898667, 0.17152782727417698, 0.025353267938552526], [-0.2267340360484576, 0.1101969538511486, 0.16585855846041805, -0.013006883085111826, 0.12016645360298107, -0.24611814828887052, -0.0815236423660484, 0.025409113476847853, 0.03921197031333685, 0.0972761772996035, -0.22552863181764032, -0.01530115105346206, -0.022155260437448154, 0.04942885484523478, 0.1299080496934207, -0.18950041432791143, -0.0294314865041279, -0.3076590263540631], [-0.3308468900715615, 0.05189030337715507, 0.03519039907252202, 0.04019741379505939, 0.13954142110515078, 0.3740215901536382, -0.2687383366185982, -0.34666663931769476, -0.05600045187770493, 0.09393928291818983, 0.04325412193261685, 0.17962687283400047, 0.17220833683925416, 0.43412685074652, -0.5031818181004855, 0.6811749017156133, 0.1330801409828241, 0.3905086251182963], [0.04536660864910369, 0.050642587194130805, -0.0721603939545787, -0.04309828658801638, -0.02575055120759427, -0.01554627141464423, -0.00542631280864596, -0.010290555522716906, 0.0160859336616813, 0.03090326096922334, 0.1485447481248723, -0.04709268763842773, 0.02692043339247668, -0.15001638733199785, 0.0687359029434065, 0.12659627195252143, -0.07668421518282759, -0.018569775144598975], [-0.00020528989510029856, -0.0723053332511482, 0.07970348745612475, -0.029384368708958095, -0.09534620160941697, 0.020381421725358156, 0.006468935033225904, 0.07401467431903531, -0.03897903684811611, -0.013387727245813656, 0.05844401009188713, -0.05591901933349125, 0.11251878450430408, 0.04091618393718137, 0.06659353863860444, 0.05354093718177435, 0.06709893910185882, -0.17205344609406367], [0.059287510304171294, -0.03961105749661875, -0.05779448057904124, -0.04838162115888725, 0.02628758946718423, 0.027338765737690267, -0.17416280706764373, -0.07913495792158524, -0.013978328874461455, 0.07165583441318661, -0.20686224839160333, -0.020336359628174535, 0.20486813297170933, 0.1224464161350076, 0.1391533077357293, -0.03059993619472996, 0.14342367629907624, 0.03205562098081307], [-0.19591930589812734, 0.1573790975502527, 0.112030648006405, -0.013736418281704282, -0.027771965877803267, -0.011818695009324157, 0.13312902911227775, 0.09553833222608746, -0.03353172817387707, -0.026511301374062064, 0.09793232716165706, 0.002106532713155324, -0.09869565541488837, 0.008528911583883516, -0.06476913982057757, 0.07204520783001696, 0.06828816903888209, 0.0192187216701772], [0.012220453553659458, -0.025352849309944105, 0.04759044532787674, 0.0008745299940945046, -0.08090752048123712, -0.006662138733920223, -0.0005922913016403176, -0.04192529957937247, 0.06271407061407755, -0.09154641973707917, 0.026868686325507183, 0.13431494180337808, 0.030142664237348654, 0.1973428073572899, -0.0673423525046776, -0.05020175695810967, 0.08012374154405161, -0.1372078029853915], [-0.061413273871612446, 0.127051630148697, -0.10158773583848378, 0.029026159647314247, 0.06839339820373802, -0.18771936428655311, 0.04449540244620826, -0.030993313985707416, -0.05779470141283186, 0.059765791256079066, -0.24243389866432327, 0.02403982736993, 0.02091494280852948, 0.005286162539521724, -0.028180596930989895, 0.06464024655364292, 0.06221015464035225, -0.041933148271131794], [0.0158352215219825, -0.12489340652522167, 0.09758254942968854, 0.07949671199898647, -0.09339603951196557, -0.04753546839930855, -0.001791091731912621, 0.10421819157279666, 0.06668229849172494, 0.05258117812072009, -0.040730029393390786, -0.024469913435892818, 0.03920631256061172, 0.08101193954236388, 0.11063937524554902, -0.1739165186089641, -0.05331343547902862, 0.12317722190941562], [0.09306941167933702, 0.09723268486978377, 0.08464907686269964, -0.05149277519464555, 0.10199064835387396, 0.14198742318962285, 0.0979487193550472, 0.10414323647692841, 0.07160491376908491, -0.03240368782146, 0.07071048809150349, -0.22949071310244695, 0.09799854637819717, 0.041049018222068634, 0.04429173016087306, -0.01578171891746205, -0.042818915902042995, 0.03528418679611635], [-0.048247120188868745, 0.06516503464758944, 0.10356692404502771, -0.011622422888511093, 0.005985982955300151, 0.13654779070836665, 0.036256587478891586, 0.05217656504945958, 0.07567422330873427, -0.0017840321477957622, -0.05321679003821811, 0.042925970988379164, 0.07972138409752613, 0.050184408489117316, -0.08640665603473478, -0.08777837425121193, -0.06293978477356828, 0.03074548172504625], [0.04643857378159125, 0.09547709726782837, 0.008399073845294515, -0.08764844797588901, -0.1692756570893104, 0.16435078612466433, -0.11664923434220005, -0.01223745138344286, 0.10887174512224729, 0.052852598645696636, -0.0792063243527356, 0.08474522632191746, 0.006639230970231925, 0.010921512297724874, -0.10031796615376525, -0.10073657175625972, -0.04676085610734054, -0.06436850714604929], [-0.07026448627697834, -0.15357046145985342, 0.09807266388146235, 0.05296996064826812, -0.0029163089676962797, -0.06476039517789803, 0.03147250442299798, 0.05057634865627115, -0.012276649450074643, -0.03987503856099375, -0.022844116425316308, 0.005754091506468529, 0.05422040860203536, 0.005761434169275226, -0.028512121920388763, -0.05828778210564621, -0.07979113189815899, -0.08363336663395253], [0.03249592638596123, 0.1045814062293903, -0.042860384893564404, 0.0499467154730585, -0.08344378774253387, -0.032008887041940166, 0.04706678976982733, 0.0401002249717619, 0.012496914561667344, -0.053926945765838515, 0.01224216017306725, 0.11481235719791516, -0.07763576686166111, -0.032972152672804345, 0.16343983156531677, -0.0414273791840563, -0.06000176322627642, -0.06552957361915447], [0.14371451427265045, -0.07683245505611896, -0.09021487652269884, -0.04718368965873425, 0.06507779082341694, 0.1198072051550422, 0.05114165875690247, 0.11597286906443452, -0.036259526186382424, -0.07530744161276899, -0.07478642488650031, -0.03302774133807772, 0.06924561255576599, 0.005879059590862772, -0.007392617101193071, -0.10028327148120725, -0.07444236664247304, -0.015944037113492217], [-0.13051172984644877, -0.0017047822603526246, -0.05524044214099641, -0.04707062588844106, -0.08581383996162716, -0.024097892683903745, 0.038926255720667345, 0.11404009601342036, -0.11782359771732191, 0.11994862066783077, 0.01025159608894227, -0.11525962737123548, -0.19042970643074122, 0.026144668449963313, 0.04893914002574609, -0.04555659450871795, -0.04501322363245353, -0.14259614298601633], [-0.18597624487609432, -0.19927044749592246, 0.2275210108460198, 0.05990091121620674, -0.0304942510034611, -0.14837379720490396, 0.003996423455624265, 0.04129981291355016, 0.014769552378375869, 0.049156720887704584, -0.012984540821908697, -0.12578745197776275, 0.005987039597704515, 0.016202790450892977, 0.15380413665183862, -0.04562905132592197, -0.020265976719486357, -0.01667120269578737], [-0.0531279351060927, 0.03965171059351155, -0.05618602702448767, 0.034043465913925056, 0.029362852449354073, -0.016372825502996402, 0.026560487403274546, -0.0017730540376154193, -0.014175490415772303, -0.03488867325392516, -0.07300954235956322, 0.14208197696391037, 0.016168688891406397, 0.10194212961894333, -0.024621667485969518, 0.12253548803203067, 0.07922707274809812, -0.053624599228858746], [0.045663640850455614, 0.023548937594567772, -0.12680420756913677, -0.15690756196196362, -0.05667935577725726, 0.12174137459059507, -0.1160764997287689, 0.03286599962781715, -0.03843007906571088, -0.025506668903119922, -0.10793126271258487, -0.12044671320664062, 0.04071168801787774, -0.09770286250413475, -0.06424360851850809, 0.09713195047229085, -0.17500905084761115, -0.07641238066027686], [0.09623960389336607, -0.12460776995764743, 0.046401080319831596, -0.12491471414557324, -0.006964942129379945, 0.0655462892042105, 0.10062067109525967, 0.05245600696810779, 0.025296253872801492, 0.0073439901450519955, 0.00037077684610703645, 0.13251317927006986, 0.004031761371664503, -0.15724508497457376, 0.013756985952482583, 0.026339527418224488, -0.0028923014458761, 0.18223967855994067], [-0.0009401668888451441, -0.08641306587654675, -0.0006564487912869924, 0.011738726907730269, -0.13075609437453778, -0.03390334519666893, -0.06711687004550153, 0.03985823968090449, 0.07474259272468639, 0.016892394512948727, 0.07423193157442692, -0.05038697704831293, 0.034566585506073465, -0.0024455050139429, 0.020305545005134037, 0.10517760589444541, -0.0872177235139359, -0.019986282931741723], [-0.02125009866276199, 0.01562276897043262, 0.06994374881888547, 0.07455125490255166, 0.011661162428141443, -0.014905758314772597, 0.10885662432297821, -0.05529858131668004, 0.09831889688633498, -0.05307090130320313, 0.11750851980273634, -0.048286182579448056, -0.001314026317223368, -0.017126435042659892, -0.009040344881121515, -0.02069874338907731, -0.03651592951457817, 0.0673594106892911], [0.03643566706788422, 0.02741697650774398, -0.0067647142088234575, -0.06024624061300507, -0.004391008249861046, 0.08462729178769048, -0.2063346667367776, 0.011462339827161605, -0.0047406122943813465, -0.002697835650455766, -0.044861107173692294, -0.09365316520084828, -0.11280971271846058, 0.010383689651567548, 0.008332862163645824, -0.045734167266771715, 0.006175277797752582, 0.12838180000745855], [0.01527835106487276, 0.027386404553084644, 0.026281904355211227, -0.12262691327621196, -0.04431586008104608, -0.10704248565691193, -0.02766278944214469, -0.010599429111469235, -0.02998968648532087, 0.09840432378813022, -0.019033178191293194, 0.06566200282861681, -0.054513845752517706, -0.10032431866068892, 0.0882212862071736, -0.025396196356007338, -0.03210043750381667, -0.052855146791363855], [0.050914110651479834, -0.07436631901991046, -0.014167819758350998, 0.027625175376894084, -0.13622959113155894, -0.05767751156732546, -0.03902962867421674, 0.0496987152325932, 0.019637337351940367, -0.04941753080224966, -0.09144702795604558, -0.01886692347023007, -0.12546941186705693, -0.03615308280542354, -0.040800967511758414, 0.0079293885982232, -0.08293075486320622, 0.021323769284058068]], "lm_head": [[-0.2148539258980851, 0.007244169258975391, -0.40293843557977177, -0.054871004446546925, -0.0873157838503644, -0.14855099229614577, 0.09272647600215049, -0.32706097589385424, -0.04277480524237837, 0.18906842728181933, -0.04188911704938055, 0.057063655654126216, 0.18400239134787869, 0.1826597176132846, 0.10989909653445122, 0.5384545136591744, 0.0923090263267949, 0.02336285734915504], [-0.274329127208013, -0.2913955014139468, -0.2614233823799686, 0.041186168542734, 0.183676404640585, 0.07375847825381521, 0.3732547238063577, -0.08373017866242698, -0.416573086832775, 0.1140117421205815, -0.038729411240216186, 0.043640908277923586, -0.2595102982676167, -0.301573995028414, -0.19446145815109542, -0.008403840013739424, -0.3231402873664886, 0.3353087062047577], [-0.5445889416723941, -0.037366487404022417, -0.5580948451943696, -0.31692239545572803, -0.05093332224580472, -0.06259034746495927, 0.06011478917099165, -0.25125231030621514, -0.40333651497364537, 0.28481957085649057, 0.18474497387957384, -0.045105101953563376, -0.16025301734672653, -0.22572429120458143, -0.18367267980311738, 0.3038589458473646, 0.12920120801983004, 0.1986161384584202], [0.17291261985636946, -0.1370664946508663, 0.03260407280890861, 0.0037596973072824085, -0.22401015379116046, 0.1378541309223447, -0.18475228589580772, 0.09944254991397111, 0.04533496762931568, -0.22096347475910605, 0.06080300852552062, -0.015993450163925917, 0.08158864429397322, 0.09405655336828206, 0.27536041053976074, -0.11606346361400184, -0.27878990410032384, -0.14721029573852465], [-0.4271549792987055, 0.265603326869475, -0.3403962184284528, -0.033010066022318665, 0.21754085849647414, -0.04409188424079987, 0.4256688463598359, -0.38453947299415375, -0.009688322603649858, 0.12956412280641993, -0.13188112076477593, -0.06428741093064569, -0.09317066150540121, -0.2665105701113178, -0.16431192469185307, 0.6885016765787865, -0.03355753311354204, 0.20531027082148437], [-0.9013775463538857, 0.3444591820649716, -0.6789791635491215, -0.4873875859644467, 0.2892116457115441, -0.2093895369686, 0.3665269432045346, -0.5260065314891162, -0.35327555809720895, 0.49059023450783046, -0.042510846708493324, -0.1096744651283577, -0.10932460737314094, -0.17623446712774876, -0.401489074813102, 0.5353577946767442, 0.1574215118366115, 0.1338372808543348], [-0.6080038033758502, -0.017049450167707914, -0.5452887151857533, -0.3031720104241024, 0.025798755764245826, -0.30438915269268235, 0.4235771403370976, -0.28081129159369506, -0.39143375075887826, 0.4982442294924373, -0.03851598502314821, -0.07342631909970704, -0.194754393784167, -0.2845205001515817, -0.6164359838292207, 0.1462970839137624, 0.0273878244873069, 0.15378395373741996], [-0.6165982281239967, 0.17946542342424462, -0.6421521898087547, -0.7156645268840792, 0.2239238513175088, -0.1352692265586991, 0.15770700941399884, -0.4439707141540698, -0.4717102322025983, 0.47252436676759596, 0.21056833566105593, 0.1309576009324267, -0.258779142437949, -0.18241630281790472, -0.28566777259880033, 0.5508614797988425, 0.04377200775131062, 0.14792730072957044], [-0.093228461374951, 0.09679241285380018, -0.21378382298336732, -0.05042368016805835, 0.4755691547218119, -0.012542704968301597, 0.15753566967375235, -0.47725307955359936, -0.24542260120538978, 0.018696869840884183, -0.038153519440594044, 0.13648115216021794, -0.14629736294420176, -0.21496253117695577, -0.19243063926056347, 0.3316827673735731, -0.06443193528951917, 0.16938461538207242], [-0.47064690779363916, 0.40191603995381653, -0.4153454595147352, -0.6421146246133582, 0.060848311679870856, -0.23130784977525787, 0.10401740830330397, -0.34305412446704076, -0.31478285675747725, 0.41960855654256973, -0.15776326039339783, -0.01138836706225566, 0.037291927891726466, 0.09936186785992432, -0.1938726136362491, 0.4242454273407706, 0.10063500847633233, 0.007010597178294064], [-0.5985167548294836, 0.38319824084298837, -0.14022551542479164, -0.23098760512484323, 0.10941097757336535, -0.36778337672354616, 0.01948119403674182, -0.3121486386312121, -0.2282316137396095, 0.2746694236557758, -0.143031900334758, -0.12538406611411734, 0.02909860408380234, -0.030346600991533943, -0.29909625929435685, 0.17768764862453748, 0.05417673528371773, -0.16601531879408535], [-0.2116573122135405, -0.01001591140291035, -0.25983636181951225, -0.31252186079877103, -0.05348525901409768, -0.11112948344934968, 0.290524535170824, -0.06762901656503514, -0.05117384070486828, 0.4434645798155508, 0.16726073702817373, 0.11944517895782883, -0.05673914311638604, 0.07941049872394876, -0.077553320143497, 0.27005038375386825, 0.15416331298277153, -0.2078621780062775], [-0.4855968800194785, 0.09684347149349315, -0.44154759211171357, -0.4054057755346002, 0.03274372834077114, -0.20700931712921244, 0.3810863864934665, -0.20046169066620667, -0.1613332458168114, 0.1999215105777285, 0.23653790898173052, -0.19323344163351153, -0.12758571005248304, -0.20228043485717936, -0.5820537440913267, 0.5646036684136939, -0.06776187866730635, 0.08514397810858235], [-0.4464589846990943, -0.07469474274706399, -0.5544675265887514, -0.1792273837744574, 0.06086465453248865, -0.3198048578923388, 0.2245790731360888, -0.23013472458368645, -0.2937560660455001, 0.3892966802418324, -0.06468269205398379, -0.16464897065147108, -0.1418864214239513, -0.27401211958688715, -0.5204668418525003, 0.6505663620227649, -0.05438197038207801, 0.1524231626993731], [-0.5262116120021829, 0.05772661964152106, 0.06142288483910071, 0.0451139641439427, 0.07155319055175187, -0.36931884353399985, 0.20707800579085653, -0.18109331166092288, 0.01788156371587071, 0.09199601703177647, -0.08011660854063546, 0.13305361874785443, -0.31329396955028765, 0.13981288701945127, -0.06436796436005607, -0.2291039368204537, 0.1504805183042019, 0.12758623260239443], [-0.2393867093453456, 0.23658256267380878, -0.24151750514088163, -0.252468351608834, 0.15621701921701037, -0.2643405718734485, 0.3337607640199514, -0.26734761065082163, -0.37349111767005766, 0.3001168810039379, -0.10206557044252093, -0.19327596780773187, -0.2026951369114063, -0.20757175608413547, -0.049869486920361174, 0.29537576685676215, 0.02402366507800877, 0.18408573129213057], [-0.7225957588461562, 0.3638341077603495, -0.6850782513123355, -0.4526570087486044, 0.38358513123392696, -0.2129304636573579, 0.31391002130586604, -0.5666733559179561, -0.3559436714688656, 0.4338585274415917, -0.023630691659399284, 0.041661035584228914, -0.12048028523760226, -0.162805782248497, -0.5009591808401969, 0.552289530866312, 0.16463270331992158, 0.15493387692915062], [0.04086451356215001, 0.016640393059715746, 0.27143727703720366, 0.3484137232153496, -0.028426862810563686, -0.131874726261838, 0.0010060085716985907, -0.05260913763443303, 0.10404710861353399, -0.1546766559673457, -0.26377769606677953, -0.0880589453018508, -0.13208086349409973, 0.09111750672039551, 0.1717190063030899, -0.12576153752063124, -0.3065020305470453, 0.01158358057101459], [0.043694277970708, -0.18242058731960462, 0.010253787034182012, -0.14606478434285225, 0.06252307330448108, 0.1777216420685863, -0.1968418686651774, -0.03268670209549437, -0.2599167966456188, -0.07745873750048594, 0.2403827880558746, 0.13122053666813532, -0.22987309883936824, -0.34149337210929664, -0.19403852024586182, 0.06544886528907379, -0.29884165161579884, 0.333729982218463], [-0.5879115177787068, 0.23743296631880662, -0.66623756787054, -0.6029949051766333, 0.0905866293406025, -0.3607976204261955, 0.17248240252348918, -0.46351630722060067, -0.43907530759154045, 0.5593085230015359, 0.139458049135874, -0.23375016126681059, -0.19999571904448807, -0.05506593361609796, -0.515014333957862, 0.6118637130619206, -0.058209958558022606, 0.0537661361230672], [-0.06788181192278187, 0.23480746370532535, 0.024160479535949998, 0.06273567872017274, 0.10892607883870373, -0.3429224729927474, 0.04092043729928809, 0.2003580247197518, -0.08270532577274484, -0.0060130745987418376, -0.23409755367160492, 0.00560817722138741, -0.5004189421037584, -0.16252017963398696, 0.01404409902549989, 0.19637105237719885, 0.07099798113771529, -0.03803482950645629], [-0.3338836997302004, 0.09550478571045701, -0.567302045248248, -0.11055253270525722, 0.2682781707593866, -0.3168237029238653, 0.39252520745345515, -0.3253191256671008, -0.4162826738522768, 0.28492480774652046, 0.14689335860981823, -0.0619009684045126, -0.171818479488878, -0.1615487275566989, -0.5261553396099726, 0.4845755885035229, -0.06348286755990196, 0.09948654426771789], [-0.3664102293007645, -0.25788509626679207, -0.19289346531657814, -0.14837603092722407, -0.05933961672097295, -0.3511217298457412, 0.24475418219237, -0.2533192625579745, -0.3471695897422981, 0.00653967407099127, 0.025868484724180806, -0.04465637119337661, -0.20510037441144627, -0.18142530181623967, -0.4279540234319247, 0.05976925332496459, -0.21064229466249745, 0.08521889615181613], [-0.3035020757419763, -0.2922786785385248, -0.24422029674411505, -0.08900315750859503, 0.06441640541455652, -0.02309475620001597, 0.08309798905702773, -0.1905808892158237, -0.24068239026885446, 0.25592525144947503, 0.14466211363243564, -0.06148771646828776, -0.03148152482495232, 0.008195513108481389, -0.17075672690790428, 0.13885122714348108, -0.10629159104739665, 0.19380217193218527], [-0.34620064368336656, -0.01828853177627593, -0.5883789171741096, -0.1668644585850824, 0.22386009949237945, -0.4235638226406764, 0.09165868754149122, -0.3336292268276536, -0.3980809833430536, 0.4509966713089701, 0.05616308288994425, -0.1915667900021074, -0.18240576030982777, -0.17026119944015924, -0.30609474743340515, 0.20663732700262893, 0.019852210978968825, 0.23559544425815734], [-0.08053603476189357, -0.18692090018930319, -0.321441118886768, -0.464159761484301, -0.013665419041330042, 0.0660847022224203, 0.3162862150228035, -0.1272656672954807, -0.10390387005093905, 0.3044776248103106, 0.09395801848283832, -0.3685266581686642, 0.08813435333771936, -0.13525777349463086, -0.0350872195695864, 0.07829452220205209, 0.0837427914526079, 0.322037249359338], [-0.35003543438971935, 0.01117597784213657, -0.42818564403843934, 0.007126220840769339, 0.00999224214742675, 0.07950012328894603, 0.22368320238874478, -0.10440192698362441, -0.2782380517328846, 0.30955719518437574, 0.046067814933634633, 0.03522783557612038, 0.049782429920230645, -0.0476841271266962, -0.022936836321245057, 0.1738281405786584, -0.08469027225663607, 0.010862569669624513], [-0.686395434332695, 0.1587418134899466, -0.5250604428417063, -0.5469557764336506, 0.14734646584283445, -0.054605011070840474, 0.42585600124274026, -0.23495547599509506, -0.16868027369892308, 0.5179957088092102, 0.0175107625421296, -0.04851443814374801, -0.1083717646741247, -0.22194226071960213, -0.46433581810447194, 0.34719834494944984, -0.14210331056119405, 0.04729118806775909], [-0.5904019811349805, 0.3429791247042338, -0.40853158094384295, -0.42336021609368524, 0.1498332228375408, -0.20336584141387085, 0.3231891738391353, -0.40673360876345865, -0.4816957428501476, 0.5198856069294218, -0.07250892928745428, -0.14547493587465618, -0.04754887015882675, -0.09672376074575124, -0.5539974471051983, 0.7107587402457336, -0.053445607016467805, 0.1672313714507882], [-0.7418438872223361, 0.2430281199853575, -0.28657349524824427, -0.3257379935394039, 0.22581244023180055, -0.30039784426916033, 0.28652002719483305, -0.478554287201513, -0.2736953055940132, 0.29844198898158747, 0.0803599868357829, -0.06041802425718279, 0.030737099951163152, -0.0702513374142145, -0.6097735745012031, 0.5729268535033122, -0.06823353189077597, 0.08181390930407122], [-0.15165908307523152, -0.17106445231878453, -0.2999815499162916, -0.31871249509047767, 0.1108882193519668, -0.24497225392097094, 0.2324673619361992, -0.22189222776739959, -0.28031423025498053, 0.2813764932132864, -0.09022324744386305, -0.10678362083252622, -0.14157699852771802, -0.36945960079215456, -0.5123225886109156, 0.4955645065216826, -0.0566808302375078, 0.14448623170207808], [-0.06019273091412735, 0.19689198573869682, -0.34604821424944826, -0.19310053410710434, 0.029746578538916095, 0.1210559399205639, 0.22555559380277931, -0.460026483580154, -0.2059024092329755, -0.06001875105360748, 0.22525716982707525, -0.19846368489119168, 0.07329506887990053, 0.02306385891934495, -0.07944550610576262, -0.03151027683290345, -0.030853607815093838, 0.28790956507810483], [-0.7042137141092901, 0.259559339098705, -0.5121152366182024, -0.500636003954905, 0.19967646772887726, 